tree
version=v4
num_class=1
num_tree_per_iteration=1
label_index=0
max_feature_idx=453
objective=binary sigmoid:1
feature_names=williams_r vwap_dt fisher_dt cmma vmd_0_dt evenbetter_sinewave_short_dt evenbetter_sinewave_long_dt vmd_0_dt_lag1 evenbetter_sinewave_long vmd_0_dt_lag3 reactivity vmd_1_dt_lag2 fisher_dt_lag1 vmd_0_dt_lag2 vwap_dt_lag1 stc_dt_lag1 fisher vmd_1_dt_lag1 vmd_1_ddt_lag4 cmma_lag1 stc trendflex_dt stc_dt williams_r_lag1 voss vmd_1_dt_lag3 roofing_filter_ddt norm_on_balance_volume vmd_1_lag9 vmd_1_ddt_lag5 vmd_1_lag6 vmd_1_ddt_lag3 vmd_0_dt_lag4 vmd_1_dt trendflex cmma_lag2 vmd_2_lag4 williams_r_lag2 vmd_1_ddt_lag7 vmd_0_dt_lag6 reactivity_lag1 vmd_1_lag5 fisher_dt_lag2 vmd_0_lag13 williams_r_dt acc_swing_index_dt evenbetter_sinewave_short vmd_0_lag16 vmd_1_dt_lag11 vwap_dt_lag2 vmd_1_lag7 vmd_0_lag18 vmd_1_lag10 vmd_1_lag8 vmd_0_dt_lag5 vmd_2_dt voss_lag1 adaptive_stochastic_dt_lag1 vmd_2_dt_lag1 acc_swing_index_dt_lag1 bandpass ehlers_early_onset_trend_ddt vmd_2_ddt_lag3 vmd_2_lag3 acc_swing_index_dt_lag2 vmd_0_lag12 vmd_2_ddt_lag2 voss_filt_dt vmd_0_ddt_lag19 ehlers_early_onset_trend_dt bandpass_dt_lag1 stc_dt_lag2 vmd_1_lag4 vmd_1_dt_lag9 vmd_0_lag19 evenbetter_sinewave_short_lag1 cmma_lag3 voss_filt_dt_lag1 evenbetter_sinewave_short_dt_lag1 vmd_1_dt_lag12 voss_filt trendflex_dt_lag2 vmd_1_ddt_lag6 bandpass_lag1 adaptive_cci_dt trendflex_lag1 vmd_2_lag5 roofing_filter_ddt_lag1 voss_lag2 evenbetter_sinewave_long_lag1 evenbetter_sinewave_short_ddt vmd_0_ddt_lag11 vmd_1_dt_lag10 vmd_0_ddt_lag8 highpass_bp_dt trendflex_ddt_lag2 vmd_1_ddt_lag2 trendflex_lag2 adaptive_stochastic_dt ehlers_early_onset_trend_ddt_lag1 fisher_ddt_lag1 roofing_filter_dt aroon_diff fisher_ddt aroon_diff_lag1 bandpass_dt vmd_1_lag3 evenbetter_sinewave_short_lag2 vmd_1_lag11 adaptive_stochastic_ddt adx_7_dt_lag1 vmd_0_lag14 vmd_0_dt_lag7 fisher_lag4 vmd_1_dt_lag14 conv_0 vmd_2_dt_lag5 adaptive_bp_ddt adaptive_stochastic aroon_diff_lag2 voss_dt_lag1 vmd_2_dt_lag2 swamicharts_stochastic_34 vmd_0_ddt_lag3 adaptive_cci_ddt vmd_2_dt_lag6 vmd_1_dt_lag13 adaptive_cci fisher_lag1 swamicharts_stochastic_25 norm_on_balance_volume_lag1 vmd_0_lag17 fisher_lag2 vmd_0_ddt_lag17 cmma_dt norm_on_balance_volume_lag2 trendflex_ddt vmd_0_ddt_lag6 bekker_parkinson_vol adx_14_dt_lag1 adx_7_dt highpass_bp_ddt_lag2 williams_r_dt_lag1 trendflex_ddt_lag1 roofing_filter_dt_lag2 reactivity_lag2 swamicharts_stochastic_9 swamicharts_stochastic_43 mod_rsi_ddt vmd_1_dt_lag8 evenbetter_sinewave_long_dt_lag1 trendflex_dt_lag1 swamicharts_stochastic_27 voss_dt swamicharts_stochastic_3 evenbetter_sinewave_long_ddt highpass_bp swamicharts_stochastic_19 adx_14_dt vmd_2_ddt_lag1 stc_lag4 evenbetter_sinewave_short_lag3 adaptive_stochastic_dt_lag2 chaiken_money_flow_dt_lag2 vmd_0_ddt_lag4 vmd_1_ddt_lag12 swamicharts_stochastic_13 adaptive_cci_ddt_lag1 trendflex_lag3 swamicharts_stochastic_4 vmd_1_lag2 bandpass_ddt_lag1 roofing_filter_lag2 vmd_1_dt_lag4 reactivity_lag4 stc_lag1 vmd_0_ddt_lag15 vmd_2_ddt_lag9 swamicharts_stochastic_11 adaptive_rsi_dt vmd_1_ddt_lag1 norm_on_balance_volume_dt_lag1 vmd_0_ddt_lag7 cmma_dt_lag3 cmma_dt_lag2 aroon_diff_dt_lag1 vmd_2_ddt_lag4 iqr_ratio_lag1 voss_filt_ddt_lag2 acr vmd_1_ddt_lag15 vmd_2_lag10 adaptive_stochastic_ddt_lag1 bandpass_ddt vmd_2 reactivity_lag3 bekker_parkinson_vol_dt fisher_ddt_lag2 vmd_1_lag19 swamicharts_stochastic_5 vmd_1_lag12 reactivity_dt williams_r_lag3 williams_r_lag5 highpass_bp_ddt natr vmd_0_lag9 cmma_dt_lag1 vmd_1_ddt_lag14 vmd_1_ddt_lag13 vmd_0_lag11 conv_1 adaptive_bp_ddt_lag7 vmd_0_ddt_lag1 vmd_2_lag9 adaptive_bp_ddt_lag1 cmma_ddt swamicharts_stochastic_1 williams_r_ddt stc_lag19 ehlers_early_onset_trend_lag8 ehlers_early_onset_trend_ddt_lag2 swamicharts_stochastic_22 roofing_filter_lag15 vmd_0_lag7 vmd_0_ddt_lag9 mod_rsi_dt_lag3 adx_7_dt_lag2 roofing_filter_lag1 adaptive_rsi_dt_lag1 bekker_parkinson_vol_ddt_lag1 bandpass_lag3 vmd_0_lag15 trendflex_ddt_lag3 voss_filt_ddt bekker_parkinson_vol_lag1 vmd_1_ddt_lag8 swamicharts_stochastic_16 vmd_2_lag11 homodyne_ddt stc_lag3 vmd_2_lag8 vmd_2_dt_lag12 voss_filt_lag2 iqr_ratio_dt adaptive_cci_lag10 evenbetter_sinewave_short_lag7 roofing_filter_dt_lag5 stc_ddt highpass_bp_ddt_lag1 vmd_0_ddt_lag12 iqr_ratio_lag5 iqr_ratio_dt_lag1 cmma_lag7 bandpass_ddt_lag2 voss_lag9 mod_rsi_ddt_lag1 vmd_0_ddt_lag16 williams_r_dt_lag2 cmma_lag4 natr_dt vmd_0_ddt_lag14 vmd_2_dt_lag7 vmd_0_lag4 fisher_lag6 mod_stochastic_dt cmma_lag5 vmd_0_lag10 swamicharts_stochastic_0 voss_filt_lag5 ehlers_early_onset_trend_dt_lag1 natr_dt_lag3 natr_dt_lag2 swamicharts_stochastic_28 vmd_1_dt_lag15 highpass_bp_dt_lag2 vmd_1_ddt_lag16 vmd_0_dt_lag8 cwt_11_dt_lag4 norm_on_balance_volume_dt_lag2 evenbetter_sinewave_short_lag5 vmd_2_lag2 voss_filt_ddt_lag1 adx_7 mod_rsi voss_filt_lag1 bandpass_dt_lag9 swamicharts_stochastic_18 voss_ddt price_variance_ratio_lag4 highpass_bp_lag1 cwt_9_dt_lag12 ehlers_early_onset_trend_lag1 norm_on_balance_volume_dt adaptive_bp_lead reactivity_lag7 swamicharts_stochastic_37 vmd_2_ddt_lag7 price_variance_ratio_lag1 roll_impact_dt vmd_2_lag1 swamicharts_stochastic_2 adaptive_rsi_ddt adaptive_stochastic_lag1 highpass_bp_dt_lag1 cwt_12_lag3 vwap_dt_lag8 adx_14_ddt swamicharts_rsi_1 chaiken_money_flow_lag1 hasbrouck_lambda_lag10 cwt_0_dt_lag6 ma_difference_dt vmd_1_dt_lag5 vmd_1_ddt_lag18 evenbetter_sinewave_short_lag13 hasbrouck_lambda_lag6 fisher_lag3 adx_7_ddt adaptive_rsi swamicharts_rsi_20 natr_ddt hasbrouck_lambda_lag1 cwt_11_dt_lag8 evenbetter_sinewave_short_ddt_lag1 bekker_parkinson_vol_dt_lag1 conv_3 hasbrouck_lambda_lag8 ac_5 ehlers_early_onset_trend_dt_lag14 adaptive_bp_lead_dt_lag1 adaptive_stochastic_ddt_lag2 evenbetter_sinewave_short_dt_lag5 cwt_18_dt trendflex_lag8 mod_rsi_dt adaptive_bp_lag2 swamicharts_stochastic_21 reactivity_lag9 cwt_16_dt_lag2 evenbetter_sinewave_short_ddt_lag2 iqr_ratio_lag3 bandpass_ddt_lag7 stc_lag18 cwt_15_dt_lag9 stc_lag5 cwt_20_lag8 trendflex_lag17 trendflex_lag5 cwt_16_dt_lag11 norm_on_balance_volume_lag18 norm_on_balance_volume_lag5 acc_swing_index_dt_lag3 cmma_lag10 reactivity_lag5 voss_filt_dt_lag2 iqr_ratio evenbetter_sinewave_long_dt_lag4 voss_filt_lag8 natr_lag9 forecast_oscillator_lag2 evenbetter_sinewave_long_lag5 fti_dt_lag1 cwt_15_dt_lag2 williams_r_lag4 reactivity_lag8 vwap_dt_lag14 iqr_ratio_ddt natr_lag1 price_variance_ratio_dt_lag1 swamicharts_stochastic_36 cwt_19_lag2 vmd_2_ddt_lag6 cwt_3_dt_lag7 stc_dt_lag3 aroon_diff_lag16 cwt_3_dt_lag8 cwt_6_dt_lag5 vmd_2_dt_lag11 vmd_0_dt_lag19 natr_lag19 voss_ddt_lag2 acc_swing_index_lag12 cwt_18_lag2 cwt_17_dt_lag19 highpass_bp_dt_lag3 vmd_1_dt_lag7 amihud_lambda_lag5 cwt_0_lag4 cwt_20_ddt_lag4 vwap_lag3 corwin_schultz_estimator_lag2 adaptive_bp_lead_dt_lag5 cwt_5_dt_lag6 vmd_0_ddt_lag2 hurst_coef_fast_lag2 iqr_ratio_lag11 cwt_11_lag7 vmd_2_lag15 cwt_6_dt_lag11 hurst_coef_slow_lag13 stc_ddt_lag1 swamicharts_stochastic_42 trendflex_lag19 stc_lag2 adx_14_lag7 phase_accumulation_dt_lag13 vmd_1_lag17 corwin_schultz_estimator cwt_3_dt adaptive_bp_lead_lag2 vmd_2_ddt_lag8 bandpass_dt_lag10 ehlers_early_onset_trend_lag6 cwt_17_dt_lag8 cwt_15_lag6 evenbetter_sinewave_long_lag8 reactivity_lag13 cwt_4_lag4 vwap_dt_lag3 adx_14_dt_lag14 price_variance_ratio_lag6 price_change_oscillator_dt dual_diff_lag12 price_variance_ratio_lag12 cwt_8_lag5 cwt_15_lag15 adaptive_bp_ddt_lag4 acc_swing_index corwin_schultz_estimator_lag1 trendflex_dt_lag4 adx_14_lag4 swamicharts_stochastic_38 acc_swing_index_ddt_lag3 mod_stochastic_ddt_lag10 evenbetter_sinewave_long_lag3 iqr_ratio_lag6 cmma_lag18 cwt_4_dt_lag4 reactivity_lag10 amihud_lambda bekker_parkinson_vol_dt_lag12 natr_ddt_lag3 cwt_13_ddt_lag3 vmd_0_dt_lag18 iqr_ratio_lag17 cwt_11_lag16 adaptive_rsi_ddt_lag1 adaptive_stochastic_ddt_lag5 cwt_18_ddt_lag5 amihud_lambda_lag7 cwt_1_lag13 fisher_lag10 hurst_coef_fast_lag11
feature_infos=[-100:0] [-5574.4106740284769:4750.9075802778534] [-3.2217828583094281:2.8170649071029654] [-50.310906008941117:-49.745151971640489] [-324.83835639969936:377.13988228658764] [-1.3676110939596215:1.2920446465703106] [-1.3674595820093987:1.2112580050238739] [-324.83835639969936:377.13988228658764] [-0.99999970457238041:0.99999979502468783] [-324.83835639969936:377.13988228658764] [-49.999999999999986:50] [-489.59907749475906:442.52855759183853] [-3.2217828583094281:2.8170649071029654] [-324.83835639969936:377.13988228658764] [-5574.4106740284769:4750.9075802778534] [-50:50] [-7.4302063350998573:7.5539407426097824] [-489.59907749475906:442.52855759183853] [-150.90867160156415:138.77901950656951] [-50.310906008941117:-49.745151971640489] [1.7347025807070013e-16:100] [-1.7362922047482978:1.2110154620582476] [-50:50] [-100:0] [-2583.4355868643588:2208.739410966662] [-489.59907749475906:442.52855759183853] [-91.477224336311792:98.637961868942512] [-48.761575499534047:48.761575499534047] [-2024.7105472854987:1871.0215091074867] [-150.90867160156415:138.77901950656951] [-2024.7105472854987:1871.0215091074867] [-150.90867160156415:138.77901950656951] [-324.83835639969936:377.13988228658764] [-489.59907749475906:442.52855759183853] [-3.464672005250423:3.0808679983430283] [-50.310906008941117:-49.745151971640489] [-882.01980300232572:902.1022058129588] [-100:0] [-150.90867160156415:138.77901950656951] [-324.83835639969936:377.13988228658764] [-49.999999999999986:50] [-2024.7105472854987:1871.0215091074867] [-3.2217828583094281:2.8170649071029654] [-3027.9800631591597:2858.8322955110129] [-85.870936874118115:88.434893580856013] [-137.40699308056355:128.33269274048507] [-0.99999987456747375:0.99999998501199139] [-3027.9800631591597:2858.8322955110129] [-489.59907749475906:442.52855759183853] [-5574.4106740284769:4750.9075802778534] [-2024.7105472854987:1871.0215091074867] [-3027.9800631591597:2858.8322955110129] [-2024.7105472854987:1871.0215091074867] [-2024.7105472854987:1871.0215091074867] [-324.83835639969936:377.13988228658764] [-591.83599363435599:560.56132534150686] [-2583.4355868643588:2208.739410966662] [-0.27140845686504633:0.27271341837919627] [-591.83599363435599:560.56132534150686] [-137.40699308056355:128.33269274048507] [-1:1] [-1.3877392516946667:1.6208577359307683] [-326.25072460411229:346.09714247643001] [-882.01980300232572:902.1022058129588] [-137.40699308056355:128.33269274048507] [-3027.9800631591597:2858.8322955110129] [-326.25072460411229:346.09714247643001] [-487.77746025472072:396.56545328050947] [-46.14469148905664:48.863616662611548] [-1.6208577359307683:0.95916085242222004] [-1.012589391933516:0.8778694825647968] [-50:50] [-2024.7105472854987:1871.0215091074867] [-489.59907749475906:442.52855759183853] [-3027.9800631591597:2858.8322955110129] [-0.99999987456747375:0.99999998501199139] [-50.310906008941117:-49.745151971640489] [-487.77746025472072:396.56545328050947] [-1.3676110939596215:1.2920446465703106] [-489.59907749475906:442.52855759183853] [-1334.912504903692:1598.0777519305948] [-1.7362922047482978:1.2110154620582476] [-150.90867160156415:138.77901950656951] [-1:1] [-52.105762429761064:43.341565697021466] [-3.464672005250423:3.0808679983430283] [-882.01980300232572:902.1022058129588] [-91.477224336311792:98.637961868942512] [-2583.4355868643588:2208.739410966662] [-0.99999970457238041:0.99999979502468783] [-2.0669312521597414:2.1617135423741707] [-46.14469148905664:48.863616662611548] [-489.59907749475906:442.52855759183853] [-46.14469148905664:48.863616662611548] [-1.0017249174535685:0.73156187232370706] [-1.0653426212194959:0.94499912289624555] [-150.90867160156415:138.77901950656951] [-3.464672005250423:3.0808679983430283] [-0.27140845686504633:0.27271341837919627] [-1.3877392516946667:1.6208577359307683] [-4.1678646769103995:3.3126163101760566] [-248.59988937092413:417.0194629512489] [-100:100] [-4.1678646769103995:3.3126163101760566] [-100:100] [-1.012589391933516:0.8778694825647968] [-2024.7105472854987:1871.0215091074867] [-0.99999987456747375:0.99999998501199139] [-2024.7105472854987:1871.0215091074867] [-0.18291979576593642:0.1747332059612699] [-11.09936867529288:9.1655810741813468] [-3027.9800631591597:2858.8322955110129] [-324.83835639969936:377.13988228658764] [-7.4302063350998573:7.5539407426097824] [-489.59907749475906:442.52855759183853] [0.047425873190745094:0.95257411881335208] [-591.83599363435599:560.56132534150686] [-0.5914414247104437:0.65280527502171648] [-0.038900061282478297:1.0401221176755273] [-100:100] [-1223.1707472959533:1035.7675837620711] [-591.83599363435599:560.56132534150686] [0:1] [-46.14469148905664:48.863616662611548] [-33.958786747270565:30.202257046622652] [-591.83599363435599:560.56132534150686] [-489.59907749475906:442.52855759183853] [-161.47576853537322:176.51130496417358] [-7.4302063350998573:7.5539407426097824] [0:1] [-48.761575499534047:48.761575499534047] [-3027.9800631591597:2858.8322955110129] [-7.4302063350998573:7.5539407426097824] [-46.14469148905664:48.863616662611548] [-0.2305922991227547:0.16788456002811358] [-48.761575499534047:48.761575499534047] [-1.0653426212194959:0.94499912289624555] [-46.14469148905664:48.863616662611548] [0:1.0502956615250749] [-4.1836948210636749:4.0483714787917791] [-11.09936867529288:9.1655810741813468] [-0.95847440715351995:1.0008992342481373] [-85.870936874118115:88.434893580856013] [-1.0653426212194959:0.94499912289624555] [-248.59988937092413:417.0194629512489] [-49.999999999999986:50] [0:1] [0:1] [-0.13473153843655217:0.10793357202203141] [-489.59907749475906:442.52855759183853] [-1.3674595820093987:1.2112580050238739] [-1.7362922047482978:1.2110154620582476] [0:1] [-1223.1707472959533:1035.7675837620711] [0:1] [-1.8974602378555105:1.9482227379212271] [-1.2658310526601948:1.4005008484989987] [0:1] [-4.1836948210636749:4.0483714787917791] [-326.25072460411229:346.09714247643001] [1.7347025807070013e-16:100] [-0.99999987456747375:0.99999998501199139] [-0.27140845686504633:0.27271341837919627] [-0.69914666287262783:0.55273011809692929] [-46.14469148905664:48.863616662611548] [-150.90867160156415:138.77901950656951] [0:1] [-33.958786747270565:30.202257046622652] [-3.464672005250423:3.0808679983430283] [0:1] [-2024.7105472854987:1871.0215091074867] [-1.032462635657263:0.94953203893453431] [-2415.3342304043617:2343.0910786868767] [-489.59907749475906:442.52855759183853] [-49.999999999999986:50] [1.7347025807070013e-16:100] [-46.14469148905664:48.863616662611548] [-326.25072460411229:346.09714247643001] [0:1] [-0.26486010254599562:0.26735276641073819] [-150.90867160156415:138.77901950656951] [-68.739582581250005:79.384141783192263] [-46.14469148905664:48.863616662611548] [-0.2305922991227547:0.16788456002811358] [-0.2305922991227547:0.16788456002811358] [-107.14285714285714:107.14285714285715] [-326.25072460411229:346.09714247643001] [-464.60252525942735:-4.9885664760266453] [-246.292399443916:189.06558828561867] [0:1] [-150.90867160156415:138.77901950656951] [-882.01980300232572:902.1022058129588] [-0.18291979576593642:0.1747332059612699] [-1.032462635657263:0.94953203893453431] [-882.01980300232572:902.1022058129588] [-49.999999999999986:50] [-0.81868517731599377:1.0447718415091045] [-4.1678646769103995:3.3126163101760566] [-2024.7105472854987:1871.0215091074867] [0:1] [-2024.7105472854987:1871.0215091074867] [-77.864069742296891:92.039865096347569] [-100:0] [-100:0] [-0.95847440715351995:1.0008992342481373] [0.54633581344715154:6.0704824908132275] [-3027.9800631591597:2858.8322955110129] [-0.2305922991227547:0.16788456002811358] [-150.90867160156415:138.77901950656951] [-150.90867160156415:138.77901950656951] [-3027.9800631591597:2858.8322955110129] [0.047425873182251166:0.95256814597153139] [-0.5914414247104437:0.65280527502171648] [-46.14469148905664:48.863616662611548] [-882.01980300232572:902.1022058129588] [-0.5914414247104437:0.65280527502171648] [-0.25943772821995736:0.25300571953262363] [0:1] [-153.43140562438651:154.07395615349151] [1.7347025807070013e-16:100] [-1:1] [-1.3877392516946667:1.6208577359307683] [0:1] [-2415.3342304043617:2343.0910786868767] [-3027.9800631591597:2858.8322955110129] [-46.14469148905664:48.863616662611548] [-0.20537556066164842:0.21716907751589004] [-11.09936867529288:9.1655810741813468] [-2415.3342304043617:2343.0910786868767] [-0.26486010254599562:0.26735276641073819] [-1.2763823257181857:1.0392480214931341] [-1:1] [-3027.9800631591597:2858.8322955110129] [-1.0653426212194959:0.94499912289624555] [-246.292399443916:189.06558828561867] [0:1.0502956615250749] [-150.90867160156415:138.77901950656951] [0:1] [-882.01980300232572:902.1022058129588] [-3.0605098016667682:2.8257044648604825] [1.7347025807070013e-16:100] [-882.01980300232572:902.1022058129588] [-591.83599363435599:560.56132534150686] [-1334.912504903692:1598.0777519305948] [-192.87394724820192:284.90367447842516] [-161.47576853537322:176.51130496417358] [-0.99999987456747375:0.99999998501199139] [-248.59988937092413:417.0194629512489] [-54.959007599384336:54.973323447407033] [-0.95847440715351995:1.0008992342481373] [-46.14469148905664:48.863616662611548] [-464.60252525942735:-4.9885664760266453] [-192.87394724820192:284.90367447842516] [-50.310906008941117:-49.745151971640489] [-1.032462635657263:0.94953203893453431] [-2583.4355868643588:2208.739410966662] [-0.13473153843655217:0.10793357202203141] [-46.14469148905664:48.863616662611548] [-85.870936874118115:88.434893580856013] [-50.310906008941117:-49.745151971640489] [-0.38874644906714995:4.8712415613360829] [-46.14469148905664:48.863616662611548] [-591.83599363435599:560.56132534150686] [-3027.9800631591597:2858.8322955110129] [-7.4302063350998573:7.5539407426097824] [-0.15592107700991542:0.15731348359806499] [-50.310906008941117:-49.745151971640489] [-3027.9800631591597:2858.8322955110129] [0:1] [-1334.912504903692:1598.0777519305948] [-1.6208577359307683:0.95916085242222004] [-0.38874644906714995:4.8712415613360829] [-0.38874644906714995:4.8712415613360829] [0:1] [-489.59907749475906:442.52855759183853] [-1.0017249174535685:0.73156187232370706] [-150.90867160156415:138.77901950656951] [-324.83835639969936:377.13988228658764] [-1.2676457725062642:1.1695406312775849] [-68.739582581250005:79.384141783192263] [-0.99999987456747375:0.99999998501199139] [-882.01980300232572:902.1022058129588] [-246.292399443916:189.06558828561867] [7.5515820509960099:94.768672129201363] [-0.028981208319112071:1.0332966673712471] [-1334.912504903692:1598.0777519305948] [-1.012589391933516:0.8778694825647968] [0:1] [-1137.3503099949103:1439.4358826681498] [-49.326877826625697:38.74927123971878] [-1.2658310526601948:1.4005008484989987] [-1.3786612874403854:1.2775514081565349] [-1:1] [-68.739582581250005:79.384141783192263] [-0.69999999999999984:0.70000000000000007] [-49.999999999999986:50] [0:1] [-326.25072460411229:346.09714247643001] [-49.326877826625697:38.74927123971878] [-1.5791888462041786e-05:1.7707414134822774e-05] [-882.01980300232572:902.1022058129588] [0:1] [-0.19693939881066791:0.17086739815975244] [-0.038900061282478297:1.0401221176755273] [-1.0017249174535685:0.73156187232370706] [0.17444794628247948:4.4399443121148376] [-5574.4106740284769:4750.9075802778534] [-5.4791542821562373:4.3559414164309338] [0:1] [-0.54786885925521989:0.66195550445126661] [5.0049759626926209e-08:2.039760821597683e-06] [-1.1821017237229281:1.2127242015434472] [-840.20802114525577:1435.2336606378667] [-489.59907749475906:442.52855759183853] [-150.90867160156415:138.77901950656951] [-0.99999987456747375:0.99999998501199139] [5.0049759626926209e-08:2.039760821597683e-06] [-7.4302063350998573:7.5539407426097824] [-12.979849638322754:11.083488616686545] [-0.038750717029515928:1.0399159687821709] [0.10467707665002242:0.84271235231255814] [-5.2599880104032328:4.8198675201598187] [5.0049759626926209e-08:2.039760821597683e-06] [-1.2676457725062642:1.1695406312775849] [-2.0669312521597414:2.1617135423741707] [-0.81868517731599377:1.0447718415091045] [0.047425884369582672:0.95255866015051183] [5.0049759626926209e-08:2.039760821597683e-06] [8.0412459885825793e-05:0.99980782179527627] [-1.6208577359307683:0.95916085242222004] [-0.9712699536078564:0.8854161339709602] [-0.18291979576593642:0.1747332059612699] [-1.3676110939596215:1.2920446465703106] [-1.5312552218417534:1.2834047024604149] [-3.464672005250423:3.0808679983430283] [-0.20537556066164842:0.21716907751589004] [-1:1] [0:1] [-49.999999999999986:50] [-1.219083435014334:1.2240837627399594] [-2.0669312521597414:2.1617135423741707] [-464.60252525942735:-4.9885664760266453] [-1.032462635657263:0.94953203893453431] [1.7347025807070013e-16:100] [-1.2056484361363207:0.8551830400242284] [1.7347025807070013e-16:100] [0.051875414237610037:4.4768294999449232] [-3.464672005250423:3.0808679983430283] [-3.464672005250423:3.0808679983430283] [-1.219083435014334:1.2240837627399594] [-48.761575499534047:48.761575499534047] [-48.761575499534047:48.761575499534047] [-137.40699308056355:128.33269274048507] [-50.310906008941117:-49.745151971640489] [-49.999999999999986:50] [-487.77746025472072:396.56545328050947] [-464.60252525942735:-4.9885664760266453] [-1.3674595820093987:1.2112580050238739] [-1334.912504903692:1598.0777519305948] [0.54633581344715154:6.0704824908132275] [-11.509294339990916:5.7932790768079654] [-0.99999970457238041:0.99999979502468783] [-27.348113669725755:33.209674216628883] [-1.2056484361363207:0.8551830400242284] [-100:0] [-49.999999999999986:50] [-5574.4106740284769:4750.9075802778534] [-238.66596480004884:292.52335494931356] [0.54633581344715154:6.0704824908132275] [-46.876153527636127:63.321829210564971] [0:1] [0.49581777373972202:4.5240286521332242] [-326.25072460411229:346.09714247643001] [-1.2176362725358434:1.1447764315861779] [-50:50] [-100:100] [-1.2176362725358434:1.1447764315861779] [-0.91852054757201773:1.0601564180171832] [-591.83599363435599:560.56132534150686] [-324.83835639969936:377.13988228658764] [0.54633581344715154:6.0704824908132275] [-1137.3503099949103:1439.4358826681498] [19.139157118632561:72853.090969301877] [-0.22464123012965273:4.5115512255430135] [-1.1776032969516201:1.2347827770145439] [-1.0017249174535685:0.73156187232370706] [-489.59907749475906:442.52855759183853] [1.4534168808543537e-12:4.5113858508184958e-10] [-0.5890073371921053:4.2336372791254941] [-0.8839595227309025:1.5636907984898238] [4955.6575240896673:111377.56666666665] [0:0.49184362530903514] [-0.9712699536078564:0.8854161339709602] [-1.2755114717502809:1.294036315669254] [-46.14469148905664:48.863616662611548] [0.033511068676787568:1.2315828916476548] [-464.60252525942735:-4.9885664760266453] [0.11675979449654988:4.3575502385300044] [-882.01980300232572:902.1022058129588] [-0.91852054757201773:1.0601564180171832] [0:1.0960015672003061] [-54.959007599384336:54.973323447407033] [0:1] [-3.464672005250423:3.0808679983430283] [1.7347025807070013e-16:100] [7.8361291604433445:79.398695890190055] [-0.10359170987036848:0.26487580726337345] [-2024.7105472854987:1871.0215091074867] [0:0.49184362530903514] [-1.2176362725358434:1.1447764315861779] [-0.69999999999999984:0.70000000000000007] [-326.25072460411229:346.09714247643001] [-1.012589391933516:0.8778694825647968] [-1:1] [-1.1776032969516201:1.2347827770145439] [-0.060689596720239845:4.441791413004629] [-0.99999970457238041:0.99999979502468783] [-49.999999999999986:50] [-0.78568688696079048:4.3211039678035696] [-5574.4106740284769:4750.9075802778534] [-4.1836948210636749:4.0483714787917791] [-49.326877826625697:38.74927123971878] [-0.025308946596837245:0.023635470671926839] [7.5847659006144816:49.288777451498241] [-49.326877826625697:38.74927123971878] [0.041028052165523042:4.3411754312764002] [-0.060689596720239845:4.1930202512462316] [-0.5914414247104437:0.65280527502171648] [71.735884440616914:72853.090969301877] [0:0.49184362530903514] [-1.7362922047482978:1.2110154620582476] [7.8361291604433445:79.398695890190055] [0:1] [-149.86110778567672:161.37807090351998] [-0.10147329334580468:0.10574684383284527] [-0.99999970457238041:0.99999979502468783] [-464.60252525942735:-4.9885664760266453] [-50.310906008941117:-49.745151971640489] [-1.457609615249694:1.5204237725934506] [-49.999999999999986:50] [1.4534168808543537e-12:4.5113858508184958e-10] [-0.81868517731599377:1.0447718415091045] [-5.2599880104032328:4.8198675201598187] [-1.1988398704929057:2.461169842927406] [-324.83835639969936:377.13988228658764] [-464.60252525942735:-4.9885664760266453] [0.11675979449654988:3.9603761314554387] [-0.19693939881066791:0.17086739815975244] [-0.18291979576593642:0.1747332059612699] [-1.4103425823822968:2.5887755943282755] [1.4534168808543537e-12:4.5113858508184958e-10] [-0.74336043355748715:3.6031197028130246] [-7.4302063350998573:7.5539407426097824] [0.033511068676787568:1.2315828916476548]
tree_sizes=3171 3446 3442 3238 3575 3340 3773 3895 3895 4020 3787 3793 4091 4215 4118 4010 4298 4176 4009 4221 4328 4628 4550 4642 4416 4654 4931 4647 5019 4703 5133 4640 4987 5169 5406 5355 5119 5254 5374 5199 5215 5551 5200 5815 5105 5659 5142 5518 5313 5424 5412 5463 5836 5680 5644 5414 5599 5695 5738 5435 5848 5707 5590 5810 5571 5721 5769 5507 5938 5860 5683 5844 5632 5800 5594 5422 5602 5896 6149 5394 5826 5501 5882 6008 5743 5795 5842 5617 5946 6371 5492 5844 5844 5923 5770 5710 5568 5879 5816 5724 5647 5683 6020 6128 5333 5795 5744 5871 6047 5438 5819 5755 5779 5665 5668 5812 5192 5769 5930 5990 5668 6013 5399 5816 5905 5426 5866 5749 5912 6192 5797 5854 5797 5752 5822 5642 5764 6061 6048 5760 5848 5420 6028 5445 5625 5435 5877 5711 5693 5581 5481 5731 5562 5498 5891 5812 5903 5722 5662 5811 5671 5651 5680 5661 5682 5484 5276 5631 5416 5849 5300 5463 5737 5960 6267 5862 5759 5606 5611 5710 5695 5694 5643 5423 5769 5581 5534 5507 5476 5064 5659 5827 6015 5333 5665 5644 5651 5449 5637 5677 5497 5652 5777 5725 5329 5463 5645 5365 5124 6067 5594 5403 5478 5591 5591 5155 5791 5703 6096 5378 5749 5506 5102 5510 5664 5725 5182 5704 5206 5294 5583 5233 4973 5770 5234 5839 5543 5559 5453 5316 5499 5017 5558 5269 4970 5328 5354 4987 5325 5590 5334 5760 5603 5232 5655 5696 5713 5493 5545 5573 5364 5139 5598 5287 5390 5200 5157 5335 5384 5466 5759 5291 5425 5177 5621 5140 5192 5356 5086 5131 5526 5148 5547 4879 5015 5332 4940 5143 5410 5463 5212 5474 4994 5576 4963 4737 5395 5445 5273 4863 5280 5188 5201 5122 4784 5442 5272 4899 5537 4699 4959 4742 5058 5204 5141 4942 5020 4908 4862 4816 4944 5029 5141 5015 5203 5288 5254 5089 5415 5292 4629 4702 4840 5055 5173 4935 5148 4757 4825 4854 4895 4968 4897 4643 4808 5121 4950 4893 4471 4908 4686 4462 4809 4694 4483 4734 4689 4868 4507 4764 4612 4720 5242 4790 4669 4769 4812 4500 4762 4346 4514 4560 4717 4459 4339 4748 4337 4657 4823 4966 4503 4616 4591 4649 4306 3940 4659 4511 4096 4187 4341 4131 4628 4634 4354 4243 4484 4411 4060 4326 4544 4526 4316 4401 4300 4393 4565 4129 4083 4660 3978 4166 4587 3963 4250 3963 4004 4419 3542 4629 4063 4041 4382 3803 4257 3716 4137 4193 3615 3972 4126 4046 4224 3651 4256 3994 3581 3543 3439 3830 3683 4104 3651 3969 3635 3569 3652 3505 3522 4108 3900 3774 3470 3063 3703 3633 3285 3508 3648 3488 3958 3604 2917 3494 2997 3133 3263 3053 3114 3391 3199 3007 3523 2894 3303 3140 2939 3237 3715 2814 3125 3136 3156 2769 2657 2827 2311 3280 3119 2974 1975 2423 2418 2658 2515 2402 2797 2174 1932 1929 2111 1645 2668 1467 2187 1669 1564 2214 1424 1699 1405 2007 672 1410 1125 1714 712 691 373 812

Tree=0
num_leaves=29
num_cat=0
split_feature=3 33 31 0 55 140 36 4 55 3 4 4 21 31 31 31 4 29 205 21 55 5 33 55 158 55 33 5
split_gain=12671.4 1617.98 1391.64 840.263 817.659 413.519 369.723 248.951 205.717 203.974 157.113 152.431 101.751 96.3847 88.7432 83.3459 73.7675 52.7787 48.7561 52.053 42.7896 42.4216 35.3474 33.668 29.1538 26.6434 13.3084 4.33715
threshold=-50.000783086691861 -6.2010559408223083 1.2656801557270614 -21.798073493286502 -2.0674340894848462 0.59468815414393117 -6.6421204464407699 -6.9018167904240455 -13.899994775721366 -50.004447931529008 4.1266534408934801 -18.229140568320194 0.082519309534986138 2.630034027425872 -14.73344089649264 -4.2208755331221743 -7.8635094811389079 1.1431680848901424 1.7320238112244264 -0.09892272648199528 -7.6612240798708342 0.017820054028970248 17.001554357725155 24.22578640896651 -0.11978608993294414 -102.97145380667673 7.3626698177529581 0.015104354720988368
decision_type=2 2 2 2 2 2 2 2 2 2 2 2 2 2 2 2 2 2 2 2 2 2 2 2 2 2 2 2
left_child=2 3 12 6 9 11 14 8 13 21 -5 -6 -1 -3 -2 24 26 -13 19 -9 -12 -4 -10 -16 -8 -21 -7 -19
right_child=1 7 4 10 5 16 15 18 22 -11 20 17 -14 -15 23 -17 -18 27 -20 25 -22 -23 -24 -25 -26 -27 -28 -29
leaf_value=0.00028475428769969557 0.15651340644426662 0.14864915725068828 0.018573652906954646 0.21046444673382056 0.17205387764972754 0.048668854532924161 0.049889861672099772 0.27385309359835514 0.25315289229316318 0.15727070184785893 0.26346336234199463 0.21488680338400179 0.11246388701195875 0.25843144044139571 0.20919196138116605 0.16761663774971008 0.17647114387718368 0.25669137653357993 0.26391562681247988 0.27794931274335494 0.33425491725334988 0.11140612038272581 0.33351261020175466 0.28486073449039229 0.13133604056454834 0.35685241009222274 0.12686475531379604 0.31964002094505856
leaf_weight=2357.3767934441566 125.23318642377853 137.65810546278954 629.05673432350159 232.79031819105148 230.96590241789818 138.08707401156425 273.3295279443264 165.05543717741966 134.35409173369408 180.63601619005203 228.32570883631706 135.06803360581398 138.86723032593727 138.15387523174286 122.64470705389977 142.73800572752953 124.07954752445221 119.96017491817474 130.9619876742363 126.85912671685219 346.12913897633553 132.77349570393562 313.4033097922802 130.00204679369926 132.9117077589035 2052.5034916400909 128.23948693275452 128.62109979987144
leaf_count=7917 454 497 2128 871 846 470 937 639 515 656 878 507 491 531 459 521 455 461 505 493 1376 469 1246 507 475 8215 457 511
internal_value=0.177189 0.287314 0.0550406 0.209128 0.119874 0.18355 0.144846 0.329257 0.273293 0.0540428 0.282648 0.234132 0.00565137 0.20333 0.219879 0.0938809 0.105587 0.271411 0.344717 0.348477 0.309953 0.0316397 0.313607 0.25285 0.0713168 0.353209 0.0773997 0.297357
internal_weight=9376.79 4933.05 4443.73 1734.1 1947.49 1005.02 926.859 3198.95 723.569 942.466 807.245 614.615 2496.24 275.812 377.88 548.979 390.406 383.649 2475.38 2344.42 574.455 761.83 447.757 252.647 406.241 2179.36 266.327 248.581
internal_count=34487 19119 15368 6478 6960 3707 3353 12641 2789 3253 3125 2325 8408 1028 1420 1933 1382 1479 9852 9347 2254 2597 1761 966 1412 8708 927 972
is_linear=0
shrinkage=1


Tree=1
num_leaves=31
num_cat=0
split_feature=3 33 33 0 36 4 36 4 31 4 4 55 36 4 31 5 55 2 55 10 205 55 31 5 36 205 205 17 33 123
split_gain=10333.5 1523.83 1029.16 723.101 609.455 283.612 267.199 256.025 208.239 170.863 140.75 130.509 123.927 149.234 100.329 86.9719 75.9324 71.539 67.6234 68.9215 49.3422 48.8381 46.1443 45.2059 33.1892 32.1185 31.1696 7.43331 7.33001 2.38258
threshold=-50.001320901304645 -10.886713195519768 0.73098644279714631 -26.345207108667495 -2.1257734709009957 -6.9018167904240455 -41.419429687394462 -16.102363958051793 1.9331425188737905 6.7766030573898943 -8.6003472905760905 4.8555306414831687 -1.4265622390658383 -6.3156507778377522 -2.8902658264116137 0.0090518203560279193 7.5934670775051254 -0.2158795789861688 -6.7677639619814176 31.994369232272359 1.0620238007837741 -28.053259387475215 -4.6194608342594945 0.0073725814985428082 205.94838609082737 1.0037153223452397 1.7320238112244264 44.177486486728064 -0.71795363771547283 -0.4368815090112434
decision_type=2 2 2 2 2 2 2 2 2 2 2 2 2 2 2 2 2 2 2 2 2 2 2 2 2 2 2 2 2 2
left_child=2 3 12 6 7 8 -2 15 11 16 27 -3 13 -1 -15 -4 -5 25 19 -11 -12 -10 29 -9 26 -7 28 -6 -19 -8
right_child=1 5 4 9 10 17 22 23 21 18 20 -13 -14 14 -16 -17 -18 24 -20 -21 -22 -23 -24 -25 -26 -27 -28 -29 -30 -31
leaf_value=-0.16156903551140497 0.020596198577408173 -0.048922615496957228 -0.089483183930298027 -0.049920706500979982 -0.16592608835254241 0.10119626706288594 -0.14361353506865515 0.020827070184817081 0.037843206615801463 -0.0072054569591101306 -0.0068389098624813821 0.068356456554992895 -0.18702915296410771 -0.1300183147878177 -0.027048847561868213 0.010470185559173194 0.045202631248978969 0.10286392708779242 0.12192062068358399 0.09211941377483529 -0.088588617670349062 0.12398685721330936 -0.044705156495051648 0.097684275964604356 0.063216175077215053 0.022991947639866325 0.067019782765212602 -0.092245451346949892 0.15022154343707475 -0.078743581286373487
leaf_weight=744.11881446838379 205.45883303880692 197.30506564676762 209.88734085857868 144.6586012840271 381.59537023305893 133.11675150692463 263.68749235570431 159.74279500544071 122.03564375638962 123.63580071926117 125.69291986525059 145.58374631404877 1653.8528759926558 175.35748693346977 224.35068064928055 126.68374493718147 147.3365873247385 285.52352184057236 316.21123088896275 120.70968909561634 202.1945928633213 334.84073173999786 128.81488698720932 184.57939374446869 117.26824276149273 118.34073001146317 119.52942225337029 137.47543415427208 1866.8885076493025 130.51203674077988
leaf_count=2497 774 711 734 522 1275 531 893 599 467 459 459 569 5470 593 815 471 563 1139 1274 476 706 1347 464 728 458 453 466 477 7640 457
internal_value=-0.0177405 0.0796701 -0.13071 -0.00150676 -0.0631883 0.116817 -0.073653 0.00710554 0.0615949 0.0601707 -0.118734 0.00133672 -0.166732 -0.134251 -0.0771428 -0.0528544 -0.00137311 0.132817 0.0914863 0.044496 -0.0602859 0.104222 -0.110451 0.0660114 0.138643 0.0699931 0.1418 -0.151325 0.145135 -0.127923
internal_weight=9346.99 5021.46 4325.53 1581.03 1527.85 3440.43 728.473 680.893 799.765 852.552 846.958 342.889 2797.68 1143.83 399.708 336.571 291.995 2640.67 560.557 244.345 327.888 456.876 523.014 344.322 2389.21 251.457 2271.94 519.071 2152.41 394.2
internal_count=34487 19663 14824 5882 5449 13781 2588 2532 3094 3294 2917 1280 9375 3905 1408 1205 1085 10687 2209 935 1165 1814 1814 1327 9703 984 9245 1752 8779 1350
is_linear=0
shrinkage=0.1


Tree=2
num_leaves=31
num_cat=0
split_feature=3 2 33 0 33 5 63 31 55 3 4 4 55 4 5 158 55 281 210 5 33 3 205 123 21 33 209 3 158 260
split_gain=8545.85 1193.89 953.949 513.07 384.724 279.013 254.733 252.536 209.707 125.942 118.289 112.04 123.521 102.448 100.428 89.2027 85.2479 82.9372 76.463 69.0337 55.9748 50.182 35.1967 33.5801 25.828 25.3044 17.2126 10.2711 6.864 4.11509
threshold=-49.999642957701361 -0.028458956332723214 -3.2555996068565771 -20.898948744548928 1.0428215599641144 0.010953307365135613 0.84226753562487822 0.34627047155537222 -1.2308890817990095 -50.005667049852299 4.1266534408934801 -8.9492745784118881 -46.154008656997163 -6.0164827665641756 -0.04237274984153782 0.31097343184771914 7.0848689175608275 8.7351556204595244 29.466845320082676 0.0085899037896612924 18.457924484469931 -50.005667049852299 1.4556844031160934 0.54252339725482213 -0.11021925504204004 -69.291102075472352 5.4123758784563529 -50.002201457206958 -0.39513686521174657 -0.015593242203565503
decision_type=2 2 2 2 2 2 2 2 2 2 2 2 2 2 2 2 2 2 2 2 2 2 2 2 2 2 2 2 2 2
left_child=1 7 3 6 16 13 14 27 21 18 -5 12 -4 -6 -2 23 -3 -7 -10 -18 -14 -9 24 -8 -13 -12 -16 -1 -27 -24
right_child=2 4 11 10 5 17 15 8 9 -11 25 22 20 -15 26 -17 19 -19 -20 -21 -22 -23 29 -25 -26 28 -28 -29 -30 -31
leaf_value=-0.16797731410321551 -0.034359999845823434 -0.1347476044144808 -0.011472492674730691 0.016558460071869115 -0.089572993863929293 0.10266756966126567 -0.11452137101261639 -0.15393948964148985 -0.015275641542757894 0.030639647331194099 0.045997983397835923 0.06240597432121358 0.030516997247865503 0.013799407606864895 0.096476264219149802 5.3183806032850247e-06 -0.091767343680103863 0.015524064311754172 -0.10624166721236544 0.0060461772544919794 0.11947417066327613 -0.070032612775902586 0.095564146875640979 -0.039740373821669443 0.13801457967941819 0.064431594629912742 0.03150173465451802 -0.11410160976311862 0.12704382015050264 0.044209750348779137
leaf_weight=1879.8523000180721 123.74860395491123 255.25059565901756 127.29990415275097 235.93129675090313 219.06319980323315 242.88701774179935 273.01409639418125 538.06115628778934 153.88808263838291 126.1012569963932 120.470558822155 111.11425331234932 124.31682658195496 145.01430967450142 118.20082901418209 125.25040957331657 130.19178530573845 213.58352388441563 282.59782618284225 124.75399860739708 302.42139787971973 159.49874030053616 167.61350929737091 130.1960784047842 1847.3507445156574 117.8281582146883 122.01825679838657 274.64616680145264 338.93175858259201 112.15210038423538
leaf_count=6270 451 864 471 890 764 973 942 1803 562 478 478 441 478 544 472 464 450 804 975 462 1242 563 683 469 7772 471 465 944 1394 448
internal_value=-0.0161272 -0.109519 0.082405 0.0228966 -0.0283576 0.0139917 -0.0290182 -0.140702 -0.101264 -0.0521701 0.0794249 0.118215 0.0720292 -0.049334 0.0337757 -0.0723166 -0.0946993 0.064934 -0.0769205 -0.0463398 0.0968084 -0.137768 0.128743 -0.0941842 0.134573 0.103201 0.0697043 -0.162422 0.115032 0.0804123
internal_weight=9243.25 4745.39 4497.86 1705.59 1330.74 820.548 892.428 3414.65 1260.15 562.587 813.162 2792.27 554.038 364.078 363.968 528.461 510.196 456.471 436.486 254.946 426.738 697.56 2238.23 403.21 1958.46 577.23 240.219 2154.5 456.76 279.766
internal_count=34487 16456 18031 6496 4861 3085 3263 11595 4381 2015 3233 11535 2191 1308 1388 1875 1776 1777 1537 912 1720 2366 9344 1411 8213 2343 937 7214 1865 1131
is_linear=0
shrinkage=0.1


Tree=3
num_leaves=29
num_cat=0
split_feature=3 33 33 0 55 4 36 123 36 31 4 5 140 10 36 4 149 3 55 36 205 123 205 17 9 2 33 3
split_gain=7131.33 1151.67 714.916 521.009 468.796 230.826 227.004 218.569 202.651 135.143 130.95 114.942 91.409 83.8269 71.5015 74.6009 68.1438 55.6902 54.4768 49.0438 36.8169 27.4262 23.7391 23.3384 22.6534 15.1494 11.2716 3.16933
threshold=-50.001455745826604 -10.886713195519768 -2.9088143063413621 -26.345207108667495 -2.0674340894848462 -0.24488219774096362 -0.71276678344490263 0.034667323098543264 -18.945437151355335 0.54219811459765854 10.459954236096097 0.037830274134762039 0.59468815414393117 30.305997354253837 -30.247366153284307 1.0433904042617217 28.632553779321253 -50.00775027566754 -6.7677639619814176 205.94838609082737 1.7320238112244264 0.7793368885684232 0.90710130500732811 49.498776661396015 -22.483125264610504 -0.37588619024229747 4.0050566025004057 -50.005817565822333
decision_type=2 2 2 2 2 2 2 2 2 2 2 2 2 2 2 2 2 2 2 2 2 2 2 2 2 2 2 2
left_child=2 3 14 8 11 6 26 17 16 -8 13 22 24 -5 15 27 -2 -6 -12 20 25 -10 -4 -11 -9 -7 -3 -1
right_child=1 5 4 10 7 19 9 12 21 23 18 -13 -14 -15 -16 -17 -18 -19 -20 -21 -22 -23 -24 -25 -26 -27 -28 -29
leaf_value=-0.13616204167268506 0.052465004690687149 0.053393004339312301 -0.064049363049031291 -0.03550690966510775 -0.092937179997247252 0.060968043079529612 -0.040933761998409722 0.026405165301177855 -0.11665062547524355 0.022436637905132083 0.03807966695116604 -0.018627902862470552 -0.018154503916179114 0.061640676638141427 -0.155532069299953 -0.04031593839700659 -0.040676071744063791 -0.010472084440776243 0.1112237776276605 0.045152895379549078 0.050679689692607367 -0.046427003473394256 -0.13573810746341833 0.088890670067989494 0.091067680239451804 0.13002254659171095 0.11137510804096562 -0.075774020882622195
leaf_weight=418.21838174760342 135.70533064007759 123.63852091133595 130.63765171170235 210.92422577738762 203.76566895842552 102.93266028165817 244.52775239944458 120.84317825734615 343.79982785880566 136.07341310381889 223.36657781898975 133.85976593196392 164.04248347878456 121.84334902465343 1826.7406918108463 169.37327133119106 134.19818139076233 149.13362526893616 278.20104265213013 126.59325447678566 115.76185724139214 130.45436906814575 573.72531422972679 118.76258538663387 191.34967237710953 1865.1902548372746 462.58181010186672 132.71365168690681
leaf_count=1425 524 493 460 774 710 415 903 457 1177 540 872 486 596 477 6213 608 485 548 1173 507 460 463 1954 483 766 8102 1951 465
internal_value=-0.0147413 0.0674619 -0.109735 -0.0026707 -0.0575016 0.100917 0.0607695 -0.00346644 -0.0626944 0.0098401 0.0508252 -0.109244 0.0397503 0.00100147 -0.143063 -0.107504 0.00577432 -0.0613341 0.0820239 0.119747 0.123656 -0.100679 -0.125074 0.0587923 0.0700774 0.127232 0.101871 -0.125443
internal_weight=9088.96 4874.56 4214.4 1578.49 1667.36 3296.06 1085.58 829.135 744.158 499.364 834.335 838.223 476.235 332.768 2547.05 720.305 269.904 352.899 501.568 2210.48 2083.88 474.254 704.363 254.836 312.193 1968.12 586.22 550.932
internal_count=34487 19799 14688 5945 5977 13854 4370 3077 2649 1926 3296 2900 1819 1251 8711 2498 1009 1258 2045 9484 8977 1640 2414 1023 1223 8517 2444 1890
is_linear=0
shrinkage=0.1


Tree=4
num_leaves=32
num_cat=0
split_feature=3 2 33 55 5 10 281 31 3 33 5 55 13 123 4 55 4 4 138 33 0 281 3 158 4 33 0 0 3 4 5
split_gain=6018.46 994.613 640.285 362.591 304.538 285.024 232.489 228.798 179.35 161.936 134.971 126.827 105.426 88.5564 83.2443 71.0077 55.1222 51.7135 44.2046 40.6681 38.3525 29.8533 29.0085 28.5075 25.4092 52.5976 21.9983 17.7425 10.548 2.48114 0.507813
threshold=-49.998967276492884 -0.014857110141312716 -0.71795363771547283 -0.42439323111116239 0.010953307365135613 27.214975484174548 25.150339349786567 0.34627047155537222 -50.003691894902225 27.766943106157878 -0.059969771066280146 -11.894167422645458 -6.3082246268728825 0.034667323098543264 -9.3120143068689867 -75.095543801820867 16.320765234191224 -6.0164827665641756 0.033335280767623619 -22.405740638419765 -19.686913579013925 -25.495621342617067 -50.006469606288853 -0.11978608993294414 -9.6892207439451692 23.522198521370814 -77.788349557795755 -60.475118170907486 -50.011267968258871 1.0000000180025095e-35 -0.034708659752854192
decision_type=2 2 2 2 2 2 2 2 2 2 2 2 2 2 2 2 2 2 2 2 2 2 2 2 2 2 2 2 2 2 2
left_child=1 7 3 5 12 13 22 27 11 -8 -5 -9 21 23 28 16 -4 -12 24 -15 -7 -3 -6 -2 25 -17 -16 -1 -13 -29 -26
right_child=2 4 15 10 6 20 9 8 -10 -11 17 14 -14 19 26 18 -18 -19 -20 -21 -22 -23 -24 -25 30 -27 -28 29 -30 -31 -32
leaf_value=-0.14844944871396615 -0.11776734454533498 -0.056154555558395325 -0.0017786014238214372 -0.01480565196930808 0.032320423223006052 0.0070547860464492355 -0.078714870765807382 -0.13611537253430403 0.0053285665377346136 0.053313043057669963 0.035486127214347456 -0.11024959261469942 -0.0058412685622401322 -0.047525860884318698 -0.042496702612468455 0.022596897286659368 0.085476636872906825 0.10739173523756151 0.035725416632572921 0.027489165933444793 0.082560771842069003 -0.12446440488383821 0.097748695781104497 -0.044197922206262917 0.07544294594026188 0.10667475005804064 0.011827868371052305 -0.12469547497683681 -0.051607862092080153 -0.078618321686612327 0.12760730192173086
leaf_weight=1545.2724334746599 184.30353872478008 202.09724101424217 110.88032135367393 132.80648127198219 148.60283291339874 114.81179314851761 233.94714063405991 483.30000330507755 192.77842609584332 125.16185861825943 171.31036205589771 215.70871283113956 197.32186472415924 123.27151335775852 124.74754551053047 130.94369362294674 158.86660619080067 516.13730186223984 101.3477019816637 120.67636659741402 192.76021327078342 210.18304187059402 244.73537230491638 142.4382246285677 138.03990162909031 259.93095488846302 127.26908747851849 353.6396296620369 133.44554755091667 239.75308822095394 1520.9368041902781
leaf_count=5402 641 723 430 500 575 432 833 1674 727 493 660 746 736 445 448 515 684 2197 434 475 797 725 1017 523 604 1115 474 1234 474 855 6899
internal_value=-0.0135598 -0.0897611 0.0747734 0.0270307 -0.0169486 -0.0173209 0.0251716 -0.118436 -0.0819649 -0.031671 0.0740186 -0.0974933 -0.0683865 -0.0586148 -0.0624111 0.107636 0.0513472 0.091435 0.114005 -0.0103254 0.0574047 -0.0959963 0.0765723 -0.0911122 0.117348 0.0817421 -0.0154478 -0.139068 -0.0927945 -0.109886 0.124435
internal_weight=8897.43 4777.96 4119.46 1698.52 1362.05 878.262 752.447 3415.91 1277.25 359.109 820.254 1084.47 609.602 570.69 601.171 2420.95 269.747 687.448 2151.2 243.948 307.572 412.28 393.338 326.742 2049.85 390.875 252.017 2138.67 349.154 593.393 1658.98
internal_count=34487 17136 17351 6670 5102 3313 2918 12034 4543 1326 3357 3816 2184 2084 2142 10681 1114 2857 9567 920 1229 1448 1592 1164 9133 1630 922 7491 1220 2089 7503
is_linear=0
shrinkage=0.1


Tree=5
num_leaves=30
num_cat=0
split_feature=3 31 31 3 0 55 4 55 55 4 36 3 55 72 87 33 4 164 33 205 33 36 137 139 63 158 46 0 21
split_gain=5053.69 853.561 568.769 563.703 531.612 264.674 162.011 143.213 134.128 101.304 93.5208 117.986 64.8246 60.859 55.0895 54.904 52.9278 49.8463 49.3394 37.8578 37.0673 29.691 24.7508 17.5117 16.9087 12.0863 8.31113 7.04016 0.539196
threshold=-49.998967276492884 1.5862360867048457 -0.85972443652955366 -50.004447931529008 -23.7779083356257 -9.9297281414986447 -9.3120143068689867 5.7889356236749796 -13.899994775721366 6.2111282812812769 -2.1257734709009957 -50.004282196857694 -6.2990279425760862 201.95154011537622 -0.77814305398078421 -67.543581984444444 7.6850630592000586 -1.3640179900361742 24.947494389893052 1.5583409772240422 -9.6910740224204286 145.93424131593255 -3.4562377596023661 0.15325949072646419 157.40734626009717 -0.23653607630604864 -0.89294959411590213 -77.071572670969914 -0.059219766603302894
decision_type=2 2 2 2 2 2 2 2 2 2 2 2 2 2 2 2 2 2 2 2 2 2 2 2 2 2 2 2 2
left_child=1 10 4 5 7 26 18 16 -5 12 11 20 -6 -13 -8 -11 25 -9 27 21 -1 28 -10 -14 -17 -2 -3 -7 -4
right_child=2 3 19 8 9 6 14 17 22 15 -12 13 23 -15 -16 24 -18 -19 -20 -21 -22 -23 -24 -25 -26 -27 -28 -29 -30
leaf_value=-0.12868207168848231 -0.11348182480752067 -0.12729414172753883 0.073469005454113764 -0.011563317425753067 -0.01507332319706318 -0.10581722722311747 -0.022063456844110315 -0.018608001814402159 0.032497805955162183 0.024295935812305006 -0.13677510134889209 0.0067695980021238375 0.025069014701556664 -0.078283398725771253 0.052409191549454004 0.1095021348993252 -0.020765296028898751 0.065306943073549478 -0.017810421423181236 0.049275635021760945 -0.059527159285735959 0.048800005335084377 0.10082450043590654 0.083463624961854485 0.044655842303585297 -0.050058079687193058 -0.067609033800092824 -0.050242311172279543 0.11880793048457017
leaf_weight=518.06389807164669 167.91883133351803 467.39605808258057 165.92961305379868 232.88801376521587 182.69091054797173 188.44828104972839 155.36721885204315 119.30981910228729 115.45294232666492 132.84756223857403 1636.6662308126688 161.53717511892319 139.26928070187569 138.07518117129803 203.93781961500645 586.5776964277029 191.31104432046413 121.26998271048069 169.54184514284134 169.64007845520973 176.93557140231133 128.55522415041924 248.52126787602901 133.51146622002125 102.40433520078659 126.030437707901 135.19817826151848 127.61327271163464 1542.2994352579117
leaf_count=1858 591 1657 711 873 694 659 566 454 456 548 5917 610 561 492 800 2662 724 496 619 722 639 539 1044 557 431 456 487 459 7205
internal_value=-0.0125633 -0.083047 0.069576 -0.0338964 0.0312068 -0.0673987 -0.0296458 -0.036237 0.0464906 0.069677 -0.120557 -0.0912915 0.0291473 -0.0343398 0.0201719 0.0905359 -0.0666747 0.0247053 -0.0662526 0.107024 -0.113736 0.111595 0.082802 0.0584838 0.101849 -0.0923355 -0.117091 -0.0887355 0.115515
internal_weight=8685.21 4675.64 4009.57 2044.36 2003.14 1447.5 844.908 725.84 596.862 1277.3 2631.28 994.612 455.472 299.612 359.305 821.83 485.26 240.58 485.603 2006.42 694.999 1836.78 363.974 272.781 688.982 293.949 602.594 316.062 1708.23
internal_count=34487 17136 17351 7620 8174 5247 3103 2721 2373 5453 9516 3599 1812 1102 1366 3641 1771 950 1737 9177 2497 8455 1500 1118 3093 1047 2144 1118 7916
is_linear=0
shrinkage=0.1


Tree=6
num_leaves=34
num_cat=0
split_feature=3 33 31 55 0 140 4 55 55 33 4 31 78 4 31 31 10 55 36 139 33 6 205 21 267 159 65 33 33 95 2 123 31
split_gain=4284.47 802.459 513.461 339.474 325.227 211.073 184.617 178.969 167.768 118.606 110.086 76.6868 69.3333 69.0328 62.879 60.2772 57.4118 45.8985 43.8698 39.5319 38.6714 37.3161 35.2524 27.627 26.0557 26.0525 16.991 10.2045 10.2024 8.82219 6.59121 6.13129 0.915921
threshold=-50.001595731798375 -10.886713195519768 0.73463285519168775 -10.429639788157012 -21.23673831021657 1.6131993673818352 1.0433904042617217 -5.9031263233291345 17.050189761210522 49.480626899284339 -9.3120143068689867 -15.390120087830551 0.050563377266617811 16.320765234191224 -2.8902658264116137 6.9740588299575501 10.688397579064871 2.3904739918743139 205.94838609082737 0.34757949874120003 -1.0518279478388022 -0.014448089716460054 1.7320238112244264 0.071261243139634015 339.4153609749431 -19.61440464446191 134.56527238093005 30.962419349898816 4.0050566025004057 0.030661048161795604 -0.36229815402715365 0.07065946598591212 -1.6137583047995923
decision_type=2 2 2 2 2 2 2 2 2 2 2 2 2 2 2 2 2 2 2 2 2 2 2 2 2 2 2 2 2 2 2 2 2
left_child=2 4 23 12 8 10 7 9 14 16 15 -10 27 17 19 -5 -3 -6 22 31 -12 -9 30 32 -17 -15 -7 -4 -23 -22 -8 -2 -1
right_child=1 6 3 5 13 26 18 21 11 -11 20 -13 -14 25 -16 24 -18 -19 -20 -21 29 28 -24 -25 -26 -27 -28 -29 -30 -31 -32 -33 -34
leaf_value=-0.1313856554751788 -0.11760603825177274 -0.056369469650013576 -0.12801864480925859 -0.069009872795740959 -0.03010439890505124 -0.040356137709428586 0.05464741630001118 0.019669155522301637 -0.034811934269774282 0.074105803817917967 0.0023079337278570254 0.062542451005484098 -0.02554342477689639 0.027729441971336644 -0.0031306657349319069 0.038035782071569331 0.024349625792601224 0.046123506338492798 0.033328298437765198 -0.031566110292693787 0.036518388597522954 0.048964599939842583 0.037448280472801972 -0.059029559995101372 -0.021257827987368333 0.097328981181401764 -0.10131419447429804 -0.075233447708806384 0.10460372996778144 0.090836976844655942 0.11305964295481241 -0.059955744201108177 -0.092097250082763607
leaf_weight=1620.1246047616005 237.35052837431431 227.11796578764915 410.73558530211449 139.63034252822399 126.55378226935863 142.37971474230289 97.460140734910965 100.41240553557873 122.91566316783428 140.64691449701786 120.93309739232063 161.63920450210571 129.68371966481209 110.02009333670139 124.23346792161465 124.8220252096653 116.22461499273777 145.43777397274971 120.67610450088978 145.59846237301826 116.64739556610584 121.46253398060799 108.36886231601238 134.10276548564434 125.55823339521885 235.81547529995441 173.29578663408756 212.68288592994213 398.91582298278809 147.62930971384048 1590.4375270456076 131.85381130874157 296.00253461301327
leaf_count=6122 838 866 1496 501 477 516 415 425 451 597 448 648 478 458 460 477 465 596 501 530 452 509 452 486 459 1079 613 776 1872 618 7826 470 1110
internal_value=-0.0116695 0.0539417 -0.0884832 -0.0491124 -0.00463722 -0.0126477 0.0837202 0.0492424 -0.0419718 0.00269548 0.01544 0.0202413 -0.0997994 0.0503406 -0.0697824 -0.0211079 -0.0285836 0.0102582 0.102697 -0.0846557 0.0521688 0.0838531 0.106776 -0.122897 0.00812086 0.0787646 -0.078873 -0.113507 0.0945256 0.0722647 0.110559 -0.102083 -0.126535
internal_weight=8457.37 4563.14 3894.23 1844 1541.42 1090.9 3021.72 1104.78 923.591 483.989 775.22 284.555 753.102 617.827 639.036 390.011 343.343 271.992 1916.94 514.803 385.21 620.791 1796.27 2050.23 250.38 345.836 315.676 623.418 520.378 264.277 1687.9 369.204 1916.13
internal_count=34487 19935 14552 6834 6007 4084 13928 4734 3397 1928 2955 1099 2750 2610 2298 1437 1331 1073 9194 1838 1518 2806 8693 7718 936 1537 1129 2272 2381 1070 8241 1308 7232
is_linear=0
shrinkage=0.1


Tree=7
num_leaves=35
num_cat=0
split_feature=3 33 33 36 0 63 4 4 4 55 36 4 30 6 158 158 33 205 55 17 3 205 21 33 123 10 182 43 260 31 55 4 36 205
split_gain=3637.52 608.224 561.266 310.673 307.104 176.275 145.392 103.167 95.3545 88.3632 87.0117 97.9304 76.3841 76.1155 70.7206 67.428 66.3195 56.4869 55.2947 54.9062 44.4798 40.0938 27.3838 27.2973 26.2895 21.6175 21.1326 15.2469 14.5879 14.0442 14.0277 10.4301 6.72954 0.333956
threshold=-50.00065682539887 -1.0518279478388022 -2.9088143063413621 -2.1257734709009957 -19.976757182096076 0.84226753562487822 -16.102363958051793 -8.9492745784118881 -8.6003472905760905 -48.250547174090237 -1.4265622390658383 -6.3156507778377522 -160.17784936253233 -0.0038839104644063367 -0.11978608993294414 0.42905724312768539 -32.099381331979899 1.0037153223452397 -5.0049115602941958 24.175191769600762 -50.011735325739181 1.4556844031160934 -0.11402319811705747 56.728174017982973 0.94512355867415121 13.277059969218586 -1.8295233214994366 -33.705688004836126 -0.014124385413167904 6.4216445937475415 -102.97145380667673 13.750483890045688 -167.93437994316272 1.1184210114133484
decision_type=2 2 2 2 2 2 2 2 2 2 2 2 2 2 2 2 2 2 2 2 2 2 2 2 2 2 2 2 2 2 2 2 2 2
left_child=2 4 10 6 5 13 12 9 23 -3 11 32 -4 -2 24 18 -13 -10 -6 -11 -8 22 -9 -5 -7 -16 -15 -17 -23 -19 -24 -20 -1 -22
right_child=1 7 3 8 15 14 20 21 17 19 -12 16 -14 26 25 27 -18 29 31 -21 33 28 30 -25 -26 -27 -28 -29 -30 -31 -32 -33 -34 -35
leaf_value=-0.059628271082997931 -0.022724031816737017 -0.022000104301226179 0.023296168307526562 -0.11415031386882651 -0.015410373452295918 -0.098189509935906027 0.0090882442816786826 0.035681472220290722 0.020574636770586647 0.0042993505008121369 -0.12829537861456575 -0.07935354248243108 -0.064729195598996259 0.017311369687022814 -0.038093784016615825 0.10541681521409139 0.0024101388770201883 -0.077932838539536836 0.022901090905439968 0.088877027143111798 0.095142680480520964 0.070815916684012603 0.049031837331316969 -0.045235897689254165 -0.031882248790120089 0.016290943954620832 0.08098412006708508 0.043203655253122031 0.01475970781169437 -0.022977351223916774 0.11228822755870456 0.077443933936398077 -0.11520059659327389 0.046948284412447618
leaf_weight=125.26873530447483 181.51636952161789 131.11234574019909 142.53049403429031 395.18888027966022 163.22202078998089 275.43398790061474 160.60907739400864 90.320779338479042 123.74900363385677 111.94163954257965 1344.3618565648794 169.45589227974415 229.79616852104664 112.52654108405113 122.68022540211678 244.88943763077259 192.63905407488346 137.60538277029991 101.47165250778198 296.90691418945789 126.44676668941975 148.74589560925961 98.870384320616722 129.35658648610115 125.54088468849659 122.91187752783298 147.06995752453804 118.46335950493813 99.761059477925301 123.21698075532913 1385.4724085777998 117.53653052449226 509.22442285716534 111.60723513364792
leaf_count=475 685 496 545 1478 649 994 616 390 475 458 5323 630 831 444 452 1151 738 511 420 1388 540 692 442 482 461 469 632 494 445 461 7254 567 1940 459
internal_value=-0.0108596 0.0541023 -0.0786383 -0.0337183 0.0105142 -0.0231119 0.0126434 0.0874161 -0.072665 0.0454531 -0.110173 -0.0832866 -0.0310132 0.0245733 -0.0557351 0.0591396 -0.037569 -0.0313874 0.0266219 0.0676444 0.0534669 0.0990373 0.105479 -0.100053 -0.0806821 -0.0108905 0.0576756 0.0893149 0.0521663 -0.056553 0.108996 0.0574819 -0.106918 0.0792518
internal_weight=8217.45 4196.39 4021.06 1680.11 1833.26 1087.68 770.99 2363.13 909.117 539.961 2340.95 996.588 372.327 441.113 646.567 745.583 362.095 384.571 382.23 408.849 398.663 1823.17 1574.66 524.545 400.975 245.592 259.596 363.353 248.507 260.822 1484.34 219.008 634.493 238.054
internal_count=34487 18983 15504 6398 7418 4137 2991 11565 3407 2342 9106 3783 1376 1761 2376 3281 1368 1447 1636 1846 1615 9223 8086 1960 1455 921 1076 1645 1137 972 7696 987 2415 999
is_linear=0
shrinkage=0.1


Tree=8
num_leaves=35
num_cat=0
split_feature=3 2 33 6 36 55 33 4 281 10 281 34 31 5 4 55 138 3 180 4 31 210 300 139 4 180 137 216 14 31 7 33 368 12
split_gain=3102.05 736.508 352.329 282.875 248.92 150.438 189.428 149.151 145.066 162.094 134.624 116.006 68.5639 61.5723 40.816 39.404 38.3129 35.2853 33.6937 33.5121 32.5333 32.0635 31.9598 26.3108 25.4566 18.8778 17.7955 17.0802 15.5879 13.9307 12.711 36.9811 6.86427 4.21237
threshold=-50.0026302084487 0.059727088458219953 -6.2010559408223083 -0.0066769313471496941 14.320087547623819 -6.2990279425760862 7.3626698177529581 -4.3359677155774063 12.940632842742664 15.953125677062937 -18.945437151355335 0.99264893989837388 -10.616281979051577 0.011438917500870784 -51.328594360519752 92.983713885628248 0.031949122687254937 -50.009789014796191 -18.329582541915922 -17.127814833065084 -3.2425690438368444 -85.224882926982545 -30.247366153284307 0.64717456356636138 3.5714297646917719 -0.44130333251320714 -1.2620738381068646 -0.0048544118853932608 4.3000974534552379 -2.2109362622691164 3.0439834883999954 -23.765512351117181 1.0729020701872634 0.10002788000106667
decision_type=2 2 2 2 2 2 2 2 2 2 2 2 2 2 2 2 2 2 2 2 2 2 2 2 2 2 2 2 2 2 2 2 2 2
left_child=2 3 15 10 7 6 11 13 18 20 12 21 -2 22 -7 30 29 -9 -5 -8 -10 -3 -4 -11 33 -12 -14 -20 -21 -16 -1 -32 -29 -6
right_child=1 5 4 8 24 14 19 17 9 23 25 -13 26 -15 16 -17 -18 -19 27 28 -22 -23 -24 -25 -26 -27 -28 32 -30 -31 31 -33 -34 -35
leaf_value=-0.1233761221828388 -0.057749831277942199 -0.0087950860841086789 -0.027659586038153827 0.0086020337072338898 -0.10967733473155568 0.020943258260944547 0.022697090379620581 0.0094634807676026462 -0.081220346846666819 0.004056719003613771 -0.11466307309187125 0.052304957023226489 -0.0019663123672150821 0.0089764097387091801 0.076339492722561964 -0.050531931378172218 0.025591997694398724 0.078237648385886427 0.028652439482904569 0.037363896392048762 -0.010342735666306183 -0.082637747543074208 -0.089829564247653815 0.069669138937297606 -0.040644201779385492 -0.047834702868738685 0.050037964417940776 0.10323610387080902 0.098155498587607776 0.1120230988652768 -0.1043854634858972 -0.025791326065150767 0.04622692053111907 -0.059360740543990813
leaf_weight=1331.8157332539558 148.6282980889082 122.80758081376553 210.6753186583519 106.02675645053387 408.92821757495403 91.98514387011528 122.42411144077778 167.81578308343887 183.91993343830109 108.72225196659565 226.89853803813457 166.43562653660774 112.95117253065109 169.98358412086964 442.05333308875561 160.60804760456085 93.14891605079174 139.89377535879612 103.53912422060966 102.74574486911297 116.92800654470921 121.7918958067894 183.59687565267086 158.63428971171379 148.56511172652245 127.88189740478992 109.04900121688843 201.20848535001278 424.92677240073681 1056.8420685231686 250.17641292512417 110.84550860524178 107.78245279192924 138.94689050316811
leaf_count=5479 564 500 782 442 1592 405 501 649 679 444 844 733 454 654 2100 630 455 585 443 493 470 455 673 691 564 496 470 945 2194 5624 1015 449 485 528
internal_value=-0.0100605 0.0438597 -0.0817648 -0.00551269 -0.0456761 0.0763241 0.0449781 -0.00922722 0.02647 -0.00815101 -0.0531165 -0.00759822 -0.00907091 -0.0395042 0.0951159 -0.111298 0.098918 0.0445305 0.0636414 0.0777394 -0.0569434 -0.0501743 -0.0603443 0.0461002 -0.0893298 -0.0953372 0.0248023 0.0761144 0.0886851 0.102892 -0.116215 -0.0836926 0.0883911 -0.100072
internal_weight=7979.18 4557.33 3421.85 1812.17 1568.41 2745.16 1061.13 871.965 1086.76 568.204 725.409 411.035 370.628 564.256 1684.03 1853.45 1592.04 307.71 518.557 650.097 300.848 244.599 394.272 267.357 696.44 354.78 222 412.53 527.673 1498.9 1692.84 361.022 308.991 547.875
internal_count=34487 20887 13600 7427 6027 13460 4876 3343 4599 2284 2828 1688 1488 2109 8584 7573 8179 1234 2315 3188 1149 955 1455 1135 2684 1340 924 1873 2687 7724 6943 1464 1430 2120
is_linear=0
shrinkage=0.1


Tree=9
num_leaves=36
num_cat=0
split_feature=3 2 31 0 5 281 281 33 55 31 3 10 4 4 164 63 138 205 206 55 55 55 180 93 33 41 3 316 205 46 227 55 371 4 205
split_gain=2651.17 571.863 394.773 323.424 226.586 165.194 114.642 109.681 97.1802 92.7656 85.4193 75.5309 67.3394 66.311 48.4281 45.4015 43.8465 43.7724 43.1297 41.8263 41.5402 40.5188 35.1495 26.6232 22.6396 22.0998 18.2852 15.8863 11.6386 9.00704 5.63422 3.47435 2.81346 2.61899 2.09571
threshold=-49.998967276492884 -0.16257019230585953 -0.85972443652955366 -19.387843525821022 0.010953307365135613 25.150339349786567 15.958335156741674 29.261038516809794 5.7889356236749796 -0.77003930369766305 -50.006786027960679 25.682741783257686 6.2111282812812769 1.0000000180025095e-35 -1.6224293677416382 30.67413304549569 0.03258719619280178 0.99110239770525455 -95.311569021037613 -84.865139812062452 -1.2308890817990095 -6.2990279425760862 -1.0785359232877114 -1.9432116507701662 -67.543581984444444 -63.086389836936696 -50.003236992167309 4.3136458907972448e-07 1.0704137427542695 -0.96973817543226082 0.59468815414393117 -62.639628677072153 1.8211009005016272 -34.370636021970505 1.0729020701872634
decision_type=2 2 2 2 2 2 2 2 2 2 2 2 2 2 2 2 2 2 2 2 2 2 2 2 2 2 2 2 2 2 2 2 2 2 2
left_child=1 9 3 8 6 22 13 28 11 26 20 18 21 17 -10 -12 19 -3 -2 -4 -11 -5 -6 -22 -14 -19 -1 32 -7 -24 -20 -26 -21 -34 -28
right_child=2 4 16 12 5 7 -8 -9 14 10 15 -13 24 -15 -16 -17 -18 25 30 27 23 -23 29 -25 31 -27 34 -29 -30 -31 -32 -33 33 -35 -36
leaf_value=-0.11871014550680255 -0.019544785143842686 0.00071862867140002988 0.031505618912857372 -0.017912071754944015 0.0084062476032941095 -0.02769993772846778 -0.1000261477820143 0.045821899783944658 -0.015473450168018391 -0.10878393311342552 0.014323789556799646 0.013521327118074826 0.026136727583644877 0.021607304764769332 0.057542317862526039 -0.06034567640450255 0.012322180800920039 -0.025869787042407211 -0.1056346345234745 0.052817377146214761 -0.078855588137659693 0.049885056061173494 0.037666864370438528 -0.017639267592170427 0.044877227433750527 -0.091949074291784408 -0.054006785571307198 0.048716376971793658 -0.081513307515659009 0.093407742645368719 -0.049707010184968252 0.096975930234974236 0.053210191268791909 0.10687216640704822 -0.098102686091899247
leaf_weight=1152.9380426853895 177.42146003246307 125.63188549876213 144.31606441736221 130.47845108807087 106.96936956048012 120.23037925362587 306.45850242674351 122.22807927429676 153.61856074631214 382.35431343317032 167.93598417937756 160.78281949460506 98.102513283491135 192.15435160696507 167.34510530531406 120.25743226706982 87.222849443554878 120.29604284465313 152.75164864957333 101.34930746257305 159.76541778445244 187.98061686754227 104.47075724601746 163.19848240911961 91.708132207393646 154.36572539806366 208.67604739964008 143.42455193400383 140.47279350459576 203.38108307123184 122.46343022584915 420.82852414250374 94.483250349760056 1139.3790078014135 122.06634193658829
leaf_count=5091 696 490 653 509 434 470 1217 503 608 1578 656 643 443 763 743 459 427 453 559 537 598 839 435 620 429 597 837 736 534 926 459 2246 457 6367 475
internal_value=-0.00938539 -0.0633877 0.0536236 0.0212264 -0.0181511 0.0201783 -0.0520946 -0.026086 -0.0199617 -0.093851 -0.0668234 -0.0429056 0.0624044 -0.0242644 0.0231481 -0.018125 0.0880826 -0.0468154 -0.0631423 0.0917963 -0.0852667 0.0220512 0.0625941 -0.0516549 0.0816025 -0.0678056 -0.110571 0.0969849 -0.0615546 0.0789231 -0.0869823 0.0902906 0.101136 0.103939 -0.0759782
internal_weight=7747.51 4173.85 3573.66 1863.48 1696.66 797.752 898.907 382.931 934.383 2477.19 993.512 613.419 929.098 592.448 320.964 288.193 1710.18 400.294 452.637 1622.95 705.318 318.459 414.821 322.964 610.639 274.662 1483.68 1478.64 260.703 307.852 275.215 512.537 1335.21 1233.86 330.742
internal_count=34487 17136 17351 8174 6822 3302 3520 1507 3708 10314 3911 2357 4466 2303 1351 1115 9177 1540 1714 8750 2796 1348 1795 1218 3118 1050 6403 8097 1004 1361 1018 2675 7361 6824 1312
is_linear=0
shrinkage=0.1


Tree=10
num_leaves=34
num_cat=0
split_feature=3 33 31 55 10 55 55 5 140 31 4 123 31 33 6 138 380 4 5 17 205 123 93 41 321 158 419 4 33 139 33 310 22
split_gain=2268.69 582.36 313.386 234.137 229.838 200.674 162.603 162.668 126.761 94.3001 89.5104 88.0808 79.9095 56.1817 50.0679 49.6687 48.7652 45.7066 40.9005 38.9324 38.6399 37.7064 36.7182 24.2958 11.7328 11.2046 10.7601 8.50245 7.63858 6.26063 5.73896 3.77912 3.71745
threshold=-50.0026302084487 -10.886713195519768 -1.6137583047995923 -2.0674340894848462 30.305997354253837 17.687365098381925 -4.615213794981547 -0.016343054436431189 0.68734780311342913 -15.060026531514859 5.060034100318906 -0.4368815090112434 -2.7962822071024003 49.480626899284339 -0.0038839104644063367 0.034195344790599817 0.94786526797231363 -6.6144938200147996 -0.091088984533461412 4.0050566025004057 0.99390967021669241 0.62320351576158128 -0.47420513267844905 -75.132004473534337 0.034589975416441272 0.26811198232249828 2.628744446387373 -46.883473750542642 3.0094546786450995 0.29589456693349986 49.480626899284339 4.9697388505107439e-07 -1.5258382702979241e-08
decision_type=2 2 2 2 2 2 2 2 2 2 2 2 2 2 2 2 2 2 2 2 2 2 2 2 2 2 2 2 2 2 2 2 2
left_child=2 4 32 17 5 12 7 20 11 -7 13 -5 21 16 -6 18 -9 30 -8 -19 -3 29 28 -13 -12 -16 -11 -20 -10 -2 -4 -29 -1
right_child=1 6 3 8 14 9 15 10 22 26 24 23 -14 -15 25 -17 -18 19 27 -21 -22 -23 -24 -25 -26 -27 -28 31 -30 -31 -32 -33 -34
leaf_value=-0.1132811786728696 -0.10957615447091965 0.0059648492515896557 -0.11037447441372455 -0.035511298811721284 -0.003778287544641345 -0.027295597394758821 0.030880373986840848 0.042104751930373802 -0.091629741989330771 0.028687210767225399 0.087511591989937645 0.069531745869832226 0 0.069377288142355165 0.030952139534197759 0.0078670051755164849 -0.033741426181982087 -0.070851112790807524 0.041346452209300694 -0.00072411007168317516 -0.070291925549803055 -0.036560318670512203 -0.0083857406251986056 0.016863629184056889 0.029702093747730932 0.088505180866648964 0.086145996245536136 0.10320343926708653 -0.039737369484073706 -0.053441376391213838 -0.0543681859301441 0.047609871490142543 -0.057246856230959445
leaf_weight=1201.9859215170145 276.14060628414154 110.07249850034714 419.87803474068642 182.90221977233887 103.6107581704855 184.71625764667988 136.92633017897606 115.76830565929413 143.90201875567436 105.86170937120914 477.6345562338829 186.11030082404613 160.64207297563553 128.76130644977093 96.903547942638397 84.47663851082325 197.57900202274323 235.74091593921185 81.594764485955238 124.79223181307316 119.28466409444809 208.50785808265209 149.88512255251408 209.33137544989586 83.289242684841156 194.99247536063194 115.56602196395397 1139.2427280396223 130.71136565506458 117.86570444703102 110.38809089362621 83.843923315405846 99.676581591367722
leaf_count=5553 1076 458 1792 691 422 748 630 513 565 448 2637 783 625 597 426 413 821 979 388 481 473 799 576 817 432 927 537 6618 484 453 436 446 443
internal_value=-0.00878552 0.0383369 -0.0724437 -0.0454322 -0.0102013 -0.0325713 0.0658199 0.0374653 -0.0115386 0.0230208 0.0547542 0.0184643 -0.0622724 0.019032 0.0536311 0.0877212 -0.00411224 -0.0821522 0.0920553 -0.0486061 -0.035413 -0.0784603 -0.051848 0.0445365 0.080753 0.0736042 0.0646442 0.0976899 -0.0724331 -0.0970087 -0.101732 0.100476 -0.110175
internal_weight=7518.59 4323.28 3195.3 1893.64 1564.81 1169.3 2758.47 1232.39 1002.84 406.144 1003.03 578.344 763.156 442.109 395.507 1526.08 313.347 890.799 1441.61 360.533 229.357 602.514 424.499 395.442 560.924 291.896 221.428 1304.68 274.613 394.006 530.266 1223.09 1301.66
internal_count=34487 20887 13600 7604 6461 4686 14426 5931 3916 1733 5000 2291 2953 1931 1775 8495 1334 3688 8082 1460 931 2328 1625 1600 3069 1353 985 7452 1049 1529 2228 7064 5996
is_linear=0
shrinkage=0.1


Tree=11
num_leaves=34
num_cat=0
split_feature=3 18 31 0 0 55 4 36 34 55 164 123 3 205 33 33 50 158 138 55 30 72 55 36 322 10 4 205 182 205 281 18 14
split_gain=1944.21 476.132 322.664 278.954 256.49 117.515 101.936 97.7101 82.4169 79.0717 66.213 58.7148 54.8436 50.1516 49.9989 48.9628 47.9276 45.6315 42.0492 38.0314 36.5509 35.0637 33.534 29.6464 27.8986 25.6024 22.3035 20.2346 19.5315 14.517 7.54894 4.20134 2.26725
threshold=-49.998967276492884 0.9349537165806493 -0.54255963840435395 -76.323679441981312 -23.7779083356257 -26.481278605368214 1.0000000180025095e-35 15.170804462458333 1.1500351718367767 8.8529837966940761 0.1479538180158855 -3.7748389336424562 -50.009789014796191 0.89786278197602798 30.962419349898816 -24.426516420225628 -7.6645195815367675 -0.22517442004238394 0.033335280767623619 -4.2265894963789954 -2.9932329604831485 243.58187400330277 3.6091760871405154 -172.42196091561081 1.6816777765858414e-07 27.214975484174548 -10.346267466948659 1.1792450151635621 -2.8201206685618199 0.90249159670586099 12.136646116772214 16.56232460862579 4.3000974534552379
decision_type=2 2 2 2 2 2 2 2 2 2 2 2 2 2 2 2 2 2 2 2 2 2 2 2 2 2 2 2 2 2 2 2 2
left_child=1 6 4 13 10 14 23 15 9 16 17 -7 -13 -3 -5 -8 -6 30 19 20 26 -11 31 -1 -12 -10 -4 -14 -24 -25 -2 -15 -28
right_child=2 3 18 5 8 11 7 -9 25 21 24 12 27 22 -16 -17 -18 -19 -20 -21 -22 -23 28 29 -26 -27 32 -29 -30 -31 -32 -33 -34
leaf_value=-0.036308098244838841 -0.043251918808539125 -0.0069571783562693617 0.022705541639884141 -0.073977335067561364 0.023568010861919748 -0.022931715913591971 -0.042809725581451935 -0.086500722405889297 0.030115893790159987 0.078804104919996718 0.044704064473963384 0.0050997863615283041 0.088866482886596543 -0.10682655869836788 0.0064082596742548043 0.030668977211872107 -0.05040792934257339 -0.012148789721801102 0.0056377161048359143 0.1004017978742168 0.0045355929386127576 0.0055388331891389857 -0.063734823766483803 -0.070841197327176197 -0.01572331089482645 0.08988484888459683 0.040409479243071506 0.033324795114275364 -0.0052673695815471464 -0.11279765522677546 -0.10044765347691281 -0.051813249024658947 0.089994021215211106
leaf_weight=106.15470737218857 120.95373061299324 148.84476804733276 110.40946634113789 136.74733601510525 150.60303840041161 111.25123217701912 174.6852130740881 337.72178299725056 139.00483211874962 195.98389661312103 111.69391557574272 195.12181222438812 255.87237663567066 247.4287826269865 135.58238342404366 145.26089154183865 154.72131909430027 200.81756663322449 80.372275233268738 829.56098452210426 108.20314046740532 108.55343107879162 120.24021054804325 290.09599228203297 153.45722001791 385.24625314772129 85.382152423262596 158.79535868763924 118.68553656339645 1128.0027349442244 120.53991195559502 109.39553843438625 317.81205798685551
leaf_count=442 475 611 493 546 736 448 727 1539 665 1072 471 772 1172 1071 553 603 620 781 396 5229 474 495 458 1322 630 1995 466 689 459 5274 458 450 1895
internal_value=-0.00820544 -0.0559861 0.0472513 -0.0164542 0.0185209 0.017987 -0.0868967 -0.0506005 0.0477235 0.0210214 -0.0280004 0.0390057 0.0510742 -0.0619153 -0.0356433 -0.00893783 -0.0140631 -0.0509168 0.0809023 0.0847676 0.0608666 0.0555074 -0.0745421 -0.101477 0.0103744 0.0762901 0.0716341 0.0708447 -0.038441 -0.105573 -0.0786114 -0.0945115 0.0826411
internal_weight=7293.2 3919.89 3373.32 1737.97 1841.58 993.37 2181.92 657.668 1134.11 609.862 707.462 721.041 609.79 744.595 272.33 319.946 305.324 442.311 1531.74 1451.37 621.807 304.537 595.75 1524.25 265.151 524.251 513.604 414.668 238.926 1418.1 241.494 356.824 403.194
internal_count=34487 17136 17351 7229 8398 4180 9907 2869 5583 2923 2815 3081 2633 3049 1099 1330 1356 1714 8953 8557 3328 1567 2438 7038 1101 2660 2854 1861 917 6596 933 1521 2361
is_linear=0
shrinkage=0.1


Tree=12
num_leaves=37
num_cat=0
split_feature=3 5 31 281 33 55 55 10 123 158 5 180 4 4 180 205 41 205 151 205 4 3 4 33 16 55 4 4 283 359 321 4 422 20 57 106
split_gain=1689.81 485.395 260.368 184.193 176.678 173.278 143 118.302 116.889 97.6042 81.0974 74.1632 64.4465 60.0597 52.548 47.7841 56.6862 38.327 34.2975 33.768 29.9005 27.3245 26.9956 25.0312 23.0656 22.002 22.1287 18.1045 16.2349 14.6539 14.1767 10.5665 6.76728 4.94988 3.48642 0.539622
threshold=-50.003236992167309 -0.010632574825772288 -1.6137583047995923 -7.428065478863437 1.4052344665396748 -12.363557110357062 -7.6612240798708342 16.725162543891653 -0.98430024277912043 0.92575948880325687 -0.10358990801115207 -0.77003930369766305 -5.7404862122079736 -51.328594360519752 0.22426010812589861 0.9095555637216346 -101.51758301906141 1.8105856844317973 -0.09892272648199528 1.1219532892295514 -0.24488219774096362 -50.006786027960679 12.937041020458397 4.4128607680422993 1.6902271148870176 -24.428656603768058 20.055191584026648 18.071539181330838 33.834880238834209 1.0870364332734328 0.032382734567780298 -1.1036744988882885 0.00051710317788433724 0.047730201808044638 0.070830159705041071 243.58187400330277
decision_type=2 2 2 2 2 2 2 2 2 2 2 2 2 2 2 2 2 2 2 2 2 2 2 2 2 2 2 2 2 2 2 2 2 2 2 2
left_child=2 3 -1 10 6 21 7 22 28 15 14 24 -8 -6 -2 -10 -17 25 -13 31 -18 34 -3 -11 -5 26 29 -9 -7 -15 35 -12 33 -27 -4 -14
right_child=1 4 5 11 13 8 12 27 9 23 19 18 30 17 -16 16 20 -19 -20 -21 -22 -23 -24 -25 -26 32 -28 -29 -30 -31 -32 -33 -34 -35 -36 -37
leaf_value=-0.10443208509184919 -0.053284652158663418 -0.070484873823926555 -0.10347332061659607 -0.10336088815154872 0.0044862393945212633 -0.030906091623998086 0.0074742987422651425 0.0038648204276794684 0.076134658734065011 -0.075128749233268566 0.027411135811119536 -0.043175213516369708 0.092210096953973864 0.050041820353888503 0.020013826246061257 0.054951690041842707 -0.039607952909855096 0.0089671392490982289 0.027985989363794359 0.003659333128947079 0.020674403692809658 -0.036092980809191662 -0.0076993229326938074 -0.0089988402800241906 -0.040682181612320061 0.041646908136989166 0.082597265080271376 0.062234401021384916 -0.088662741158838099 0 0.02615938706842685 0.085772897633566325 0.039338502061734164 0.10134811985379251 -0.049776052296912759 0.043759689252788898
leaf_weight=1115.1401087939739 173.75103893876076 202.16860829293728 374.0440438836813 231.46548229455948 117.54290516674519 132.55960008502007 211.18551315367222 100.20475907623768 121.71049542725086 126.09212943911552 89.678545013070107 118.14484421908855 292.20360104739666 135.76568885147572 172.84463788568974 149.44757969677448 185.58996249735355 81.64564836025238 107.8682527244091 128.38955727219582 113.31772494316101 153.46032147109509 120.02307032048702 119.03419545292854 153.61864201724529 70.71016725897789 212.93172620236874 130.53564535081387 170.60503253340721 95.19724315404892 88.119678750634193 150.5778312087059 74.489144265651703 877.06837266683578 98.861642226576805 87.35704505443573
leaf_count=5750 710 776 1754 949 532 526 867 420 509 512 394 480 1563 662 782 624 744 387 502 605 454 639 483 456 632 407 1281 627 667 452 444 804 466 5760 421 446
internal_value=-0.00767481 0.0324312 -0.0667831 -0.0173486 0.0552602 -0.041601 0.0256111 -0.0116457 -0.017118 0.0027497 0.0167224 -0.0568008 0.0557103 0.0764412 -0.0170724 0.0255786 0.00847903 0.0816196 -0.00879484 0.048276 -0.016175 -0.082919 -0.0497344 -0.0472312 -0.0824322 0.085319 0.0591168 0.0403192 -0.0678754 0.0313149 0.0757189 0.0689517 0.0950088 0.0981658 -0.095394 0.084608
internal_weight=7083.35 4223.49 2859.86 1326.34 2897.15 1744.72 1231.8 552.932 1118.36 815.192 715.242 611.097 678.866 1665.35 346.596 570.066 448.355 1547.81 226.013 368.646 298.908 626.366 322.192 245.126 385.084 1466.16 443.895 230.74 303.165 230.963 467.68 240.256 1022.27 947.779 472.906 379.561
internal_count=34487 21431 13056 5858 15573 7306 5626 2306 4492 3299 3295 2563 3320 9947 1492 2331 1822 9415 982 1803 1198 2814 1259 968 1581 9028 2395 1047 1193 1114 2453 1198 6633 6167 2175 2009
is_linear=0
shrinkage=0.1


Tree=13
num_leaves=38
num_cat=0
split_feature=3 2 31 6 55 281 31 10 206 281 10 281 3 31 180 151 391 5 180 33 205 55 46 31 31 310 46 205 182 55 446 170 3 321 4 16 21
split_gain=1442.81 432.318 240.741 163.286 153.334 117.147 118.138 120.051 101.508 94.2281 96.6962 76.2943 63.5043 46.2732 45.5733 41.5691 39.4768 36.8224 36.4342 33.7908 33.7576 33.3053 31.1085 30.9469 30.003 19.3511 17.5797 17.0017 13.129 11.2409 9.82605 8.43035 6.27044 5.16814 4.4012 3.74268 2.69921
threshold=-50.003236992167309 0.059727088458219953 -1.6137583047995923 -0.0088930331958204639 -9.9297281414986447 18.632960360260551 2.0467785432232337 17.170823738493571 157.06090072681687 1.0000000180025095e-35 15.953125677062937 -18.945437151355335 -50.009789014796191 -10.616281979051577 -1.9627463502350826 0.12252626330182011 0.00245770595940072 0.045861197124438431 -15.756782839056788 1.0428215599641144 1.6476151460504973 -18.623887082812683 -0.55088961996974417 14.008087665532424 -12.184525411737569 1.7261900575735215e-07 -0.97361666706833239 1.1464754694706487 0.54235652129881029 -105.68382813919155 2.4147122729278978 5.4719109202876952 -50.006786027960679 0.074973297178853052 1.8728142189611747 -1.7563667324843275 -0.13406673803778643
decision_type=2 2 2 2 2 2 2 2 2 2 2 2 2 2 2 2 2 2 2 2 2 2 2 2 2 2 2 2 2 2 2 2 2 2 2 2 2
left_child=2 3 34 11 17 20 7 15 12 18 14 13 16 -2 -11 -7 -6 32 -5 -18 26 -17 -8 35 -12 -15 -3 -20 -9 -24 -14 -13 -4 -28 -1 -10 -36
right_child=1 5 4 9 8 6 22 28 23 10 24 31 30 25 -16 21 19 -19 27 -21 -22 -23 29 -25 -26 -27 33 -29 -30 -31 -32 -33 -34 -35 36 -37 -38
leaf_value=-0.10745186160971106 -0.054150499771513219 0.023246721655329351 -0.094923508237511375 0 -0.052715327787631244 -0.063097680116586743 0.005728136682699606 0.015094234889236946 -0.090967233514657075 -0.067806458914280693 -0.003286031290754849 -0.041277994722639294 0.069162599445552336 0.043043113659044868 0.0044935483605971918 -0.033554123779029742 -0.024531827677610311 -0.013734810292780335 0.079338652004432339 0.038192602958689571 0.013831016039561984 0.037676559050928399 0.026044658167376694 -0.011727985274523652 0.056872923083783368 -0.011290154423543036 0.091661247188437683 0.019800949031572368 0.071857641946715997 0.084963469461735441 0.0203893519324117 -0.097489058257186109 -0.045724112656200827 0.036004514430730765 -0.085205554275081641 -0.041560581866981514 -0.038838369049996296
leaf_weight=815.31006459891796 136.62912344932556 71.826403729617596 422.74788676202297 117.1795766800642 144.49795332551003 171.20655137300491 81.277521647512913 84.824348382651806 133.46730095148087 226.50119073688984 129.55408047139645 109.72238416969776 112.25854736566544 104.13841570913792 121.54081225395203 115.8445902466774 145.81079286336899 98.146559149026871 244.59591752290726 152.1922807097435 88.580995976924896 103.85174143314362 74.983066335320473 140.72843779623508 170.71911570429802 112.12869229912758 946.83160129934549 94.479154586791992 166.0066386833787 388.48867558687925 123.46279762685299 188.65758819878101 118.92460691928864 70.2170075699687 114.52750234305859 117.07485324144363 117.83823856711388
leaf_count=4549 559 354 2062 512 579 701 397 422 544 910 552 454 478 459 516 489 592 406 1266 611 441 528 367 546 814 482 6132 451 931 2449 505 804 510 441 626 473 575
internal_value=-0.00710086 0.0302862 -0.0628528 -0.00717242 -0.0386979 0.0580191 0.0345115 0.00458072 -0.0146851 0.0160554 -0.00821846 -0.0461611 0.00856536 -0.0124613 -0.0431455 -0.0292205 -0.0134184 -0.0766868 0.0498426 0.00719078 0.0804599 0 0.0678341 -0.0538846 0.0317203 0.0154319 0.0852944 0.065583 0.056246 0.0775021 0.0483926 -0.0817447 -0.0867116 0.0888751 -0.10046 -0.0738868 -0.067932
internal_weight=6876.77 4119.79 2756.99 1755.85 1709.31 2363.94 1186.48 641.734 1069.49 1104.57 648.315 651.276 678.222 352.896 348.042 390.903 442.501 639.819 456.255 298.003 1177.46 219.696 544.749 391.271 300.273 216.267 1088.88 339.075 250.831 463.472 235.721 298.38 541.672 1017.05 1047.68 250.542 232.366
internal_count=34487 21431 13056 7779 7306 13652 6284 3071 4328 5021 2792 2758 2765 1500 1426 1718 1782 2978 2229 1203 7368 1017 3213 1563 1366 941 6927 1717 1353 2816 983 1258 2572 6573 5750 1017 1201
is_linear=0
shrinkage=0.1


Tree=14
num_leaves=37
num_cat=0
split_feature=3 2 33 6 123 4 31 58 10 180 123 55 3 34 300 55 281 63 95 3 106 31 55 138 33 312 376 159 291 205 63 63 394 8 327 353
split_gain=1239.45 420.472 202.699 151.149 136.731 129.974 117.916 112.084 89.1811 89.8807 76.9378 72.7824 63.2454 46.258 45.3364 45.2979 37.3734 34.9718 29.2891 26.3266 26.273 23.8464 22.7459 22.1332 23.1901 20.7617 18.856 18.0237 16.5249 9.74128 8.32622 7.09589 6.22936 4.25972 4.65081 3.91556
threshold=-50.004282196857694 0.013010623226865929 -11.290910109001457 -0.0093687135046547892 -0.84523038145752583 4.1266534408934801 1.9331425188737905 -9.9297281414986447 29.498954086767629 -3.6084073344099994 0.034667323098543264 9.8303161285827532 -50.029946256811328 0.95557084812977489 19.50868239227626 -84.865139812062452 21.353949906655654 -167.96131098956747 0.026477598784968696 -50.009615990814375 -43.232505904803254 -19.600307621473458 -59.992985755273757 0.031288978323761311 -22.405740638419765 3.5920746109673023 -0.0012866853271202847 -0.21750508615125061 -0.0080878545918654492 1.3201411501663751 12.940632842742664 -42.886494434915925 -3.6927178874378366 -0.98667822092663371 4.1932620191217171e-07 -49.99407293563511
decision_type=2 2 2 2 2 2 2 2 2 2 2 2 2 2 2 2 2 2 2 2 2 2 2 2 2 2 2 2 2 2 2 2 2 2 2 2
left_child=2 3 17 10 35 6 11 19 9 18 20 13 -9 26 25 -7 -11 -1 27 -6 -2 -10 -8 24 30 -14 -3 -5 -13 32 -17 -22 -24 -26 -35 -4
right_child=1 5 4 8 7 15 22 12 21 16 -12 28 14 -15 -16 23 -18 -19 -20 -21 31 -23 29 -25 33 -27 -28 -29 -30 -31 -32 -33 -34 34 -36 -37
leaf_value=-0.033447060805589381 -0.018404033718422495 -0.019918451058116435 -0.091569096397655106 -0.072981212719651856 -0.072406763288363984 0.01634078269999651 0.0058197791856370445 -0.039322283046448893 0.01177967679967201 0.059088690510186719 0.0043465847692548505 0 0.07507398964975906 0.015329438882431587 -0.013361088512369222 0.058942541949317209 -0.0070622583493797492 -0.1018859311530356 0.0019760870040289456 -0.012950314210718475 -0.040178886908221655 0.073264729576729609 0.031238317902803067 0.014953026940338485 0.035483399304816601 0.014015267266457196 -0.084030006728794002 -0.01492268491143578 0.054335959065848254 0.023442413485903649 0.012238237292992057 -0.090976042266114776 0.084460393636398221 0.096451504490467188 0.044992246535302149 -0.05025050018229308
leaf_weight=121.71621119976044 116.87985317409039 111.41735835373402 287.81304448843002 174.71169146895409 240.15437962114811 152.24596136808395 82.362320125102997 132.13732993602753 113.55506676435471 178.72399231046438 200.5412857234478 92.95048089325428 181.60196459293365 110.60703211277723 119.73807291686535 123.06116035580635 131.66418831795454 958.01007062196732 120.01577863842249 134.41836868226528 112.02121944725513 209.67441064119339 79.024909779429436 71.097039178013802 64.078834541141987 107.54824328422546 119.34599388390779 107.91328649222851 141.55563667416573 82.665559403598309 90.981215327978134 269.59794306755066 275.02482422441244 794.54026228934526 94.597764424979687 174.93032383918762
leaf_count=574 495 491 1333 714 1135 773 357 544 508 906 884 455 767 506 496 677 548 5437 519 583 466 1060 452 395 356 444 480 470 693 456 404 1225 1715 5787 591 791
internal_value=-0.00667444 0.0261377 -0.0628475 -0.0114635 -0.0362608 0.0523542 0.025515 -0.0128874 0.0125861 -0.00711623 -0.046744 -0.00541119 0.0158191 -0.0343591 0.0352632 0.0726059 0.0316976 -0.0951931 -0.0376771 -0.0535351 -0.0670696 0.0544388 0.0590971 0.0789379 0.0822953 0.0556758 -0.0583694 -0.0542224 0.0351599 0.0678857 0.0430315 -0.0796054 0.0756902 0.0897194 0.0924342 -0.0793797
internal_weight=6678.92 4220.86 2458.07 1735.3 1378.34 2485.56 1094.95 915.598 1036.26 713.029 699.04 575.877 541.026 341.37 408.888 1390.6 310.388 1079.73 402.641 374.573 498.499 323.229 519.078 1238.36 1167.26 289.15 230.763 282.625 234.506 436.715 214.042 381.619 354.05 953.217 889.138 462.743
internal_count=34487 22383 12104 7795 6093 14588 5605 3969 4725 3157 3070 2625 2251 1477 1707 8983 1454 6011 1703 1718 2186 1568 2980 8210 7815 1211 971 1184 1148 2623 1081 1691 2167 6734 6378 2124
is_linear=0
shrinkage=0.1


Tree=15
num_leaves=36
num_cat=0
split_feature=3 31 55 33 3 4 4 4 87 55 55 55 205 3 138 36 140 34 227 205 55 205 141 331 137 252 31 41 55 31 1 123 33 440 359
split_gain=1062.8 394.349 185.225 182.939 176.998 157.423 147.018 103.002 90.7658 67.032 62.4154 62.2833 55.9773 48.7041 43.7573 39.3956 35.2044 33.965 33.3615 32.2748 31.6058 30.7413 28.5736 26.5872 21.7902 17.1447 16.9104 15.4565 12.264 11.7031 10.8198 11.131 10.6003 8.93141 3.29558
threshold=-49.997029440744022 6.7570214368477517 -12.363557110357062 4.7313709013065806 -50.004447931529008 -6.6144938200147996 6.7766030573898943 -42.567485218571811 -1.1879762025828808 5.3109077333061938 -30.69758656064943 -21.068490629151757 1.0367129695040187 -50.005667049852299 0.035120253520822417 112.86728056686587 -0.1741711301899764 1.1500351718367767 2.2369915593315928 0.88337342349673709 -76.861420776950382 0.8739172084040091 0.0014552736395396246 -0.0031450458185873493 -4.9366410705702597 1.6317146710586956 -3.8555717731835855 296.56639259674517 33.952900517310162 14.349833634480222 0.91310164514197834 -7.4885379936925274 5.4797608156325399 2.4809952979413505e-11 1.2119793540552781
decision_type=2 2 2 2 2 2 2 2 2 2 2 2 2 2 2 2 2 2 2 2 2 2 2 2 2 2 2 2 2 2 2 2 2 2 2
left_child=1 2 21 6 7 13 9 28 16 19 -9 17 -10 32 20 24 26 -8 29 -2 -5 -1 -11 -15 -6 -21 -7 33 -3 -12 -22 -32 -4 -13 -26
right_child=3 4 5 14 15 8 11 10 12 22 18 27 -14 23 -16 -17 -18 -19 -20 25 30 -23 -24 -25 34 -27 -28 -29 -30 -31 31 -33 -34 -35 -36
leaf_value=-0.043940386955018125 0.00098481483310801604 -0.093558021891010187 -0.095589437181289386 0.027869140224737767 0.020239153997405331 -0.029251899754189681 -0.027133340707336775 -0.051047369183941628 0.077564873956006489 -0.010274096772403431 0.015801417956797622 0.088256694446729456 -0.0034927135735235097 -0.058261681094805479 -0.0047207823261207708 -0.0034613955647517774 -0.063774974107464175 0.037734855346127451 -0.011089391799695567 -0.07903047413881803 0.026215566143933486 -0.10239409564330189 0.050237606965902543 -0.0009522854502772727 0.089538239936041861 -0.020393637524358407 0.022032630161442364 0.022932318588250858 -0.03287308601946709 0.067709653567691583 0.031051644668630037 0.088236134806286351 -0.040250606038824639 0.030607617850899722 0.03735441279479905
leaf_weight=169.61044049263 112.40128542482853 145.9607267677784 406.68237622827291 173.93878304958344 118.06102310866117 110.33743423223495 126.32330589741468 135.14675672352314 142.11031056195498 136.92392691224813 111.34718033671379 282.08709804713726 163.04638703167439 165.03496909141541 66.102420791983604 96.927161529660225 183.54280497133732 153.19172760844231 149.68543484807014 168.65348754823208 70.722817778587341 880.18603227287531 131.12429863214493 159.18205503374338 203.48990152031183 111.2907749786973 101.37487331777811 97.930963300168514 103.51677586138248 112.197679027915 80.969958066940308 860.11092704534531 106.04740451276302 78.873112723231316 82.172094322741032
leaf_count=865 487 695 2291 903 550 507 524 648 660 595 465 1719 722 744 348 403 898 745 613 668 429 4889 662 699 1176 464 442 501 403 482 497 6448 447 457 441
internal_value=-0.00618163 -0.0397044 -0.0618935 0.0422948 0.00600438 -0.0386466 0.0168055 -0.0240818 -0.00301816 -0.0169706 0.00193941 0.0469422 0.0361845 -0.0673621 0.0698219 0.0511022 -0.0341514 0.0078019 0.0234659 -0.0425634 0.0741807 -0.0942481 0.0200675 -0.032622 0.0642584 -0.0596348 -0.00393116 0.0688699 -0.0738805 0.0464888 0.0811647 0.0843684 -0.0866779 0.0787178 0.0789808
internal_weight=6496.3 3845.66 2587.16 2650.64 1258.5 1537.36 1398.8 757.855 700.412 660.394 508.377 738.406 305.157 836.947 1251.84 500.65 395.255 279.515 373.23 392.346 1185.74 1049.8 268.048 324.217 403.723 279.944 211.712 458.891 249.478 223.545 1011.8 941.081 512.73 360.96 285.662
internal_count=34487 19040 13164 15447 5876 7410 6822 3306 3229 2876 2208 3946 1382 4181 8625 2570 1847 1269 1560 1619 8277 5754 1257 1443 2167 1132 949 2677 1098 947 7374 6945 2738 2176 1617
is_linear=0
shrinkage=0.1


Tree=16
num_leaves=39
num_cat=0
split_feature=3 33 31 123 4 0 55 283 55 123 158 55 36 205 5 33 31 450 170 74 135 10 428 430 137 260 36 0 33 175 350 283 21 7 371 310 438 205
split_gain=921.159 349.883 178.501 153.029 145.04 129.056 108.289 91.0844 80.6856 76.7989 71.8789 68.174 65.8428 58.1633 44.8556 43.6596 41.6478 36.4499 28.587 26.0631 24.7342 23.4736 21.4199 21.0008 20.2628 20.109 19.0214 17.2013 12.4357 12.3168 11.9463 11.8036 10.6896 8.39552 11.7883 5.88306 3.31732 2.34153
threshold=-50.004447931529008 -15.405765474879301 -0.77003930369766305 -0.034192849488935188 15.860148496787492 -24.789565841187766 -21.71984481144808 46.343034937570316 -9.0220694293884076 -0.8912601172167508 1.2193491358783499 -61.399011314877349 -103.39678335902987 1.3201411501663751 -0.017012257241858616 6.2339343515815644 6.2461002637719583 2.4086509346788908e-11 -44.852076955355081 88.484150458116986 2.6432407654281005 6.7324517229363332 38025.044380978579 -0.055213008884115559 1.6539298581724611 0.018894642996880654 174.42276242693194 -77.071572670969914 43.141460958066531 0.030458310446599367 -28.438581517176186 34.706300088280699 0.12679677412533988 3.0439834883999954 2.4414801252967728 3.8077035851448508e-07 0.030564076843909497 0.84739056084939202
decision_type=2 2 2 2 2 2 2 2 2 2 2 2 2 2 2 2 2 2 2 2 2 2 2 2 2 2 2 2 2 2 2 2 2 2 2 2 2 2
left_child=2 4 33 5 7 8 28 12 16 31 15 -6 -2 26 -13 19 22 21 -10 -11 -20 -7 -3 -9 -14 32 29 -17 -4 -5 -16 -8 -15 37 -35 -31 -23 -1
right_child=1 3 6 13 11 17 9 23 18 10 -12 14 24 25 30 27 -18 -19 20 -21 -22 36 -24 -25 -26 -27 -28 -29 -30 35 -32 -33 -34 34 -36 -37 -38 -39
leaf_value=-0.044747613938964557 0 -0.091983714932463101 -0.090141558738935396 0.039553659800850863 -0.034683393538558857 0.016224456384763618 -0.0256448654374162 0.039973511539665003 0.055184479807452974 0.016016665384975131 -0.052327845623500874 -0.0032858192584008621 -0.089442515608120832 0.004054919202358234 0.021550611123729482 0.010196227984120707 0.0060647090925755138 0 -0.032334291804820982 -0.039039469751949794 0.028632574822136433 0.080672701635528893 -0.02313444875329217 -0.015787474960178058 -0.027254014831401153 -0.013199249127984295 0.019104790603155158 0.064703952095490569 -0.033413860399913953 0.093052059721787816 0.076614557851188619 -0.078290215722975093 0.054212602457284348 -0.015693627820539621 -0.077093286257715388 0.036574703013274777 0.031409783316156153 -0.10268545220820516
leaf_weight=71.161238595843315 132.64173093438148 125.28627901524305 272.79250855743885 126.07241058349609 141.14630326628685 114.21418808400631 120.39321321249008 102.53099189698696 134.217419013381 177.90708275139332 167.63619409501553 143.95118878781796 385.90745109319687 74.930495642125607 91.867701299488544 114.33848291635513 105.7355449795723 119.68858173489571 105.8233795017004 127.082314863801 117.39966740459204 321.85345420986414 109.07187733054161 122.54735168814659 101.71446048468351 76.621429353952408 73.201524414122105 164.28316925466061 103.70715023577213 733.57043141126633 193.65522436052561 147.52178014814854 153.89022597670555 81.226507127285004 82.169333815574646 72.837736815214157 72.674058675765991 635.1454366967082
leaf_count=452 558 512 1514 784 621 717 511 458 747 747 710 648 1717 378 461 466 479 701 508 550 565 2117 474 532 464 418 351 711 483 5291 1063 641 1012 452 502 479 464 4229
internal_value=-0.00575304 0.0227348 -0.0565559 0.0441636 -0.0170762 0.0194783 -0.0332947 -0.0430242 -0.00983766 -0.0153616 0.00116702 0.0211388 -0.0622969 0.0682302 0.0407866 0.0182423 -0.0435941 0.0516191 0.0223223 -0.00727939 0 0.0628724 -0.0655249 0.0099499 -0.078641 0.0263282 0.0799052 0.0454634 -0.0777723 0.0838911 0.0624285 -0.05913 0.0404912 -0.0919048 -0.0532456 0.0893238 0.0742678 -0.0986753
internal_weight=6318.42 4053.05 2265.36 2637.09 1415.96 1325.96 1395.66 845.342 697.534 1019.16 751.247 570.62 620.264 1311.12 429.474 583.611 340.094 628.43 357.44 304.989 223.223 508.742 234.358 225.078 487.622 305.442 1005.68 278.622 376.5 932.481 285.523 267.915 228.821 869.703 163.396 806.408 394.528 706.307
internal_count=34487 22519 11968 15997 6522 7284 6333 3729 3285 4336 3184 2793 2739 8713 2172 2474 1465 3999 1820 1297 1073 3298 986 990 2181 1808 6905 1177 1997 6554 1524 1152 1390 5635 954 5770 2581 4681
is_linear=0
shrinkage=0.1


Tree=17
num_leaves=38
num_cat=0
split_feature=3 18 0 33 123 4 33 55 55 205 16 158 36 31 33 78 4 205 63 33 65 63 260 123 283 46 164 4 205 206 21 416 55 9 10 140 14
split_gain=789.966 303.322 207.144 175.073 124.548 115.857 99.4166 80.3558 79.2285 61.8225 57.4551 55.555 49.7303 44.0435 38.7376 36.0246 32.2554 32.2045 30.885 40.486 29.1356 28.9477 28.4149 26.8679 27.7645 23.032 22.1232 19.9848 18.2411 18.0501 16.0548 13.1284 12.7133 9.84793 9.58113 6.95202 0.304687
threshold=-50.004282196857694 -2.8902658264116137 -23.7779083356257 -18.41669017594862 0.034667323098543264 -5.4519307210153007 49.480626899284339 5.7889356236749796 2.0222751505889884 1.3306488038686279 -2.5662207461530349 0.57708787847471055 -46.552163335032297 -16.105060788776051 -27.354787786029483 0.013755108997033196 30.810137499059923 0.86141021852841282 13.628009191643626 11.518367242637193 -57.818610644139632 -167.96131098956747 0.021732295143149397 -0.35897834704175219 34.566038468319441 -0.80301256763208373 -0.68372009615946172 22.632322610138576 1.0340036153399879 -22.12755206000999 0.078108653679129184 -0.95180888630293137 0.38273848738066724 -6.3058822461935327 27.870514642259696 -2.0143411815236987 4.3000974534552379
decision_type=2 2 2 2 2 2 2 2 2 2 2 2 2 2 2 2 2 2 2 2 2 2 2 2 2 2 2 2 2 2 2 2 2 2 2 2 2
left_child=3 2 7 21 26 6 12 17 15 18 -10 14 -3 -9 16 33 -4 -2 -7 20 -20 -1 30 24 -14 -15 35 -19 -12 -16 -11 -8 -28 -6 -13 -5 -21
right_child=1 5 11 4 8 9 31 13 10 22 28 34 23 25 29 -17 -18 27 19 36 -22 -23 -24 -25 -26 -27 32 -29 -30 -31 -32 -33 -34 -35 -36 -37 -38
leaf_value=-0.029877793442810649 -0.011122512424611715 0.030726413345198818 -0.05024338530536835 -0.033877874289606973 -0.070911650787415847 0.089058477507953371 0.019152317095477444 -0.042734907917340553 -0.027906978898442777 0 0.078912225717263251 0.026735837179574392 -0.078393530062779326 -0.010647976051272996 0.053697053069895098 0.0051587076202544505 0.017063900128915604 -0.087666650723075598 0.042744755603236873 0.03302638977341308 -0.02494831588886021 -0.098900896336113431 -0.024862326130785577 0.0063488467644839224 -0.0070872490575382037 0.046863663627967608 -0.050458582312000788 -0.030308143085228618 0.023042205308521628 0 0.05412288688692788 0.077010584411013272 0 -0.019500423525165504 0.077963959972398578 -0.084513329040412311 0.080479678631771842
leaf_weight=103.6760389059782 117.55094880610704 153.09502714127302 132.88578131049871 92.932801321148872 169.58034633845091 640.94405384361744 87.685301251709461 154.2482685521245 126.75573143362999 77.963743053376675 104.93264293670654 105.91251211613417 133.59915020316839 104.52054020017385 147.35195990651846 126.66145982593298 109.72243337333202 336.23331429064274 120.9269182831049 65.648143544793129 91.349370054900646 669.47409439086914 80.297147415578365 101.02856193482876 103.46491967886686 133.66257411986589 92.074463948607445 128.29776531457901 193.20708622038364 103.41518723964691 155.77463701367378 169.02058161050081 93.072919361293316 91.047312274575233 172.58224556595087 350.19342537969351 212.80728682130575
leaf_count=534 533 815 545 453 896 5130 470 649 510 395 468 582 577 448 895 591 544 1560 669 380 432 4589 432 485 463 602 514 566 828 496 1059 974 398 441 1057 1882 1625
internal_value=-0.0053963 0.0214008 -0.00954515 -0.0529414 -0.0313042 0.045995 0.0131285 -0.0399053 -0.0047516 0.0623933 0.0241858 0.0285349 -0.0130205 -0.00382061 0.00702893 -0.0366678 -0.0200187 -0.0628359 0.0732741 0.0493064 0.0130058 -0.0910062 0.020288 -0.0341358 -0.0513757 0.0219469 -0.0639668 -0.0743629 0.0474526 0.0335625 0.0375051 0.0611163 -0.0280307 -0.0566551 0.0625974 -0.0764717 0.0732636
internal_weight=6153.6 3939.99 1746.38 2213.61 1440.46 2193.6 747.894 974.513 812.185 1445.71 424.895 771.87 491.188 392.431 493.375 387.289 242.608 582.082 1131.68 490.732 212.276 773.15 314.036 338.093 237.064 238.183 628.274 464.531 298.14 250.767 233.738 256.706 185.147 260.628 278.495 443.126 278.455
internal_count=34487 22383 8477 12104 6981 13906 3784 4358 3734 10122 1806 4119 2340 1699 2480 1928 1089 2659 8236 3106 1101 5123 1886 1525 1040 1050 3247 2126 1296 1391 1454 1444 912 1337 1639 2335 2005
is_linear=0
shrinkage=0.1


Tree=18
num_leaves=36
num_cat=0
split_feature=3 21 205 31 33 4 4 55 55 4 46 158 139 0 31 4 159 141 138 18 31 55 135 206 16 123 55 78 213 1 123 55 327 281 322
split_gain=685.893 307.345 227.48 135.975 134.283 114.813 108.648 81.528 70.3337 55.3143 48.0381 45.5548 45.2253 43.7073 39.3188 37.1715 37.0707 36.3206 35.8354 30.7448 29.4193 29.2604 21.5363 19.3603 17.9606 15.7585 15.4591 11.3558 9.32179 7.79537 6.27294 5.74172 5.60973 5.47002 3.70808
threshold=-49.997029440744022 -0.14698757068529797 0.98155826511049493 15.7814413285616 7.3626698177529581 3.5714297646917719 -47.917036601702854 -1.2308890817990095 -6.7677639619814176 -22.512854443331417 -0.96973817543226082 0.2401884777102046 0.66040668630046195 -78.18703276893568 1.0416491577356866 1.0000000180025095e-35 17.448716268801416 0.0097841700317882075 0.035120253520822417 -2.2109362622691164 -2.5754583134445066 -76.861420776950382 25.213650597436928 -373.90268105642474 -1.7809061602954881 -1.6224293677416382 24.22578640896651 0.086841251320000881 -1.570923411371896 0.91310164514197834 -7.4885379936925274 67.24163424294683 2.4509451024875963e-07 -197.49099828558766 4.4702801764241494e-07
decision_type=2 2 2 2 2 2 2 2 2 2 2 2 2 2 2 2 2 2 2 2 2 2 2 2 2 2 2 2 2 2 2 2 2 2 2
left_child=1 15 6 7 5 11 -3 27 12 31 16 17 23 -8 26 33 -5 32 21 -15 -17 -6 -13 -7 -16 -10 -11 -4 -21 -23 -31 -9 -2 -1 -32
right_child=4 2 3 10 18 8 13 9 25 14 -12 22 -14 19 24 20 -18 -19 -20 28 -22 29 -24 -25 -26 -27 -28 -29 -30 30 34 -33 -34 -35 -36
leaf_value=-0.038417131363204335 -0.033093321987850532 -0.03881837622618578 -0.090045704023184819 -0.053935935757640267 0.021603207172658415 0.015144753371746126 0 -0.081927774663732522 0.028535647488198052 -0.060577014063543558 0.052957949399686656 -0.015774574211651383 0.049318186717319454 0.020070149118955022 -0.0093667049159581288 -0.069191491750644249 0.018965201603742959 0.0037187875454184113 -0.0066815028930922371 0.033051318295934037 -0.0041209894056364361 0.022254925162553577 0.038375572190293916 -0.035631961500863597 0.040622396256997206 0.081609474792315062 -0.0069612668623905806 -0.040878574942357387 0.08706691716232802 0.029354739832356841 0.08455896893754504 -0.030693492347021369 -0.080992988734335261 -0.095974749957734584 0.02881388729920889
leaf_weight=72.530110992491245 122.74309910833836 178.91100499778986 415.52225407958031 103.42307206243277 159.02900383621454 102.18111634999514 161.06594812124968 129.85705114901066 129.23039630800486 102.93463002890348 161.69983875751495 114.23790174722672 147.47028893977404 185.67786499112844 104.20100771635771 153.09806606918573 133.74187926203012 114.18351525813341 60.753529712557793 98.190428413450718 133.59018939733505 60.678179852664471 134.3238699734211 164.02633107453585 143.88531685620546 273.37421133369207 125.8054723739624 138.74792809784412 247.82775783538818 72.39532071352005 634.04535211622715 93.999550797045231 110.56984886527061 653.51970564574003 55.044288106262684
leaf_count=407 512 859 2316 491 881 463 796 643 774 497 903 519 788 881 421 926 587 537 336 485 637 396 617 750 717 1919 590 692 1318 480 5631 449 462 4425 382
internal_value=-0.00500808 -0.0331382 -0.0140865 -0.0357766 0.0353868 0.0146979 0.0266744 -0.0517675 0.038729 -0.0272645 0.0140568 -0.018039 0.00827165 0.0445796 -0.00654398 -0.0791312 -0.0137807 -0.0405933 0.0623395 0.0579274 -0.0420483 0.0668977 0.0133573 -0.0156596 0.0196971 0.0674523 -0.0351761 -0.0801454 0.0752262 0.0746022 0.0777441 -0.0659745 -0.0616655 -0.0918177 0.0814491
internal_weight=5992.52 3538.23 2525.49 1653.82 2454.29 1412.34 871.673 1254.95 816.282 700.683 398.865 596.058 413.678 692.762 476.826 1012.74 237.165 347.496 1041.95 531.696 286.688 981.192 248.562 266.207 248.086 402.605 228.74 554.27 346.018 822.163 761.485 223.857 233.313 726.05 689.09
internal_count=34487 19040 12645 8306 15447 7341 4339 6325 4694 3317 1981 2647 2001 3480 2225 6395 1078 1511 8106 2684 1563 7770 1136 1213 1138 2693 1087 3008 1803 6889 6493 1092 974 4832 6013
is_linear=0
shrinkage=0.1


Tree=19
num_leaves=38
num_cat=0
split_feature=1 33 33 4 4 4 55 164 205 197 356 205 33 10 195 55 4 343 86 55 36 260 205 141 33 4 55 36 205 254 123 63 119 58 21 440 8
