tree
version=v4
num_class=1
num_tree_per_iteration=1
label_index=0
max_feature_idx=2506
objective=binary sigmoid:1
feature_names=frac_c_h5_diff voss_0 trendflex_dt cmma vwap_dt williams_r forecast_oscillator_mean20 frac_c_o1_diff_mean20 frac_c_l3_diff frac_c_l5_diff frac_l_c5_diff lg_ssm_0 fisher_dt frac_l_l5_diff frac_c_h1_diff_mean20 ehlers_early_onset_trend_ddt frac_c_h5_diff_lag1 frac_c_o3_diff vwap_dt_lag1 frac_c_h4_diff frac_c_c2_diff_mean20 frac_c_c4_diff frac_c_l4_diff frac_c_l1_diff_mean20 roofing_filter_ddt_lag1 frac_l_h3_diff frac_c_h2_diff_mean20 frac_c_o4_diff frac_c_o5_diff frac_h_l5_diff stc_dt frac_c_l2_diff_mean20 cwt_w64_14_dt frac_l_l1_diff_mean20 frac_c_l3_diff_mean20 lg_ssm_1 frac_o_h4_diff frac_l_l3_diff_mean20 cwt_w256_16_dt frac_c_c1_diff_mean20 frac_c_c3_diff_mean20 frac_c_o2_diff_mean20 frac_l_o5_diff_lag1 frac_l_h4_diff deep_ssm_2 vmd_w128_0 frac_h_c4_diff lg_ssm_3 frac_c_h3_diff frac_l_h5_diff frac_l_c4_diff fisher_dt_lag1 cwt_w32_15_dt roofing_filter_ddt frac_h_l1_diff_mean20 frac_h_l3_diff cmma_dt frac_h_h5_diff frac_c_c5_diff frac_l_l2_diff_mean20 evenbetter_sinewave_short_dt frac_h_l4_diff cwt_w64_15_dt frac_c_c3_diff frac_h_c5_diff frac_h_o4_diff frac_o_o4_diff frac_l_c2_diff_mean20 frac_l_o3_diff fisher cwt_w32_11_dt cwt_w32_14_dt frac_h_h1_diff_mean20 frac_l_l4_diff trendflex_dt_lag1 frac_h_o2_diff_mean20 frac_l_c3_diff_mean20 frac_l_o4_diff cwt_w256_14_dt frac_c_c4_diff_mean20 frac_o_h5_diff williams_r_lag1 cmma_dt_lag1 acc_swing_index_dt voss_0_dt frac_h_o5_diff frac_c_c4_diff_lag1 cwt_w64_13_dt cwt_w64_17_dt frac_l_o2_diff_mean20 frac_h_c2_diff_mean20 cwt_w64_16_dt_lag1 frac_c_o2_diff frac_c_l1_diff_mean20_lag1 cwt_w256_14_dt_lag1 frac_l_l5_diff_lag1 frac_c_o4_diff_lag1 frac_c_l4_diff_lag1 cwt_w128_17_dt_lag1 vmd_w64_0 cwt_w128_12_dt cwt_w64_16_dt vmd_w256_0_dt cwt_w32_17_dt frac_c_o4_diff_mean20 cmma_lag1 frac_l_h1_diff_mean20 frac_c_h3_diff_mean20 frac_o_l4_diff cwt_w32_12_dt frac_h_h4_diff_lag1 frac_c_h2_diff_mean20_lag1 frac_h_h3_diff frac_l_h5_diff_lag1 frac_l_o1_diff_mean20 frac_c_h4_diff_mean20 frac_o_c4_diff_mean20 frac_c_l5_diff_lag1 frac_h_l4_diff_mean20 frac_o_l2_diff_mean20 evenbetter_sinewave_short frac_l_h4_diff_mean20 frac_o_c3_diff_mean20 deep_ssm_1 forecast_oscillator_mean20_lag1 frac_c_h2_diff_lag1 cwt_w128_15_dt bandpass_0_dt frac_h_c5_diff_lag1 reactivity cwt_w32_13_dt frac_o_c5_diff cwt_w128_17_dt swamicharts_stochastic_3 frac_c_c5_diff_mean20 williams_r_dt frac_h_h2_diff_mean20 frac_h_o5_diff_lag1 frac_l_h3_diff_mean20 frac_c_h3_diff_lag1 swamicharts_stochastic_42_dt cwt_w256_12_dt frac_c_h1_diff_mean20_lag1 cwt_w256_13_dt_lag1 frac_l_h2_diff_mean20 cwt_w64_8_dt cwt_w128_11_dt frac_o_h3_diff_mean20 cwt_w32_14_dt_lag1 frac_h_o3_diff frac_l_l3_diff_lag1 frac_h_c1_diff_mean20 frac_c_h5_diff_mean20 cwt_w256_11_dt frac_c_o1_diff_mean20_lag1 frac_l_o3_diff_mean20 trendflex_ddt fisher_ddt swamicharts_stochastic_38_dt cwt_w256_15_dt_lag1 frac_h_h4_diff frac_h_h5_diff_lag1 swamicharts_stochastic_40_dt swamicharts_stochastic_25_dt frac_o_c2_diff_mean20 frac_h_o4_diff_lag1 frac_h_l3_diff_mean20 chaiken_money_flow_dt bandpass_1 frac_h_o1_diff_mean20_lag1 cwt_w256_7_dt_lag1 frac_l_o2_diff frac_c_l3_diff_lag1 cwt_w256_5_dt frac_c_l2_diff_mean20_lag1 swamicharts_stochastic_33_ddt cwt_w128_20_dt frac_c_l4_diff_lag2 swamicharts_stochastic_36_dt cwt_w32_9_dt_lag1 cwt_w256_8_dt frac_h_c1_diff_mean20_lag1 frac_l_l2_diff_mean20_lag1 frac_c_l4_diff_mean20 cwt_w256_6 frac_h_h3_diff_mean20 adaptive_cci_dt cwt_w128_6 mod_stochastic_ddt cwt_w256_20_dt swamicharts_stochastic_1 frac_c_h5_diff_lag2 frac_l_o4_diff_lag1 swamicharts_stochastic_6_dt evenbetter_sinewave_long_dt vmd_w256_1 swamicharts_stochastic_38_ddt frac_l_h4_diff_lag1 frac_l_c4_diff_mean20 frac_l_c3_diff frac_l_c5_diff_mean20 swamicharts_stochastic_17_ddt frac_c_h4_diff_lag2 cwt_w32_18_dt cwt_w256_13_dt frac_c_h4_diff_lag1 mod_stochastic_dt voss_0_dt_lag2 cwt_w64_17_dt_lag1 stc_dt_lag1 swamicharts_stochastic_39_dt vmd_w128_0_lag1 frac_o_o1_diff_mean20 swamicharts_stochastic_29_dt cwt_w256_6_dt frac_c_o3_diff_mean20 frac_c_c3_diff_mean20_lag1 cwt_w128_6_dt frac_o_c5_diff_lag1 cwt_w256_18_dt frac_l_o5_diff swamicharts_stochastic_12_ddt cwt_w128_8_dt cwt_w256_10_dt cwt_w128_12_dt_lag1 cwt_w64_6_dt frac_h_c3_diff cwt_w64_11_dt cwt_w32_6_dt_lag1 swamicharts_stochastic_0_dt lg_ssm_2 voss_1 voss_1_dt frac_h_l2_diff_mean20 swamicharts_stochastic_4_dt ehlers_early_onset_trend_dt swamicharts_stochastic_41_dt frac_c_c2_diff_mean20_lag1 vmd_w32_0 swamicharts_stochastic_21_ddt cwt_w64_15_dt_lag1 frac_c_l2_diff swamicharts_stochastic_2 acc_swing_index_dt_lag1 swamicharts_stochastic_27_ddt norm_on_balance_volume adaptive_stochastic_dt frac_h_o1_diff_mean20 frac_h_o2_diff cwt_w256_17_dt_lag1 cwt_w256_20_ddt vmd_w32_0_lag1 cwt_w128_16_dt frac_l_o2_diff_lag1 frac_l_l2_diff_lag1 cwt_w64_5 swamicharts_rsi_6_mean20_lag5 swamicharts_stochastic_35_dt cwt_w32_20_dt_lag1 swamicharts_stochastic_14_dt cwt_w32_6 frac_l_l3_diff frac_c_o2_diff_mean20_lag1 frac_c_l2_diff_lag1 cwt_w256_11_dt_lag1 forecast_oscillator_lag1 frac_h_l2_diff_mean20_lag1 frac_c_c3_diff_lag1 cwt_w64_13_ddt frac_c_o5_diff_lag1 cwt_w32_20_dt cwt_w128_10_dt swamicharts_stochastic_30_dt swamicharts_stochastic_28_dt frac_o_o2_diff_mean20 frac_l_l2_diff frac_h_l2_diff swamicharts_stochastic_8_dt cwt_w128_13_dt frac_c_c5_diff_lag1 cwt_w256_7_dt swamicharts_stochastic_24_dt swamicharts_stochastic_6 cwt_w32_8_dt cwt_w128_5_dt cwt_w32_16_dt bandpass_0 frac_c_c5_diff_ddt vmd_w256_0 swamicharts_stochastic_2_dt frac_c_l5_diff_mean20 bandpass_1_dt_lag1 swamicharts_stochastic_34_dt swamicharts_stochastic_17_dt cwt_w128_7_dt frac_h_l4_diff_lag1 frac_h_l1_diff_mean20_lag1 swamicharts_stochastic_37_dt cwt_w64_4_dt frac_o_o5_diff_lag1 swamicharts_stochastic_23_dt cwt_w64_5_dt cwt_w256_4_dt cwt_w32_6_ddt frac_h_h1_diff_mean20_lag1 frac_o_c4_diff frac_h_c3_diff_mean20 cwt_w256_17_dt frac_o_h5_diff_mean20 swamicharts_stochastic_15_ddt vmd_w64_2_mean20 frac_l_o4_diff_mean20 cwt_w32_14_ddt swamicharts_stochastic_31_dt cwt_w32_5_dt swamicharts_stochastic_22_dt cwt_w128_14_dt frac_o_h1_diff_mean20 swamicharts_stochastic_43_ddt cwt_w64_16_ddt swamicharts_stochastic_11 vmd_w64_0_lag1 vmd_w128_0_dt frac_h_c4_diff_mean20_lag1 frac_l_l4_diff_mean20 cwt_w128_7_dt_lag1 frac_l_h3_diff_lag1 frac_c_l4_diff_mean20_lag1 frac_h_h3_diff_lag1 frac_c_o1_diff_mean20_lag2 cwt_w64_18_dt frac_h_l5_diff_lag1 cwt_w128_9_dt frac_o_l3_diff_lag1 cwt_w256_15_dt frac_o_l5_diff bandpass_0_ddt cwt_w256_10_dt_lag1 frac_l_l4_diff_lag2 frac_c_o3_diff_lag1 cwt_w128_14_dt_lag1 williams_r_lag2 frac_l_c5_diff_lag1 frac_h_c4_diff_mean20 swamicharts_stochastic_41_dt_lag3 frac_o_l1_diff_mean20 frac_o_o4_diff_mean20 swamicharts_stochastic_25_dt_lag4 frac_c_c2_diff frac_h_l3_diff_lag1 ma_difference_dt swamicharts_stochastic_42_ddt cwt_w256_14_ddt cmma_lag2 frac_c_o2_diff_lag1 swamicharts_stochastic_13 trendflex_dt_lag2 frac_o_l3_diff_mean20 voss_0_lag1 frac_o_o4_diff_lag1 cwt_w256_1 swamicharts_stochastic_34_ddt cwt_w64_7 reactivity_mean20 frac_l_h3_diff_std20 frac_c_c2_diff_lag1 swamicharts_stochastic_42_dt_lag4 swamicharts_rsi_35_lag3 swamicharts_stochastic_28_ddt frac_c_h2_diff swamicharts_stochastic_6_dt_lag1 forecast_oscillator fisher_dt_lag4 frac_h_l5_diff_mean20 frac_o_h5_diff_lag1 roofing_filter_ddt_lag2 frac_h_c3_diff_mean20_lag1 swamicharts_stochastic_11_dt cwt_w256_1_ddt cwt_w64_14_ddt frac_h_h4_diff_mean20 cwt_w64_14_ddt_lag2 frac_c_c4_diff_mean20_lag1 swamicharts_stochastic_42_dt_lag1 frac_h_c2_diff_mean20_lag1 adx_7_dt cwt_w64_1 aroon_diff trendflex_ddt_lag1 frac_l_c2_diff cwt_w128_17_ddt cwt_w128_14_ddt frac_c_c4_diff_lag2 voss_0_lag5 swamicharts_stochastic_4 frac_l_h1_diff_lag1 cwt_w256_13_ddt_lag1 cwt_w32_17_dt_lag1 trendflex swamicharts_stochastic_32_dt swamicharts_stochastic_6_lag1 cwt_w32_20_ddt frac_l_h5_diff_curv20 swamicharts_stochastic_43_dt swamicharts_stochastic_1_lag1 swamicharts_stochastic_29_dt_lag1 swamicharts_stochastic_14 swamicharts_stochastic_1_dt_lag1 frac_l_c1_diff_mean20 swamicharts_stochastic_39_ddt amihud_lambda_lag4 cwt_w128_11_dt_lag1 frac_o_c5_diff_mean20 swamicharts_stochastic_16_dt adaptive_rsi_dt_lag1 bandpass_1_lag1 frac_c_h3_diff_lag2 cmma_dt_lag2 cwt_w64_5_lag1 cwt_w256_6_dt_lag1 cwt_w128_16_dt_lag1 cwt_w128_4_dt evenbetter_sinewave_long frac_l_o1_diff_lag1 frac_c_h2_diff_mean20_lag2 bandpass_0_lag1 swamicharts_stochastic_38 frac_o_c3_diff frac_o_l3_diff frac_c_l5_diff_mean20_lag1 swamicharts_stochastic_13_ddt cwt_w32_7_dt_lag1 cwt_w128_6_ddt swamicharts_stochastic_10_dt stc adaptive_rsi_curv20_lag4 swamicharts_stochastic_9_dt_lag1 cwt_w128_20_dt_lag1 cwt_w64_1_dt cwt_w256_13_ddt cwt_w64_15_ddt cwt_w128_13_ddt frac_l_h3_diff_mean20_lag1 adx_14_std20_lag2 cwt_w64_12_dt_lag1 swamicharts_stochastic_26_ddt frac_c_o4_diff_lag2 frac_h_h2_diff frac_h_c4_diff_lag2 frac_c_o1_diff_lag1 frac_c_o1_diff swamicharts_stochastic_2_ddt frac_c_c1_diff frac_o_l5_diff_lag1 cwt_w32_11_dt_lag1 frac_h_h3_diff_mean20_lag1 bandpass_0_dt_lag1 fisher_ddt_lag1 frac_o_l1_diff_dt_lag1 cwt_w32_1_dt swamicharts_stochastic_19_dt cwt_w256_17_dt_lag2 frac_c_h2_diff_lag2 cwt_w128_1_ddt conv_40_phent20 cwt_w64_12_dt cwt_w256_17_dt_lag4 swamicharts_stochastic_8_lag3 frac_h_h5_diff_mean20 voss_1_dt_lag5 swamicharts_stochastic_8_dt_lag4 swamicharts_stochastic_22_dt_lag3 frac_h_o3_diff_mean20 deep_ssm_4 mod_rsi swamicharts_stochastic_36_ddt frac_l_o2_diff_std20_lag1 frac_l_h5_diff_mean20 cwt_w64_6 swamicharts_stochastic_7_lag4 frac_c_l3_diff_mean20_lag2 swamicharts_rsi_7_mean20_lag5 cwt_w32_6_dt frac_l_c4_diff_lag1 bandpass_0_ddt_lag1 frac_c_o3_diff_lag2 swamicharts_stochastic_12_dt swamicharts_stochastic_23_dt_lag4 swamicharts_stochastic_26_dt williams_r_dt_lag2 cwt_w128_5_ddt frac_c_h1_diff_lag1 frac_o_h3_diff_lag1 frac_h_l5_diff_mean20_lag1 frac_o_l1_diff_mean20_lag1 swamicharts_stochastic_26_dt_lag2 fti_0_lag3 cwt_w32_0 frac_c_o2_diff_mean20_lag2 swamicharts_stochastic_18_dt swamicharts_stochastic_40_ddt_lag5 frac_l_o3_diff_lag1 fisher_lag1 frac_o_l2_diff_mean20_lag1 frac_o_c2_diff_lag1 vwap_dt_lag2 frac_h_l2_diff_mean20_lag2 cwt_w32_13_dt_lag5 cwt_w64_9_dt cwt_w32_5 trendflex_dt_lag3 cwt_w64_20_dt swamicharts_stochastic_1_lag2 cwt_w64_7_dt cwt_w128_11_dt_lag2 forecast_oscillator_std20 ac_44_mean20_lag5 frac_l_l5_diff_mean20 swamicharts_stochastic_41_ddt_lag5 comb_spectrum_9_std20 cwt_w256_16_phent20 frac_h_l2_diff_mean20_lag5 frac_l_c2_diff_lag1 acp_pwr_3_mean20_lag3 frac_l_c1_diff_mean20_lag1 comb_spectrum_39_lag2 frac_o_h3_diff_std20 cwt_w128_1_std20_lag3 swamicharts_stochastic_24_dt_lag1 aroon_diff_dt fti_0_lag2 cwt_w32_14_dt_lag4 frac_h_o4_diff_mean20_lag1 cwt_w256_11_lag3 frac_l_o5_diff_mean20 swamicharts_stochastic_27_dt_lag2 cwt_w32_2 swamicharts_stochastic_1_dt_lag5 swamicharts_stochastic_40_dt_lag3 vmd_w64_1_lag1 dft_13_mean20_lag4 cwt_w256_7_ddt cwt_w32_8_dt_lag1 adx_7_dt_lag1 frac_l_h2_diff swamicharts_stochastic_18_lag1 cwt_w32_7_dt ac_2_mean20_lag1 swamicharts_stochastic_6_dt_lag5 homodyne_lag2 frac_o_c3_diff_lag3 ac_2_mean20_lag5 swamicharts_stochastic_20_dt cwt_w256_14 ac_36_std20_lag5 cwt_w128_13_dt_lag1 adx_14_dt frac_l_c3_diff_lag1 swamicharts_rsi_5_mean20_lag4 frac_l_o2_diff_std20 swamicharts_stochastic_23 frac_h_l1_diff_mean20_lag3 frac_l_h2_diff_lag1 conv_8_std20_lag2 swamicharts_rsi_6_mean20_lag3 voss_1_lag1 conv_2_dt swamicharts_stochastic_11_dt_lag1 swamicharts_stochastic_24_ddt swamicharts_stochastic_5_lag1 cmma_lag3 frac_h_l2_diff_std20_lag4 acc_swing_index_curv20_lag4 ac_23_std20_lag3 swamicharts_stochastic_0 swamicharts_stochastic_6_hurst20_lag4 adaptive_bp_0_mean20_lag1 frac_o_c3_diff_mean20_lag1 vmd_w32_1_curv20_lag4 comb_spectrum_19_lag2 cwt_w256_8_dt_lag1 comb_spectrum_3_curv20 swamicharts_stochastic_8 swamicharts_stochastic_37_dt_lag1 conv_0 cwt_w256_8_ddt cwt_w256_0_ddt frac_l_h1_diff_dt trendflex_dt_lag4 swamicharts_stochastic_26_dt_lag3 cwt_w128_11_lag1 frac_h_l1_diff frac_l_l4_diff_lag1 frac_c_h2_diff_curv20_lag4 swamicharts_stochastic_0_lag2 cwt_w128_7_ddt swamicharts_stochastic_7_dt cwt_w32_10_dt swamicharts_stochastic_1_dt cwt_w128_20_ddt frac_l_c4_diff_lag2 frac_c_o4_diff_mean20_lag1 cwt_w32_13_curv20_lag3 chaiken_money_flow_lag1 ac_0_lag1 cwt_w256_20_dt_lag2 frac_l_c5_diff_lag4 cwt_w64_6_dt_lag1 swamicharts_stochastic_37_lag5 frac_c_h5_diff_lag4 swamicharts_stochastic_22_ddt_lag1 frac_l_c4_diff_mean20_lag1 cwt_w256_3_dt cwt_w64_19_dt_lag2 frac_o_h5_diff_lag4 evenbetter_sinewave_short_lag1 frac_c_h3_diff_mean20_lag1 cwt_w64_11_ddt frac_c_c1_diff_hurst20_lag1 approximate_entropy_w128_array_dt_lag1 dft_30_hurst20_lag5 swamicharts_stochastic_36_dt_lag4 frac_l_o5_diff_mean20_lag1 swamicharts_stochastic_34_lag2 swamicharts_stochastic_30_lag1 hurst_coef_fast cwt_w256_12_dt_lag1 swamicharts_stochastic_29_lag2 cwt_w256_6_lag2 cwt_w64_14_std20 bar_duration_mean20_lag3 ac_1_lag2 swamicharts_stochastic_39_lag3 aroon_diff_lag2 frac_l_h1_diff_std20 comb_spectrum_16_lag3 cwt_w64_12_ddt dft_27_curv20 frac_h_h3_diff_dt_lag1 frac_h_o1_diff_mean20_lag2 swamicharts_rsi_1_phent20 swamicharts_stochastic_23_lag4 adaptive_rsi_dt cwt_w256_20_dt_lag4 frac_h_o3_diff_mean20_lag1 roll_measure_curv20_lag3 cwt_w128_5 comb_spectrum_39_mean20_lag4 cwt_w64_13_std20_lag1 vmd_w128_0_dt_lag1 swamicharts_stochastic_26_curv20_lag5 mod_stochastic_dt_lag1 fisher_lag3 frac_o_l1_diff_std20 bekker_parkinson_vol_hurst20_lag3 cwt_w256_4_dt_lag1 swamicharts_rsi_1_dt conv_39_phent20 frac_h_l4_diff_mean20_lag1 adaptive_bp_1_mean20_lag2 frac_l_o3_diff_std20_lag1 frac_o_l4_diff_lag1 bandpass_0_lag2 reactivity_mean20_lag3 cwt_w64_1_lag1 frac_l_l2_diff_curv20 swamicharts_rsi_16_lag1 swamicharts_rsi_11_mean20_lag4 reactivity_mean20_lag1 bar_duration adx_14_std20 cwt_w256_15_lag5 fisher_mean20 acp_pwr_35_ddt_lag3 frac_l_h4_diff_lag2 trendflex_lag3 cwt_w256_16_lag4 frac_h_o3_diff_lag1 cwt_w128_0_std20_lag5 stc_dt_lag2 swamicharts_stochastic_16 forecast_oscillator_lag3 comb_spectrum_7_mean20_lag5 fisher_ddt_lag2 comb_spectrum_25_curv20_lag3 adaptive_stochastic vmd_w32_0_mean20 swamicharts_stochastic_43_lag5 ac_24_ddt frac_o_c4_diff_std20_lag1 frac_l_h2_diff_mean20_lag4 cwt_w256_5_lag1 cwt_w256_14_ddt_lag2 adaptive_bp_0_dt_lag1 cwt_w32_17_dt_lag2 comb_spectrum_36_std20_lag3 frac_c_h4_diff_curv20_lag4 frac_h_c5_diff_mean20 comb_spectrum_39_lag1 voss_1_mean20_lag3 frac_h_l1_diff_lag1 comb_spectrum_39_std20 cwt_w256_6_ddt cwt_w32_8_ddt frac_h_o5_diff_dt swamicharts_stochastic_3_lag3 dft_22_curv20_lag1 swamicharts_rsi_33_ddt_lag2 swamicharts_stochastic_30_ddt_lag3 frac_o_l3_diff_lag4 cmma_curv20_lag4 frac_h_h2_diff_std20_lag1 cwt_w64_16_curv20_lag4 fti_0_mean20_lag1 frac_h_l3_diff_mean20_lag3 swamicharts_stochastic_21_lag1 evenbetter_sinewave_short_std20 swamicharts_stochastic_5_dt swamicharts_stochastic_39_dt_lag2 cwt_w32_3_lag5 vmd_w64_2_lag2 ac_36_ddt_lag5 conv_41_mean20_lag3 swamicharts_rsi_38_std20_lag1 cwt_w32_14_ddt_lag1 ehlers_early_onset_trend_curv20 vmd_w128_0_mean20_lag3 reactivity_mean20_lag5 frac_c_o5_diff_lag2 frac_h_l3_diff_mean20_lag1 conv_43_mean20_lag3 ac_0_ddt swamicharts_stochastic_2_dt_lag4 vmd_w64_2_hurst20 swamicharts_stochastic_7_dt_lag3 frac_c_h3_diff_dt_lag3 swamicharts_stochastic_34_dt_lag5 ac_32_phent20 swamicharts_stochastic_1_curv20 frac_l_h5_diff_curv20_lag1 frac_o_o4_diff_mean20_lag1 cwt_w64_19_ddt comb_spectrum_17_lag4 cwt_w64_1_ddt dft_17_ddt_lag3 ac_26_curv20_lag2 cwt_w256_13_dt_lag2 voss_1_lag2 frac_o_o3_diff_mean20 mod_rsi_dt_lag1 frac_h_h4_diff_mean20_lag4 approximate_entropy_w256_array_std20_lag4 frac_h_o4_diff_mean20 frac_h_h1_diff_lag1 swamicharts_stochastic_43_lag1 dft_21_phent20 swamicharts_stochastic_27_lag1 frac_o_h3_diff cwt_w128_13 cwt_w128_12_ddt_lag1 frac_l_c4_diff_std20_lag3 cwt_w64_5_dt_lag1 frac_c_c5_diff_curv20_lag5 swamicharts_stochastic_9_dt frac_o_o2_diff_curv20_lag2 williams_r_std20 comb_spectrum_38_mean20_lag2 cwt_w64_14_dt_lag1 ac_33_dt_lag2 cwt_w128_11_ddt_lag5 ac_4_lag3 frac_o_c5_diff_mean20_lag1 ehlers_early_onset_trend cwt_w256_1_std20 acp_pwr_30_hurst20_lag4 ac_17_curv20_lag3 comb_spectrum_38_lag5 vmd_w256_1_mean20_lag4 dft_35_hurst20_lag4 swamicharts_stochastic_36_ddt_lag1 frac_o_h4_diff_mean20 frac_c_o2_diff_lag2 swamicharts_stochastic_24_ddt_lag2 cwt_w64_13_ddt_lag1 frac_l_l3_diff_curv20 comb_spectrum_34_lag1 cwt_w64_14_ddt_lag1 comb_spectrum_30_mean20 vwap_dt_lag5 price_variance_ratio_curv20_lag2 frac_c_h5_diff_lag3 frac_l_l4_diff_lag5 ac_21_lag1 ac_2_lag1 cwt_w128_14_ddt_lag2 adx_7_lag5 comb_spectrum_26_std20_lag3 dft_3_lag2 natr_mean20 frac_o_h1_diff_ddt cwt_w64_16_dt_lag4 frac_c_h2_diff_dt_lag4 adaptive_cci_ddt acp_pwr_32_mean20_lag4 cwt_w128_19 swamicharts_rsi_32_std20 conv_22_hurst20 conv_37_std20_lag3 cwt_w32_16_dt_lag1 aroon_diff_mean20_lag1 bekker_parkinson_vol_mean20_lag5 conv_0_dt voss_0_dt_lag1 frac_l_o3_diff_std20_lag5 cwt_w256_15_curv20_lag3 frac_h_l3_diff_curv20 comb_spectrum_15_lag4 evenbetter_sinewave_short_std20_lag2 swamicharts_stochastic_8_lag1 adaptive_bp_0_mean20_lag4 conv_44_std20_lag2 swamicharts_rsi_10_mean20_lag3 swamicharts_stochastic_23_mean20_lag1 dft_35_ddt pfe_curv20_lag5 frac_l_h4_diff_mean20_lag2 comb_spectrum_15 cwt_w128_18_dt_lag2 voss_1_hurst20_lag2 swamicharts_rsi_37_mean20_lag3 cwt_w256_12_ddt reactivity_lag5 evenbetter_sinewave_long_lag3 comb_spectrum_4_dt_lag2 fti_0_mean20 swamicharts_rsi_36_ddt_lag4 cwt_w256_2_lag1 swamicharts_rsi_15 frac_c_l2_diff_std20_lag5 cwt_w64_15_mean20_lag2 cwt_w256_1_dt_lag1 vmd_w32_2_curv20_lag2 trendflex_mean20_lag5 evenbetter_sinewave_short_mean20_lag2 cwt_w256_10_ddt_lag2 sample_entropy_w128_array_curv20_lag1 frac_h_l1_diff_std20 frac_c_c1_diff_mean20_lag1 frac_l_c1_diff_dt frac_c_l1_diff_curv20 sample_entropy_w256_spot_curv20_lag5 acp_pwr_35_lag1 frac_o_o3_diff_mean20_lag1 comb_spectrum_33_lag1 ac_3_lag3 frac_c_h2_diff_dt cwt_w128_17_dt_lag5 swamicharts_rsi_16_curv20 ac_2_lag2 evenbetter_sinewave_short_lag3 cwt_w256_13_dt_lag5 ac_14_hurst20_lag4 reactivity_dt price_variance_ratio_curv20 chaiken_money_flow frac_c_o5_diff_mean20 swamicharts_stochastic_10_curv20_lag4 fti_0_lag5 frac_o_c4_diff_lag1 vmd_w32_2_dt_lag2 swamicharts_rsi_43_ddt_lag2 swamicharts_stochastic_34_lag4 swamicharts_rsi_16 cwt_w64_20_dt_lag1 cwt_w128_10_std20 adaptive_rsi_lag5 phase_accumulation_dt_lag2 swamicharts_stochastic_10 voss_0_lag2 swamicharts_stochastic_20_std20_lag3 pfe_std20_lag1 comb_spectrum_8_mean20_lag5 cwt_w128_17_dt_lag3 swamicharts_stochastic_19_lag1 cwt_w64_13_dt_lag1 frac_c_c4_diff_lag4 comb_spectrum_12_std20 swamicharts_stochastic_9_ddt comb_spectrum_28_curv20_lag3 swamicharts_stochastic_29_curv20_lag3 swamicharts_stochastic_1_lag3 vmd_w64_2_std20_lag3 comb_spectrum_10_curv20_lag3 cwt_w256_15_dt_lag4 forecast_oscillator_std20_lag3 conv_2_dt_lag1 ac_23_mean20_lag1 conv_30_std20 swamicharts_rsi_29_curv20_lag1 comb_spectrum_24_curv20_lag4 acp_pwr_12_lag4 swamicharts_stochastic_42 chaiken_money_flow_curv20_lag2 ac_24_lag3 cwt_w64_12_phent20 swamicharts_rsi_18 cwt_w32_15_mean20_lag3 frac_o_o1_diff_dt_lag4 frac_h_h4_diff_mean20_lag1 cwt_w64_18_lag1 ac_2_lag3 acc_swing_index_curv20_lag5 frac_h_h5_diff_std20_lag3 acp_pwr_33_std20 frac_l_o3_diff_mean20_lag1 swamicharts_stochastic_34_dt_lag1 adx_14_std20_lag5 ma_difference_lag4 ac_1_lag4 frac_h_c4_diff_mean20_lag3 swamicharts_stochastic_0_ddt adaptive_rsi_lag2 fisher_dt_lag2 frac_c_o4_diff_dt frac_l_c3_diff_std20_lag5 swamicharts_rsi_2_hurst20 swamicharts_rsi_27_ddt_lag1 ac_27_lag4 phase_accumulation_std20_lag2 ac_26_mean20_lag2 cwt_w256_10_std20_lag5 conv_34_mean20_lag5 swamicharts_stochastic_40_ddt conv_38_lag1 swamicharts_stochastic_20_ddt_lag1 frac_o_o2_diff_mean20_lag1 natr_dt cwt_w128_11_dt_lag3 sample_entropy_w256_spot_dt_lag3 conv_43_curv20_lag5 conv_40_ddt_lag1 cwt_w64_1_lag5 cwt_w128_14_std20_lag2 ac_41_lag5 ac_4_lag1 ac_14_curv20 acp_pwr_31_mean20_lag2 frac_o_h4_diff_lag1 frac_l_o2_diff_dt_lag2 swamicharts_stochastic_35_dt_lag4 frac_h_o4_diff_mean20_lag5 comb_spectrum_31_curv20_lag4 swamicharts_rsi_1 cwt_w128_11_std20_lag3 cwt_w128_8 cwt_w32_10_curv20 dft_25_ddt cwt_w128_20_std20 conv_42_phent20 approximate_entropy_w256_spot_std20_lag4 frac_c_o4_diff_std20 cwt_w64_1_dt_lag1 fisher_std20_lag2 ac_8_curv20_lag4 swamicharts_stochastic_37_dt_lag3 ac_26 conv_39_mean20_lag1 approximate_entropy_w64_spot_lag4 dft_0_curv20_lag2 comb_spectrum_31_dt_lag3 frac_l_l1_diff_mean20_lag1 evenbetter_sinewave_short_dt_lag2 reactivity_lag1 frac_l_o1_diff comb_spectrum_1_curv20_lag5 cwt_w128_12_ddt cwt_w64_18_mean20_lag1 frac_h_o2_diff_std20_lag3 frac_h_c2_diff swamicharts_stochastic_13_mean20_lag3 conv_41_ddt_lag5 frac_h_o3_diff_lag2 dft_31_hurst20_lag4 swamicharts_stochastic_12_lag3 comb_spectrum_39_ddt swamicharts_rsi_6_dt swamicharts_rsi_17_lag4 comb_spectrum_17_dt_lag1 comb_spectrum_32_curv20_lag3 acp_pwr_36_lag4 frac_o_h2_diff_ddt_lag2 swamicharts_rsi_31 swamicharts_rsi_39_std20_lag2 swamicharts_stochastic_27_dt dft_28_ddt_lag4 ac_8_hurst20_lag4 cmma_lag5 cwt_w256_1_curv20_lag1 frac_o_l3_diff_mean20_lag1 frac_l_l3_diff_std20_lag3 conv_19_curv20 swamicharts_rsi_3_lag5 conv_39_std20_lag5 cwt_w256_12_lag5 frac_l_o2_diff_curv20_lag2 ac_43_mean20 swamicharts_rsi_25_mean20_lag5 dft_15_std20_lag3 frac_o_l4_diff_lag5 evenbetter_sinewave_long_mean20 swamicharts_stochastic_23_mean20_lag3 swamicharts_rsi_42_std20 williams_r_curv20_lag5 frac_l_h5_diff_std20_lag1 hurst_coef_slow_std20 frac_c_h4_diff_std20_lag4 frac_c_h3_diff_lag4 frac_l_l2_diff_curv20_lag2 conv_30_lag1 vmd_w256_2_mean20 cwt_w256_7_std20_lag2 frac_c_l5_diff_mean20_lag2 homodyne_dt_lag2 cwt_w32_7_std20_lag2 acp_pwr_37_lag4 frac_c_h2_diff_dt_lag1 evenbetter_sinewave_long_dt_lag2 swamicharts_stochastic_21_lag2 swamicharts_stochastic_0_ddt_lag3 swamicharts_stochastic_5 cwt_w128_18_dt ac_44_mean20_lag3 swamicharts_rsi_7_mean20_lag1 cwt_w32_14_curv20_lag4 swamicharts_stochastic_28_curv20_lag2 change_variance_ratio_dt frac_o_c2_diff frac_l_l4_diff_curv20 dft_8 swamicharts_rsi_21_hurst20_lag3 conv_8_curv20_lag2 frac_o_o1_diff_ddt cmma_ddt_lag5 conv_8_curv20_lag3 ac_7_std20_lag1 swamicharts_rsi_36_dt_lag3 hasbrouck_lambda_std20_lag4 dft_15_lag1 roofing_filter_dt frac_h_h2_diff_std20 comb_spectrum_7_std20 ac_32_std20_lag3 conv_23_dt_lag2 approximate_entropy_w32_array_std20_lag5 cwt_w32_14_curv20 frac_l_h4_diff_mean20_lag4 frac_o_o5_diff_lag3 bandpass_1_dt_lag4 cwt_w32_19_lag2 frac_c_c2_diff_std20_lag2 swamicharts_stochastic_22_dt_lag1 swamicharts_stochastic_25_lag4 frac_l_o1_diff_mean20_lag3 swamicharts_rsi_40_hurst20_lag5 comb_spectrum_8_mean20_lag4 ac_5_mean20_lag5 swamicharts_rsi_7 dft_8_std20_lag5 comb_spectrum_28_dt_lag1 frac_l_o5_diff_dt ac_45_lag1 frac_o_h4_diff_std20_lag2 cwt_w256_12_hurst20_lag5 cwt_w256_8 frac_c_l1_diff_lag3 cwt_w32_20_dt_lag2 swamicharts_stochastic_41_lag3 comb_spectrum_27_hurst20_lag5 mod_stochastic_ddt_lag5 swamicharts_stochastic_7 adaptive_bp_0_curv20_lag1 homodyne_std20_lag5 swamicharts_stochastic_40_mean20 conv_36_std20_lag5 cwt_w32_5_ddt frac_o_h4_diff_mean20_lag2 cwt_w64_8_lag4 cwt_w256_10_std20_lag4 comb_spectrum_36_lag4 frac_l_o3_diff_curv20_lag5 frac_l_c5_diff_std20_lag5 cwt_w128_14_ddt_lag1 ac_6_mean20_lag5 cwt_w128_8_ddt swamicharts_rsi_20_std20_lag4 acp_pwr_33_mean20_lag1 sample_entropy_w128_array_std20_lag3 swamicharts_stochastic_39_dt_lag4 cwt_w256_19_curv20_lag3 frac_c_h4_diff_mean20_lag2 cwt_w32_13_std20_lag5 cwt_w64_2_std20_lag3 swamicharts_stochastic_3_dt voss_0_mean20_lag5 vmd_w128_0_mean20_lag2 swamicharts_stochastic_16_dt_lag1 cwt_w64_7_ddt_lag2 acp_pwr_8_mean20_lag2 frac_l_l3_diff_mean20_lag1 swamicharts_rsi_4 ma_difference_hurst20_lag3 ac_23_dt_lag5 frac_l_h1_diff comb_spectrum_30_dt_lag5 ac_3_std20 cwt_w256_4_std20 change_variance_ratio_dt_lag2 swamicharts_rsi_21_lag5 cwt_w128_9_std20 cwt_w256_0_mean20_lag5 ac_4_lag2 comb_spectrum_38 vmd_w32_0_curv20_lag2 vmd_w256_2_ddt_lag3 comb_spectrum_38_mean20_lag3 swamicharts_rsi_43_mean20 frac_c_l5_diff_dt swamicharts_stochastic_14_ddt frac_h_o3_diff_curv20_lag4 frac_l_o4_diff_hurst20_lag3 cwt_w128_5_lag1 frac_c_h5_diff_hurst20_lag1 swamicharts_stochastic_16_ddt dual_diff_mean20 ac_20_mean20_lag1 amihud_lambda_lag1 frac_o_h3_diff_dt_lag2 acp_pwr_21_mean20_lag1 swamicharts_stochastic_20_ddt frac_o_h3_diff_mean20_lag2 swamicharts_rsi_0_curv20_lag4 ac_36_mean20_lag3 reactivity_lag4 conv_44_mean20_lag5 acp_pwr_17_mean20_lag5 ac_25_std20_lag4 frac_l_o3_diff_std20_lag3 swamicharts_rsi_16_phent20 swamicharts_rsi_7_mean20_lag4 frac_o_l1_diff_std20_lag2 swamicharts_rsi_32_std20_lag5 swamicharts_rsi_11_dt_lag5 ac_39_lag2 swamicharts_rsi_1_curv20_lag1 conv_36_mean20_lag5 frac_c_l1_diff frac_l_h5_diff_std20_lag2 frac_o_l3_diff_std20_lag3 ehlers_early_onset_trend_phent20 comb_spectrum_12_dt_lag5 hasbrouck_lambda_mean20_lag3 swamicharts_rsi_20_ddt_lag4 ac_42_lag5 swamicharts_stochastic_17_curv20_lag5 frac_h_c3_diff_lag1 acp_pwr_15_dt_lag1 swamicharts_stochastic_21_dt dft_20_phent20 acp_pwr_17_lag5 frac_c_c1_diff_dt_lag3 cwt_w256_0_dt comb_spectrum_36_mean20_lag1 swamicharts_stochastic_22_dt_lag2 comb_spectrum_19_mean20_lag5 comb_spectrum_10_curv20_lag1 swamicharts_stochastic_36 frac_c_l1_diff_curv20_lag1 hurst_coef_slow_curv20_lag1 conv_45_phent20 frac_h_c2_diff_curv20_lag2 swamicharts_stochastic_39 pfe_curv20_lag4 corwin_schultz_estimator_dt swamicharts_stochastic_36_mean20_lag1 swamicharts_stochastic_3_ddt_lag1 swamicharts_stochastic_7_dt_lag1 ac_38_hurst20_lag3 swamicharts_stochastic_15_dt acp_pwr_18_mean20_lag3 hurst_coef_fast_ddt swamicharts_rsi_15_mean20 comb_spectrum_18_lag2 frac_h_c5_diff_curv20_lag2 comb_spectrum_32_std20_lag4 comb_spectrum_34_mean20_lag1 ac_34_lag4 swamicharts_rsi_39_dt_lag3 cwt_w128_7_curv20 swamicharts_rsi_0_hurst20 bandpass_1_curv20_lag2 adaptive_cci acp_pwr_15_lag4 cwt_w32_20_std20_lag4 comb_spectrum_12_dt_lag1 cwt_w128_7_std20_lag1 corwin_schultz_estimator_lag3 frac_o_c3_diff_dt_lag3 approximate_entropy_w32_spot_curv20_lag1 swamicharts_rsi_40_ddt_lag1 ac_10_lag4 roll_impact_mean20_lag2 ac_36_curv20_lag5 cwt_w128_10_dt_lag2 ac_3_mean20_lag4 swamicharts_stochastic_33_dt ac_2 frac_o_l5_diff_std20_lag5 cwt_w256_16_dt_lag2 evenbetter_sinewave_short_mean20_lag4 ac_3_lag1 comb_spectrum_16_ddt_lag1 swamicharts_stochastic_27_curv20_lag5 ac_43_std20_lag5 dft_27_hurst20_lag5 comb_spectrum_6_mean20_lag5 acp_pwr_14_curv20_lag1 stc_phent20 cwt_w32_18_std20_lag2 frac_o_l4_diff_dt_lag2 ac_33_std20_lag3 hasbrouck_lambda_dt_lag3 frac_l_c4_diff_curv20_lag1 dft_16_mean20 frac_h_o1_diff_curv20_lag5 frac_l_h1_diff_hurst20_lag1 price_change_oscillator_mean20 frac_l_h3_diff_std20_lag1 cwt_w32_12_ddt ac_45_mean20_lag3 entropy_for_jesse_curv20_lag3 ac_19_mean20_lag2 swamicharts_rsi_19_std20 comb_spectrum_3_std20_lag1 acp_pwr_21_ddt_lag3 swamicharts_stochastic_28_dt_lag2 frac_l_c4_diff_curv20_lag5 swamicharts_stochastic_31_mean20_lag4 dft_36_hurst20_lag3 frac_l_c1_diff_mean20_lag3 frac_o_c1_diff_std20 norm_on_balance_volume_lag1 conv_32_mean20_lag4 bekker_parkinson_vol_ddt deep_ssm_3 dft_8_lag2 swamicharts_stochastic_4_lag1 swamicharts_rsi_1_mean20_lag5 frac_c_l4_diff_dt cwt_w128_8_curv20 frac_h_l2_diff_curv20_lag5 comb_spectrum_32_curv20_lag4 swamicharts_stochastic_6_lag5 swamicharts_rsi_20_std20_lag5 conv_30_ddt_lag1 cwt_w64_4_std20 conv_5_curv20 dft_4_hurst20 comb_spectrum_21 conv_15_dt acp_pwr_15_mean20_lag3 natr_ddt frac_o_l1_diff dft_30_std20_lag5 cwt_w32_3_ddt frac_c_l2_diff_curv20_lag1 cwt_w128_8_dt_lag3 conv_41_std20_lag3 conv_22_curv20_lag4 frac_l_l2_diff_std20 ac_23_std20_lag1 approximate_entropy_w128_array_lag2 frac_c_h5_diff_mean20_lag4 conv_38_mean20_lag4 swamicharts_stochastic_25_dt_lag2 adx_14_lag2 cwt_w128_12_ddt_lag2 acp_pwr_20_curv20_lag2 frac_c_h5_diff_curv20_lag3 dft_9_mean20_lag3 approximate_entropy_w128_array_curv20_lag3 ac_7_mean20_lag5 cwt_w32_2_mean20 dft_34_hurst20_lag3 swamicharts_rsi_1_std20_lag5 swamicharts_rsi_11_mean20_lag5 comb_spectrum_14_lag2 mod_rsi_dt_lag2 ac_27_mean20_lag4 trendflex_mean20_lag1 forecast_oscillator_mean20_lag2 conv_37_std20_lag4 swamicharts_stochastic_20_std20_lag2 ac_29_std20_lag2 dft_10_mean20_lag3 swamicharts_rsi_2_lag3 dft_3_std20_lag2 comb_spectrum_38_hurst20 comb_spectrum_11_mean20_lag4 frac_l_h3_diff_curv20_lag4 swamicharts_rsi_26_curv20_lag1 frac_o_c2_diff_mean20_lag1 conv_42_std20_lag2 comb_spectrum_36_mean20_lag4 ac_33_hurst20_lag2 hasbrouck_lambda_mean20_lag4 ac_35_curv20_lag3 comb_spectrum_39_mean20_lag2 cwt_w128_15_curv20_lag4 conv_3_ddt_lag5 swamicharts_rsi_6_curv20 frac_l_o3_diff_mean20_lag2 frac_o_o5_diff frac_c_c1_diff_mean20_lag3 cwt_w64_19_ddt_lag2 cwt_w64_16_phent20 frac_o_l3_diff_curv20_lag2 swamicharts_rsi_14_mean20_lag1 swamicharts_stochastic_39_mean20_lag2 entropy_for_jesse_hurst20_lag3 comb_spectrum_12_ddt_lag4 ac_0_mean20_lag4 vmd_w64_2_mean20_lag5 comb_spectrum_8_hurst20_lag5 swamicharts_rsi_1_hurst20_lag1 frac_l_c3_diff_mean20_lag3 swamicharts_stochastic_16_dt_lag2 vwap_dt_lag3 swamicharts_stochastic_40_curv20_lag3 frac_l_o1_diff_ddt_lag4 cwt_w32_0_std20_lag5 conv_40_mean20 frac_o_h4_diff_mean20_lag1 swamicharts_stochastic_21_mean20_lag3 conv_29_lag4 cwt_w64_17_lag3 swamicharts_rsi_5_dt_lag1 ac_3_mean20_lag3 ac_25_phent20 acp_pwr_22_curv20_lag1 conv_14_lag4 comb_spectrum_31_curv20_lag3 cwt_w32_13_mean20_lag5 conv_42_std20_lag3 cwt_w256_3_hurst20_lag1 adaptive_rsi_lag1 comb_spectrum_35_ddt_lag5 hasbrouck_lambda_curv20_lag5 swamicharts_rsi_15_std20_lag2 dft_11_dt_lag4 frac_h_l1_diff_curv20_lag2 swamicharts_rsi_8_curv20_lag5 cwt_w32_11_std20_lag1 cwt_w128_12_curv20_lag4 conv_37_mean20_lag2 swamicharts_stochastic_17_mean20_lag2 conv_45_std20_lag3 frac_h_l2_diff_curv20_lag2 swamicharts_stochastic_3_ddt acp_pwr_30_lag1 conv_0_curv20_lag2 acp_pwr_4_mean20_lag2 swamicharts_stochastic_39_std20_lag5 ac_22_hurst20 trendflex_mean20 cwt_w256_7_ddt_lag1 acp_pwr_13_curv20_lag4 frac_o_c5_diff_hurst20_lag1 conv_38_phent20 swamicharts_rsi_36_lag2 cwt_w32_9_mean20_lag5 frac_l_c3_diff_mean20_lag1 adx_14_dt_lag5 frac_c_h5_diff_dt_lag3 comb_spectrum_7_lag1 ac_23_lag5 roofing_filter_dt_lag1 frac_c_c2_diff_dt_lag5 swamicharts_rsi_4_mean20_lag4 comb_spectrum_9_lag1 swamicharts_rsi_23_dt_lag3 ac_22_std20 swamicharts_stochastic_13_dt_lag1 acp_pwr_21_mean20_lag5 conv_27_mean20_lag4 swamicharts_rsi_38_hurst20 frac_c_h2_diff_std20_lag2 conv_16_mean20_lag1 frac_h_o2_diff_hurst20 swamicharts_rsi_8_ddt_lag3 swamicharts_stochastic_38_dt_lag1 frac_c_l1_diff_lag2 cwt_w32_6_curv20_lag3 acp_pwr_14_dt frac_c_c1_diff_ddt_lag1 swamicharts_stochastic_37_curv20_lag5 sample_entropy_w32_array_std20_lag3 cwt_w128_11_curv20_lag5 acp_pwr_20_mean20_lag3 conv_43_std20_lag3 acp_pwr_5_curv20_lag5 dft_30_hurst20_lag4 frac_l_l4_diff_std20 comb_spectrum_39_dt bekker_parkinson_vol_std20_lag4 cwt_w128_13_ddt_lag1 ac_12_std20_lag3 ac_5_lag2 vmd_w32_0_dt swamicharts_stochastic_27_dt_lag3 price_change_oscillator_dt comb_spectrum_24_curv20_lag5 swamicharts_stochastic_43_curv20_lag4 swamicharts_stochastic_13_dt acp_pwr_36_lag5 cwt_w64_13_curv20_lag2 cwt_w32_12_hurst20 frac_h_c4_diff_lag1 adaptive_bp_1_hurst20_lag5 swamicharts_stochastic_37_lag2 acc_swing_index_curv20_lag1 swamicharts_stochastic_43_ddt_lag5 price_variance_ratio_dt frac_h_l1_diff_ddt conv_30_lag3 conv_38_mean20_lag5 sample_entropy_w64_array_hurst20_lag2 swamicharts_rsi_27_mean20_lag4 comb_spectrum_30_curv20_lag4 cwt_w64_1_std20_lag5 bar_duration_ddt_lag4 amihud_lambda_ddt frac_c_h3_diff_phent20 swamicharts_stochastic_27_std20_lag3 cwt_w256_20_dt_lag3 acp_pwr_35_hurst20 frac_h_l2_diff_std20_lag2 frac_h_c1_diff_dt norm_on_balance_volume_std20_lag4 cwt_w256_5_ddt_lag2 sample_entropy_w32_array_std20_lag1 frac_o_l5_diff_hurst20_lag4 sample_entropy_w128_spot_lag4 swamicharts_rsi_21_dt aroon_diff_mean20_lag4 ac_23_std20_lag5 comb_spectrum_11_lag3 ac_15_lag5 cwt_w256_14_curv20_lag3 frac_l_o4_diff_std20 swamicharts_stochastic_43_curv20_lag3 dft_32_mean20_lag4 swamicharts_stochastic_26_curv20 comb_spectrum_12_ddt_lag2 fisher_std20_lag4 swamicharts_rsi_19_lag5 ac_46_lag3 dft_36_lag5 cwt_w256_19_curv20_lag4 conv_4_curv20_lag2 frac_o_l3_diff_dt_lag1 frac_l_h2_diff_lag3 ac_27_dt adaptive_rsi_lag4 cwt_w128_15_ddt_lag4 cwt_w256_3_ddt_lag1 vmd_w128_0_curv20_lag2 cwt_w256_18_ddt comb_spectrum_4_curv20_lag1 swamicharts_rsi_3 comb_spectrum_34_hurst20_lag5 swamicharts_stochastic_18_lag3 cwt_w64_14_curv20_lag5 cwt_w256_15_dt_lag3 cwt_w64_13_std20_lag5 frac_h_l3_diff_curv20_lag4 swamicharts_rsi_37_ddt_lag2 approximate_entropy_w64_array_lag3 williams_r_std20_lag1 swamicharts_rsi_37_mean20_lag5 ac_42_dt_lag2 comb_spectrum_7_mean20_lag3 cwt_w256_12_ddt_lag4 mod_rsi_dt conv_1_dt dft_35_lag1 comb_spectrum_11_curv20_lag4 ac_11_ddt_lag4 conv_0_dt_lag1 swamicharts_stochastic_37_ddt_lag5 swamicharts_stochastic_22 comb_spectrum_2_ddt_lag4 frac_h_o1_diff_std20_lag3 vmd_w64_2_mean20_lag4 cwt_w64_12_dt_lag5 ac_32_dt_lag2 comb_spectrum_22_lag2 frac_c_l3_diff_lag2 cwt_w32_0_std20_lag2 cwt_w64_7_lag3 swamicharts_rsi_32_mean20_lag2 frac_l_l4_diff_hurst20_lag3 stc_curv20_lag3 voss_0_mean20_lag2 reactivity_mean20_lag4 frac_c_l1_diff_hurst20 cwt_w64_3_dt cmma_curv20_lag3 pfe_phent20 conv_37_curv20_lag4 ac_1_dt_lag2 swamicharts_stochastic_3_curv20_lag5 swamicharts_rsi_26_std20_lag2 roll_measure_dt_lag5 dft_20_ddt_lag4 cwt_w128_11_phent20 cwt_w32_9_ddt_lag2 frac_h_h5_diff_hurst20_lag5 comb_spectrum_15_mean20 frac_o_o3_diff_lag2 swamicharts_stochastic_26_ddt_lag2 conv_45_mean20 cwt_w64_12_std20_lag2 norm_on_balance_volume_std20 frac_h_c5_diff_std20_lag4 cwt_w128_17_std20_lag4 homodyne_curv20_lag1 cwt_w64_10_hurst20 conv_17_ddt_lag1 cwt_w256_2_dt dft_24_lag2 frac_o_h3_diff_ddt_lag1 cwt_w128_9_dt_lag5 cwt_w64_13_dt_lag5 mod_stochastic_ddt_lag2 comb_spectrum_27_curv20_lag1 ac_45_mean20_lag4 swamicharts_rsi_20_curv20_lag4 acp_pwr_15_mean20_lag2 ac_21_ddt_lag5 cwt_w128_17_lag5 acp_pwr_8_lag4 bar_duration_dt comb_spectrum_16_lag5 cwt_w32_20_dt_lag4 swamicharts_rsi_16_std20_lag3 voss_0_mean20_lag1 cwt_w64_7_curv20_lag2 conv_9_curv20_lag3 cwt_w256_8_curv20_lag2 swamicharts_stochastic_24_curv20_lag5 acp_pwr_37_mean20_lag4 swamicharts_rsi_1_ddt_lag1 cwt_w32_17_lag2 ac_36_dt_lag2 cwt_w64_5_std20_lag1 frac_o_l5_diff_dt_lag1 comb_spectrum_0_dt_lag2 frac_o_l4_diff_dt_lag1 swamicharts_stochastic_0_curv20_lag5 amihud_lambda_lag5 frac_h_c3_diff_std20_lag4 frac_o_l2_diff_curv20_lag2 frac_c_c3_diff_dt_lag2 frac_o_o3_diff_curv20_lag5 ac_9_mean20 sample_entropy_w256_spot_lag4 forecast_oscillator_dt_lag2 frac_h_h2_diff_curv20_lag5 ac_44_mean20_lag1 swamicharts_rsi_16_dt_lag5 comb_spectrum_25_curv20_lag5 bekker_parkinson_vol_ddt_lag1 swamicharts_rsi_25_lag1 swamicharts_stochastic_43_mean20 amihud_lambda_mean20_lag4 cwt_w256_13_hurst20 acp_pwr_4_dt swamicharts_rsi_1_dt_lag4 swamicharts_rsi_24_std20_lag2 ac_40_hurst20_lag2 acp_pwr_0_dt_lag3 conv_44_hurst20_lag1 williams_r_curv20 ehlers_early_onset_trend_lag2 cwt_w256_9_ddt_lag1 conv_34_lag2 hasbrouck_lambda_mean20_lag2 cwt_w64_0_hurst20_lag1 ac_35_mean20_lag5 ac_14_hurst20_lag1 ac_46_mean20_lag2 dft_38_ddt swamicharts_stochastic_22_ddt_lag5 comb_spectrum_15_dt_lag3 cwt_w32_14_mean20_lag1 comb_spectrum_24_lag1 comb_spectrum_19_lag3 swamicharts_stochastic_28_dt_lag1 comb_spectrum_2_std20_lag1 swamicharts_rsi_33_lag2 frac_c_o3_diff_mean20_lag5 cwt_w32_5_dt_lag1 cwt_w64_5_std20 frac_h_o1_diff_std20_lag2 conv_21_dt swamicharts_rsi_17 frac_h_l3_diff_curv20_lag5 aroon_diff_lag1 swamicharts_stochastic_37_ddt acp_pwr_13_mean20_lag5 dft_25 frac_o_h5_diff_hurst20_lag3 swamicharts_rsi_12_lag2 norm_on_balance_volume_mean20_lag2 frac_c_h4_diff_std20_lag1 swamicharts_rsi_7_lag2 swamicharts_rsi_11_dt_lag4 evenbetter_sinewave_long_curv20_lag5 swamicharts_stochastic_38_ddt_lag4 acp_pwr_4_std20_lag2 dft_23_mean20_lag4 conv_0_lag5 cwt_w32_13_dt_lag3 swamicharts_rsi_33_ddt_lag3 swamicharts_rsi_17_curv20 frac_h_c3_diff_hurst20_lag1 cwt_w64_18_lag3 ac_25_lag4 vmd_w256_1_curv20_lag3 conv_37_lag5 cwt_w256_9_std20_lag5 conv_15_lag1 frac_c_l1_diff_mean20_lag2 comb_spectrum_28_curv20_lag1 comb_spectrum_38_ddt_lag3 ac_7_lag4 dft_31_hurst20_lag3 dft_2_curv20_lag4 phase_accumulation_ddt frac_l_l2_diff_std20_lag2 swamicharts_stochastic_3_mean20_lag3 frac_c_l2_diff_dt_lag4 voss_0_dt_lag4 ac_38_lag1 conv_36_curv20_lag2 ac_7_dt_lag2 adx_7_phent20 frac_c_o3_diff_dt acp_pwr_0_curv20_lag5 swamicharts_stochastic_8_dt_lag1 swamicharts_rsi_6_lag1 ac_3_hurst20_lag2 swamicharts_rsi_16_std20_lag5 hurst_coef_slow_lag4 comb_spectrum_19_std20_lag4 acp_pwr_20_dt_lag5 frac_c_c5_diff_std20_lag1 swamicharts_rsi_14_std20 approximate_entropy_w128_spot_std20_lag1 cwt_w256_11_ddt_lag4 cwt_w32_7_lag3 reactivity_lag3 swamicharts_rsi_29_ddt frac_l_h5_diff_dt_lag1 approximate_entropy_w32_spot_std20_lag2 cwt_w32_14 frac_l_o3_diff_std20 frac_h_h5_diff_lag2 comb_spectrum_15_lag5 acp_pwr_32_dt_lag5 sample_entropy_w32_array_phent20 frac_l_o4_diff_mean20_lag1 dft_31_mean20_lag3 comb_spectrum_18_lag5 conv_34_std20_lag2 comb_spectrum_7_mean20_lag4 dft_38_lag2 dft_14_ddt_lag3 dft_10_phent20 frac_c_l2_diff_lag2 acp_pwr_38_lag4 dft_39_hurst20_lag4 comb_spectrum_14 sample_entropy_w64_array_hurst20_lag5 frac_o_c2_diff_ddt_lag1 amihud_lambda_mean20_lag3 comb_spectrum_20_mean20_lag5 swamicharts_stochastic_2_std20_lag5 cwt_w128_3_ddt frac_c_h1_diff_lag3 acp_pwr_7_mean20 swamicharts_stochastic_16_dt_lag3 ac_7_std20_lag4 acp_pwr_3_mean20 conv_40_dt_lag3 frac_h_c2_diff_hurst20_lag2 cwt_w128_10_dt_lag3 acc_swing_index_hurst20_lag5 cwt_w128_14 cwt_w256_14_ddt_lag5 vmd_w128_2_std20_lag5 cwt_w32_6_ddt_lag2 comb_spectrum_11_lag5 swamicharts_stochastic_32_ddt_lag5 ac_41_lag2 comb_spectrum_11_ddt_lag3 swamicharts_stochastic_25_mean20_lag4 vmd_w256_0_ddt cwt_w128_10_hurst20_lag2 vmd_w32_2_lag1 vmd_w256_1_lag2 swamicharts_rsi_34_lag4 vmd_w256_1_hurst20_lag2 ac_31_mean20_lag2 cwt_w32_16_std20_lag4 comb_spectrum_38_lag1 dft_16_hurst20_lag1 comb_spectrum_5_ddt_lag3 frac_h_l5_diff_phent20 cwt_w32_12_mean20_lag3 conv_6_hurst20_lag5 price_change_oscillator_hurst20_lag1 conv_0_hurst20_lag3 conv_0_hurst20_lag1 frac_h_c2_diff_std20_lag2 adaptive_cci_curv20_lag3 sample_entropy_w32_array_std20 conv_41_mean20_lag4 ac_1_ddt_lag2 acp_pwr_20_ddt_lag5 frac_c_o4_diff_ddt_lag1 conv_26_std20_lag5 swamicharts_stochastic_43_lag3 bekker_parkinson_vol_curv20_lag2 dft_30_std20_lag3 dft_23_lag3 comb_spectrum_1_curv20_lag2 swamicharts_stochastic_17_dt_lag1 vmd_w128_0_ddt_lag4 ehlers_early_onset_trend_dt_lag1 ma_difference_ddt_lag3 swamicharts_rsi_38_mean20_lag5 cwt_w32_6_dt_lag2 cwt_w32_9_lag1 ac_43_mean20_lag4 conv_7_hurst20_lag1 dft_3_mean20_lag4 swamicharts_stochastic_37 swamicharts_rsi_17_mean20_lag1 cwt_w64_0_curv20_lag5 acp_pwr_2_mean20 ac_13_phent20 conv_9_curv20_lag4 swamicharts_stochastic_22_std20_lag4 conv_34_ddt_lag5 swamicharts_rsi_34_hurst20_lag3 acp_pwr_14_curv20_lag4 dft_8_phent20 frac_o_c1_diff_std20_lag2 vmd_w32_0_curv20_lag4 comb_spectrum_28_std20_lag4 natr_lag2 frac_h_o2_diff_lag1 approximate_entropy_w32_array_dt trendflex_mean20_lag3 hurst_coef_slow_std20_lag3 conv_33_std20 ac_22_dt_lag1 acp_pwr_20_mean20_lag4 cwt_w128_15_dt_lag1 frac_h_h1_diff cwt_w256_9_ddt frac_l_h2_diff_ddt_lag4 frac_c_l4_diff_dt_lag2 swamicharts_stochastic_11_std20_lag3 sample_entropy_w32_array_curv20 acp_pwr_6_curv20_lag3 swamicharts_rsi_1_curv20_lag3 comb_spectrum_22_lag3 comb_spectrum_0_lag2 comb_spectrum_6_mean20_lag3 acp_pwr_34_lag4 comb_spectrum_35_mean20 dft_25_mean20_lag5 acp_pwr_2_dt_lag1 ac_26_lag1 comb_spectrum_10_lag5 frac_l_h1_diff_ddt_lag5 swamicharts_stochastic_1_curv20_lag3 ac_14_lag4 swamicharts_stochastic_1_mean20 comb_spectrum_12_curv20_lag1 cwt_w64_15_curv20_lag2 conv_27_lag3 adx_7 frac_h_c1_diff_dt_lag3 swamicharts_rsi_20_dt_lag3 frac_o_c5_diff_mean20_lag3 sample_entropy_w256_spot_mean20_lag4 mod_stochastic frac_h_h2_diff_lag4 comb_spectrum_18_lag4 frac_l_c3_diff_dt_lag1 cwt_w32_0_curv20_lag3 approximate_entropy_w256_array_std20_lag5 sample_entropy_w128_array_mean20_lag1 cwt_w256_5_std20_lag5 conv_37_dt swamicharts_rsi_3_lag3 cwt_w128_11_dt_lag4 frac_l_o3_diff_curv20_lag2 swamicharts_rsi_10_lag1 dft_31_ddt_lag3 cwt_w256_0_curv20_lag1 cwt_w32_15_phent20 dft_7_mean20 dft_28_dt_lag3 frac_h_o4_diff_hurst20_lag2 approximate_entropy_w64_spot_mean20_lag1 conv_38_std20 frac_h_o5_diff_lag2 swamicharts_stochastic_22_curv20_lag3 frac_h_o2_diff_std20_lag5 swamicharts_rsi_0_dt_lag5 frac_o_h5_diff_std20_lag4 vmd_w256_0_curv20_lag4 stc_mean20_lag3 hurst_coef_fast_mean20_lag2 ac_12_hurst20_lag5 ac_41_mean20_lag1 cwt_w128_14_hurst20 swamicharts_stochastic_36_ddt_lag2 frac_h_o4_diff_dt_lag4 swamicharts_stochastic_28_dt_lag3 swamicharts_stochastic_30_dt_lag3 evenbetter_sinewave_long_lag2 conv_2_hurst20 comb_spectrum_26_curv20_lag3 conv_18_curv20 swamicharts_rsi_5_ddt_lag1 cwt_w32_4_mean20_lag4 iqr_ratio_lag4 ac_18_hurst20 frac_o_h1_diff_lag3 swamicharts_rsi_10_hurst20_lag3 swamicharts_rsi_39_mean20_lag1 ac_16_ddt_lag4 swamicharts_rsi_11_hurst20_lag1 approximate_entropy_w256_spot_std20 swamicharts_stochastic_14_mean20_lag1 dft_20_dt_lag3 cwt_w256_5_ddt_lag1 frac_l_o3_diff_dt_lag2 acp_pwr_18_curv20_lag1 cwt_w128_19_mean20_lag2 acp_pwr_15_mean20_lag4 frac_o_c2_diff_phent20 swamicharts_rsi_34_ddt_lag5 swamicharts_rsi_40_mean20_lag3 conv_26_mean20 cwt_w128_4_curv20_lag3 swamicharts_stochastic_27_dt_lag1 frac_h_o5_diff_mean20_lag5 acp_pwr_25_hurst20_lag4 comb_spectrum_17_mean20 ac_21_mean20_lag2 comb_spectrum_11_mean20_lag1 swamicharts_rsi_2 comb_spectrum_39_mean20_lag1 cwt_w256_8_curv20_lag5 adx_14_dt_lag1 comb_spectrum_23_dt_lag4 frac_o_h4_diff_curv20_lag1 adaptive_cci_hurst20_lag5 comb_spectrum_10_curv20_lag2 trendflex_curv20 swamicharts_stochastic_7_dt_lag2 vmd_w32_0_std20_lag4 ac_16_mean20_lag1 frac_h_c4_diff_std20_lag2 acp_pwr_9_std20_lag1 comb_spectrum_17_dt_lag2 dft_12_hurst20_lag4 iqr_ratio_dt cwt_w128_20_mean20_lag4 vmd_w256_2_lag2 ac_41_ddt_lag2 cwt_w32_15_std20_lag5 swamicharts_rsi_12_std20_lag1 vmd_w32_2_dt_lag1 frac_o_c4_diff_std20_lag3 acp_pwr_30_dt_lag4 conv_7_lag3 dft_23_std20 cwt_w64_20_hurst20_lag4 ma_difference_std20_lag4 mod_stochastic_phent20 frac_l_l3_diff_lag4 dft_23_dt_lag2 cwt_w32_17_ddt_lag3 ac_34_std20_lag5 cwt_w32_17_mean20_lag3 vmd_w128_2_mean20 dft_30_lag4 ac_4_std20 cwt_w32_16_mean20_lag3 dft_7_dt_lag4 dft_0_lag3 cwt_w32_10_mean20_lag2 swamicharts_rsi_12_ddt_lag5 cmma_ddt swamicharts_stochastic_12_std20 swamicharts_stochastic_28_dt_lag5 comb_spectrum_11 swamicharts_rsi_26_curv20_lag4 voss_0_std20_lag4 swamicharts_rsi_23_std20_lag1 frac_l_h3_diff_lag3 cwt_w128_19_std20 swamicharts_stochastic_22_lag2 bar_duration_mean20_lag2 dft_10_std20_lag1 bandpass_0_dt_lag2 phase_accumulation_curv20_lag5 approximate_entropy_w256_spot_mean20_lag5 acp_pwr_15_std20_lag4 conv_32_dt_lag3 swamicharts_stochastic_42_curv20_lag5 ac_31_std20_lag3 ac_45_mean20 swamicharts_rsi_8_mean20_lag2 swamicharts_rsi_4_ddt_lag1 comb_spectrum_18_std20_lag5 acp_pwr_38_curv20_lag1 swamicharts_stochastic_23_std20_lag1 cwt_w64_13_curv20_lag4 adx_7_ddt acp_pwr_8_std20_lag5 conv_43 vmd_w128_1_std20_lag3 swamicharts_rsi_14_curv20_lag4 cwt_w128_6_mean20_lag3 roll_impact_lag3 comb_spectrum_6_std20 vmd_w64_0_mean20_lag1 swamicharts_rsi_6_curv20_lag3 frac_l_c1_diff_std20_lag3 vmd_w256_0_mean20_lag3 cwt_w32_17_std20_lag4 conv_40_std20_lag3 cwt_w64_7_hurst20 swamicharts_rsi_11_lag1 ac_22_lag2 corwin_schultz_estimator_curv20_lag5 swamicharts_rsi_8_ddt_lag5 cwt_w64_20_std20_lag2 frac_l_c3_diff_std20_lag3 conv_38_ddt_lag1 cwt_w32_17_dt_lag5 dft_13_dt_lag5 homodyne_lag1 swamicharts_rsi_21_mean20_lag3 aroon_diff_curv20_lag4 frac_o_h2_diff_hurst20_lag3 conv_14_mean20_lag1 frac_c_c5_diff_dt_lag2 frac_l_h1_diff_ddt_lag3 ac_28_std20_lag2 acp_pwr_16_std20_lag2 bandpass_1_hurst20_lag1 frac_c_c4_diff_std20_lag5 cwt_w128_18_hurst20_lag2 dft_27_lag2 frac_h_l1_diff_hurst20_lag3 cwt_w64_2_hurst20_lag2 swamicharts_stochastic_43 conv_39_dt_lag1 vmd_w64_2_hurst20_lag4 approximate_entropy_w128_spot_hurst20 frac_o_h4_diff_phent20 comb_spectrum_25_hurst20_lag2 vmd_w256_2_lag1 comb_spectrum_33_lag5 conv_45_lag5 frac_l_c3_diff_phent20 conv_12_lag2 frac_c_l3_diff_dt_lag2 swamicharts_rsi_32_hurst20_lag4 frac_h_h1_diff_curv20_lag3 ac_24_std20_lag1 iqr_ratio_mean20_lag4 ac_24_curv20_lag5 conv_42_std20_lag1 swamicharts_stochastic_0_std20_lag2 frac_l_c1_diff_curv20_lag3 vmd_w64_0_dt comb_spectrum_17 bekker_parkinson_vol_hurst20_lag2 ac_14_hurst20_lag5 cwt_w64_13_hurst20_lag2 conv_40_hurst20_lag5 ac_43_lag4 frac_l_l5_diff_dt_lag3 frac_l_l2_diff_lag3 acp_pwr_0_lag1 swamicharts_stochastic_23_curv20_lag2 swamicharts_rsi_13_mean20_lag3 comb_spectrum_4_mean20_lag5 conv_17_lag5 frac_h_c3_diff_dt sample_entropy_w128_array_ddt_lag5 cwt_w256_11_mean20_lag4 acp_pwr_35_std20_lag3 vmd_w256_0_mean20 frac_l_l5_diff_ddt_lag1 vmd_w256_1_dt_lag4 cwt_w128_13_curv20_lag1 swamicharts_stochastic_20_mean20_lag1 cwt_w128_1_std20_lag4 ac_28_curv20_lag1 acp_pwr_33_lag4 conv_7_dt_lag1 acp_pwr_6_mean20_lag4 comb_spectrum_38_lag3 swamicharts_stochastic_36_mean20_lag3 natr_std20_lag3 cwt_w32_10_ddt_lag3 dft_15_dt_lag5 dft_14_mean20_lag1 frac_o_o2_diff_curv20_lag3 ac_14_curv20_lag1 conv_45_dt_lag3 conv_2_lag2 sample_entropy_w32_array_dt_lag5 conv_11_dt_lag4 acp_pwr_20_phent20 acp_pwr_15_ddt_lag2 conv_19_ddt_lag5 swamicharts_rsi_14_ddt cwt_w128_18_ddt_lag4 conv_40_std20_lag1 swamicharts_rsi_8_dt_lag2 frac_l_l5_diff_hurst20 cwt_w256_7_hurst20 ac_26_std20_lag5 acp_pwr_38_mean20_lag4 conv_10_lag1 acp_pwr_10_ddt ac_26_lag3 adaptive_rsi cwt_w256_3_ddt_lag2 comb_spectrum_23_dt_lag3 adaptive_stochastic_hurst20_lag3 cwt_w256_11_ddt_lag2 conv_0_lag2 swamicharts_stochastic_41_ddt conv_36 cwt_w64_13_mean20_lag2 comb_spectrum_24_curv20 cwt_w128_14_ddt_lag3 swamicharts_rsi_35_ddt_lag3 conv_28_hurst20_lag1 conv_28_ddt_lag5 cwt_w256_4_std20_lag4 comb_spectrum_5_mean20_lag4 dft_12_mean20_lag4 conv_36_std20_lag4 kyle_lambda_std20_lag3 dft_18_ddt_lag2 ac_29_curv20_lag4 cwt_w128_16_std20_lag1 approximate_entropy_w32_spot_mean20_lag1 comb_spectrum_39_dt_lag1 cwt_w128_1_ddt_lag4 cwt_w256_7_ddt_lag2 acp_pwr_5_lag3 cwt_w32_15_dt_lag5 vmd_w64_0_std20 homodyne_dt_lag1 sample_entropy_w256_spot_lag3 swamicharts_stochastic_4_std20 frac_h_h3_diff_mean20_lag4 swamicharts_stochastic_3_curv20 dft_12_lag1 frac_o_l4_diff_curv20_lag3 dft_10_std20_lag3 price_variance_ratio_ddt_lag4 stc_lag2 cwt_w128_6_dt_lag5 adaptive_rsi_std20_lag2 cwt_w256_12 ac_17_lag3 acp_pwr_19_dt_lag2 swamicharts_stochastic_40_dt_lag5 cwt_w256_18_dt_lag1 comb_spectrum_30_ddt_lag3 frac_o_h1_diff_lag1 ac_30_hurst20_lag3 acp_pwr_19_ddt_lag1 conv_21_ddt_lag4 vmd_w256_0_dt_lag1 ac_40_curv20_lag3 comb_spectrum_39_curv20_lag1 frac_h_o2_diff_dt dft_8_std20 dft_16_mean20_lag4 cwt_w256_8_hurst20_lag3 conv_5_curv20_lag5 acp_pwr_23_ddt swamicharts_rsi_40_curv20 cwt_w128_20_lag2 cwt_w128_10_hurst20_lag4 ac_2_mean20_lag4 swamicharts_stochastic_11_hurst20_lag5 ac_12_std20_lag1 frac_h_h1_diff_hurst20 frac_o_c3_diff_hurst20_lag1 ac_2_std20_lag1 change_variance_ratio_curv20_lag2 ac_21_mean20_lag3 bekker_parkinson_vol cwt_w256_2_dt_lag5 comb_spectrum_6_curv20_lag3 swamicharts_rsi_4_mean20_lag2 ac_4_std20_lag2 cwt_w32_9_dt conv_42_curv20_lag4 roll_measure_std20_lag5 conv_2_ddt_lag3 ac_20_curv20_lag1 ac_34_lag1 acp_pwr_32_std20_lag3 dft_23_ddt acp_pwr_35 bekker_parkinson_vol_mean20 swamicharts_stochastic_31 frac_h_l4_diff_lag4 dft_4_curv20_lag3 bandpass_0_mean20 cwt_w256_15_lag4 swamicharts_stochastic_42_curv20 ac_40_mean20 cwt_w32_6_hurst20 pfe_mean20_lag5 adx_7_curv20_lag4 swamicharts_rsi_34_hurst20_lag5 dft_36_curv20_lag3 comb_spectrum_12_std20_lag1 comb_spectrum_26_lag2 ac_23_mean20_lag5 fisher_phent20 swamicharts_stochastic_12_hurst20_lag5 cwt_w128_1_lag2 dft_28_hurst20_lag2 frac_l_c3_diff_ddt_lag5 ac_30_dt_lag2 conv_10_curv20_lag4 swamicharts_rsi_19_dt_lag1 frac_h_h4_diff_lag2 conv_8_hurst20_lag3 frac_o_l1_diff_lag3 swamicharts_rsi_37_std20 swamicharts_stochastic_33_hurst20 swamicharts_rsi_28_mean20_lag3 approximate_entropy_w256_spot_std20_lag1 roll_measure_dt approximate_entropy_w64_array_hurst20_lag4 dft_6_curv20_lag3 frac_o_o5_diff_mean20_lag2 dft_14_ddt_lag1 swamicharts_stochastic_3_curv20_lag2 frac_c_c5_diff_lag5 swamicharts_stochastic_22_hurst20_lag4 swamicharts_stochastic_20_mean20 cwt_w32_5_curv20_lag3 frac_c_c3_diff_std20 ac_22_lag5 norm_on_balance_volume_hurst20_lag1 frac_c_c1_diff_std20 comb_spectrum_24_dt_lag3 swamicharts_rsi_21_curv20_lag1 conv_34_std20_lag4 dft_5_hurst20_lag5 frac_h_h5_diff_ddt_lag4 comb_spectrum_32_ddt_lag2 frac_c_l5_diff_std20_lag4 frac_c_l1_diff_lag5 ac_19_std20_lag1 cwt_w256_20_std20_lag4 frac_l_l1_diff_hurst20_lag3 ac_41_mean20_lag5 ac_14_std20_lag2 dft_36_std20_lag4 frac_o_c4_diff_mean20_lag3 comb_spectrum_19_mean20_lag2 conv_34_lag5 cwt_w64_8_mean20_lag3 conv_23_lag4 frac_h_c4_diff_std20_lag1 reactivity_dt_lag4 dft_25_std20_lag2 vmd_w256_2_mean20_lag2 comb_spectrum_13_mean20 cwt_w256_20_mean20_lag4 swamicharts_stochastic_31_hurst20_lag1 vmd_w256_1_hurst20_lag4 stc_hurst20_lag1 acp_pwr_19_curv20_lag1 comb_spectrum_34_mean20_lag2 frac_h_c5_diff_hurst20_lag1 evenbetter_sinewave_short_std20_lag5 deep_ssm_0 cwt_w256_3_curv20_lag2 price_variance_ratio_curv20_lag3 cwt_w64_2 aroon_diff_ddt_lag4 ac_17_mean20 frac_o_l3_diff_ddt_lag4 ac_30_lag2 cwt_w32_19_std20_lag4 cwt_w128_15_ddt swamicharts_rsi_0_dt_lag2 swamicharts_rsi_27_lag2 conv_8_std20 swamicharts_stochastic_31_mean20_lag2 ac_29_std20_lag3 comb_spectrum_5_mean20_lag3 comb_spectrum_8_mean20_lag1 cwt_w32_12_std20_lag1 ac_2_curv20 cwt_w32_19_lag5 frac_h_c3_diff_lag4 comb_spectrum_11_curv20_lag1 iqr_ratio_phent20 cwt_w128_9_std20_lag3 cwt_w256_7_std20_lag1 approximate_entropy_w256_spot_lag1 vwap_lag4 cwt_w256_4_ddt_lag1 cwt_w128_10_ddt_lag5 frac_l_c2_diff_hurst20_lag2 swamicharts_rsi_41_mean20_lag1 acp_pwr_28_ddt_lag3 acp_pwr_35_hurst20_lag1 vmd_w256_1_mean20_lag1 ac_42_std20 dft_35_hurst20_lag5 adaptive_bp_1_std20_lag1 acp_pwr_31_dt_lag2 norm_on_balance_volume_dt dft_4_std20_lag5 frac_c_l2_diff_mean20_lag5 vmd_w128_2_ddt_lag1 ac_3_hurst20_lag3 acp_pwr_32_hurst20_lag2 dft_30_mean20_lag4 cwt_w32_17_ddt conv_36_mean20_lag3 vmd_w128_0_hurst20_lag1 swamicharts_rsi_29_ddt_lag4 frac_l_h4_diff_ddt_lag1 chaiken_money_flow_hurst20 dft_9_curv20_lag5 swamicharts_stochastic_15_hurst20_lag2 frac_c_o3_diff_dt_lag4 cwt_w64_13_ddt_lag3 conv_26_curv20_lag4 homodyne_ddt_lag5 dft_26_ddt_lag5 swamicharts_stochastic_23_dt_lag5 comb_spectrum_14_lag3 acp_pwr_7_mean20_lag4 dft_38_curv20_lag4 ac_18_std20_lag2 ac_28_std20_lag1 swamicharts_stochastic_39_hurst20_lag1 voss_1_curv20 comb_spectrum_19_curv20_lag2 comb_spectrum_9_dt_lag5 comb_spectrum_37_std20_lag2 swamicharts_rsi_15_ddt ac_10_curv20_lag5 swamicharts_rsi_2_mean20_lag5 ac_9_mean20_lag4 conv_21_mean20 dft_28_phent20 conv_8_dt_lag1 vmd_w256_2_ddt_lag5 comb_spectrum_25_curv20_lag2 conv_18_lag4 acp_pwr_35_hurst20_lag5 dft_21_hurst20_lag4 frac_h_l5_diff_dt_lag3 cwt_w256_20_std20_lag5 cwt_w32_17 swamicharts_stochastic_40_mean20_lag2 comb_spectrum_25_lag5 dft_1_std20_lag3 cwt_w32_3_curv20_lag4 bar_duration_curv20_lag2 trendflex_std20_lag5 ac_25_curv20_lag2 ac_28_hurst20_lag4 cwt_w128_19_phent20 vmd_w32_2 acp_pwr_31_hurst20_lag1 frac_h_l2_diff_ddt_lag4 dft_26_mean20 swamicharts_stochastic_25_ddt acp_pwr_21_mean20 cwt_w64_10_curv20_lag4 frac_l_l3_diff_mean20_lag2 frac_c_l4_diff_std20_lag1 swamicharts_rsi_4_lag5 cwt_w32_11_dt_lag3 comb_spectrum_10_ddt sample_entropy_w32_array_lag1 acp_pwr_10_mean20_lag2 swamicharts_rsi_37_dt_lag4 cwt_w64_1_hurst20_lag5 conv_38_curv20_lag4 vmd_w128_0_mean20_lag1 comb_spectrum_10_lag4 comb_spectrum_3_dt_lag5 conv_35 acp_pwr_0_lag5 ac_30_hurst20_lag5 vmd_w32_0_mean20_lag1 adaptive_bp_0 ac_21_mean20_lag5 vmd_w64_0_ddt_lag1 ac_22_hurst20_lag3 cwt_w64_0_dt_lag5 sample_entropy_w64_array_lag3 approximate_entropy_w128_spot_curv20 ac_6_mean20_lag1 entropy_for_jesse_phent20 adaptive_stochastic_dt_lag3 dft_38_dt ac_32_mean20_lag2 frac_l_c3_diff_hurst20_lag3 comb_spectrum_9_hurst20_lag1 cwt_w256_13_lag2 ma_difference_lag5 conv_6_curv20 approximate_entropy_w128_array_dt_lag4 cwt_w256_20_std20_lag2 natr_dt_lag2 conv_19_std20_lag5 comb_spectrum_29_ddt_lag2 vmd_w256_2_dt_lag1 dft_1_dt_lag3 acp_pwr_37_ddt_lag4 comb_spectrum_11_lag1 cwt_w256_19_std20_lag1 swamicharts_stochastic_15_mean20_lag3 frac_o_h1_diff_hurst20_lag4 conv_18 swamicharts_stochastic_43_std20_lag2 conv_13_lag3 frac_l_l4_diff_std20_lag3 cwt_w32_10_std20 cwt_w128_20_curv20_lag3 swamicharts_rsi_35_lag1 homodyne dft_18_std20_lag3 frac_o_h3_diff_phent20 conv_5_hurst20_lag4 ac_20_std20_lag3 ac_6_phent20 ac_2_std20_lag4 conv_15_lag5 vmd_w256_0_lag1 comb_spectrum_31_dt_lag5 acp_pwr_16_curv20_lag5 dft_26_phent20 acp_pwr_21_std20_lag2 frac_c_l5_diff_mean20_lag5 conv_24_dt_lag4 frac_h_h2_diff_dt_lag5 conv_31_curv20_lag5 swamicharts_rsi_11_lag3 frac_h_h1_diff_curv20 cwt_w64_0_ddt pfe_ddt_lag5 ac_20_std20_lag5 swamicharts_rsi_43_curv20_lag4 swamicharts_stochastic_4_hurst20_lag2 vmd_w128_2_ddt ac_32_lag3 approximate_entropy_w256_array_phent20 ac_10_ddt_lag2 conv_39_lag1 swamicharts_stochastic_29_hurst20_lag5 swamicharts_rsi_34_std20_lag2 conv_43_dt_lag5 dft_22_hurst20 comb_spectrum_11_lag4 dft_12_lag4 cwt_w32_10_dt_lag4 roll_impact cwt_w32_5_lag5 dft_11_curv20_lag2 cwt_w64_2_curv20_lag2 bar_high_dt_hurst20_lag1 conv_30_hurst20_lag2 frac_o_h2_diff_lag5 frac_o_h5_diff_hurst20_lag4 swamicharts_rsi_31_dt_lag4 cwt_w32_1_std20_lag1 dft_30_curv20_lag3 sample_entropy_w64_spot_hurst20_lag3 sample_entropy_w256_spot_std20_lag3 cwt_w128_6_lag3 dft_10_ddt_lag5 swamicharts_rsi_43_dt_lag5 approximate_entropy_w64_array_std20_lag3 acp_pwr_24_ddt approximate_entropy_w128_array_hurst20_lag3 bar_low_dt_hurst20_lag5 conv_8_mean20_lag4 dft_19_ddt_lag1 conv_12_curv20_lag2 frac_o_c5_diff_hurst20_lag2 ac_13_dt_lag4 acp_pwr_7_curv20_lag1 ac_45_phent20 comb_spectrum_38_ddt_lag5 conv_11_std20_lag1 comb_spectrum_20_dt cwt_w64_18_curv20_lag2 conv_44_hurst20_lag2 swamicharts_rsi_25_std20_lag5 swamicharts_rsi_31_hurst20_lag2 ac_17_dt dft_35_lag2 dft_19_dt dft_32_curv20_lag5 swamicharts_rsi_26_hurst20_lag4 swamicharts_stochastic_5_dt_lag3 conv_18_lag2 vmd_w32_2_curv20 comb_spectrum_9_ddt swamicharts_rsi_16_std20 frac_l_o3_diff_std20_lag2 frac_h_c3_diff_ddt_lag2 acp_pwr_37_curv20_lag2 dft_20_ddt_lag1 acp_pwr_22_curv20_lag2 swamicharts_stochastic_15_mean20 swamicharts_stochastic_32_std20 acp_pwr_35_ddt_lag5 bar_duration_dt_lag1 frac_l_c1_diff_dt_lag4 cwt_w32_8_std20_lag4 swamicharts_stochastic_3_curv20_lag1 swamicharts_stochastic_42_std20_lag3 ac_42_lag1 bandpass_1_hurst20_lag2 conv_34_std20 acp_pwr_16_dt frac_h_c5_diff_std20 vmd_w128_2_mean20_lag2 comb_spectrum_13_curv20_lag5 approximate_entropy_w64_spot_dt_lag2 frac_o_o5_diff_ddt_lag2 swamicharts_stochastic_26_mean20 cwt_w128_2_hurst20_lag2 cwt_w32_19_std20_lag3 swamicharts_rsi_33_phent20 cwt_w256_17_mean20_lag1 conv_18_curv20_lag2 acp_pwr_24_mean20_lag1 price_variance_ratio_hurst20_lag4 comb_spectrum_15_hurst20_lag3 acp_pwr_33_mean20_lag5 dual_diff_std20_lag3 ac_2_hurst20_lag5 swamicharts_stochastic_0_dt_lag4 swamicharts_stochastic_27_lag4 comb_spectrum_20_dt_lag4 cwt_w64_20_mean20_lag2 frac_h_o4_diff_ddt_lag3 dft_25_curv20_lag1 swamicharts_rsi_8_phent20 acp_pwr_22_mean20 dft_26_ddt bandpass_0_curv20_lag3 conv_40_mean20_lag4 bekker_parkinson_vol_dt_lag4 swamicharts_stochastic_27_lag5 frac_o_h1_diff_lag2 adx_14_mean20_lag1 stc_std20_lag3 acp_pwr_19_mean20_lag2 frac_l_l1_diff_dt frac_l_l5_diff_std20
feature_infos=[-0.10221361964612338:0.087213519849046794] [-3228.5622482112094:3703.8991270541778] [-0.69588638124143387:0.78402941388009517] [-50.08302923860402:-49.91193409915499] [-5587.2454388678016:4739.4619264781213] [-99.994604874495977:0] [-0.22869917568336109:0.21706545424044349] [-0.0062861491592936056:0.0064634287302916512] [-0.084376789705358321:0.086503667915040952] [-0.075550719406331179:0.090267552940424822] [-0.1006395168486329:0.091303728180696847] [-4.1776056289672852:4.0264434814453125] [-2.777482242405056:2.4865961000645989] [-0.087196390990278108:0.10171502430061156] [-0.0059893731751607567:0.0045559809138271791] [-1.1113399696542683:1.3968427335855724] [-0.10221361964612338:0.087213519849046794] [-0.085254613248850086:0.080398820657121228] [-5587.2454388678016:4739.4619264781213] [-0.11568235284462669:0.080628063665000027] [-0.0062859681959896527:0.0064634584681979631] [-0.08525466313765874:0.080384016903184002] [-0.090376136475324761:0.10497626436058632] [-0.0058048472490509762:0.0069782474316707425] [-100.60022296491047:131.15028741976221] [-0.10174336436811666:0.072225171086043941] [-0.0068793000453196392:0.0060037562329886222] [-0.09021866319027054:0.086092392865394302] [-0.083530802997158385:0.08947087199848977] [-0.075922674581482122:0.10925627924223721] [-49.999999999999467:49.999999999272404] [-0.0067971006595783298:0.0082799536119739971] [-0.17511490709966759:0.2183213288176562] [-0.0051086734779339739:0.0048623682822175615] [-0.0077824821316732256:0.011125171927001014] [-4.5330286026000977:3.248964786529541] [-0.1110219171984409:0.082064083575171656] [-0.0099206389905055238:0.0086917761772452203] [-0.067358445366242581:0.079177282103905178] [-0.0051052331487827741:0.0049524960699713879] [-0.0074791736847327969:0.0077651646485012256] [-0.0074793923239681055:0.0077651349105949188] [-0.08772076682612584:0.090945008079996378] [-0.12723164744168733:0.067614700820995785] [-3.5317068099975586:3.0887875556945801] [-5151.8509656513434:4139.275427905478] [-0.080922136724781199:0.11718680970175267] [-6.0977191925048828:4.9144926071166992] [-0.11102264845766298:0.08206413346398031] [-0.11231853347974298:0.083970698194064622] [-0.087634009099934421:0.075813018692567] [-2.777482242405056:2.4865961000645989] [-0.099222448520787765:0.14406691446123121] [-100.60022296491047:131.15028741976221] [-0.0046045769063069505:0.0071395250129430822] [-0.068536188791417929:0.10473038080153137] [-0.048711325824200458:0.045484174345865824] [-0.10291786080788494:0.11487529323726917] [-0.090218713079079221:0.086077589111457159] [-0.0089283855799781701:0.0081593445230733509] [-1.1324930568690723:1.1591875911739564] [-0.086649710705042196:0.12010955248073764] [-0.098741908078459062:0.14309862008354424] [-0.080173305742280043:0.082313704086073636] [-0.090922954240840903:0.10309185446091877] [-0.090922904352032208:0.10309162090768893] [-0.085248785351851444:0.080404932638155846] [-0.008228771479709962:0.0073516746035586569] [-0.087610483600979533:0.075827822446504142] [-7.5205550308735063:7.5956019259943179] [-0.10485730015249395:0.12255507892198203] [-0.17674144343603748:0.21698621518232386] [-0.0052178514310203383:0.0056823172204706314] [-0.0927582357026802:0.080218874578268845] [-0.69588638124143387:0.78402941388009517] [-0.0059856639483908446:0.0085310878727683417] [-0.009409506526916845:0.007339525009934381] [-0.10063787520311268:0.091318531934634156] [-0.17511498363382039:0.21832136408557901] [-0.0084469518326647751:0.010610382963528236] [-0.11567886477243788:0.080596344342511297] [-99.994604874495977:0] [-0.048711325824200458:0.045484174345865824] [-176.83029867187588:151.96306481350302] [-1626.7428034578388:1959.4868200336755] [-0.086767098536013124:0.12049451428672898] [-0.08525466313765874:0.080384016903184002] [-0.17617501137022717:0.21405600616864406] [-0.046625556633397292:0.048892375585175341] [-0.0094096874902207927:0.0073399452928877189] [-0.005297262219351403:0.0066247360494703046] [-0.067358441139169223:0.079177416542575596] [-0.080172703857047806:0.082328507840010834] [-0.0058048472490509762:0.0069782474316707425] [-0.17511498363382039:0.21832136408557901] [-0.087196390990278108:0.10171502430061156] [-0.09021866319027054:0.086092392865394302] [-0.090376136475324761:0.10497626436058632] [-0.046625077514761859:0.048891971724942085] [-4708.0699300252618:3595.4806612031671] [-0.15702966159484077:0.17449784722446404] [-0.067358441139169223:0.079177416542575596] [-4766.2224066666822:3865.4086028481961] [-0.046183205627824186:0.04873230169815157] [-0.0093094565648370754:0.012000481994710335] [-50.08302923860402:-49.91193409915499] [-0.0077083178554616895:0.0060856552945242701] [-0.0084993841604836719:0.0076863618180663075] [-0.084385676324543871:0.086497171187931529] [-0.15635645651042207:0.17430018293785832] [-0.12051977506653405:0.10498679917607028] [-0.0068793000453196392:0.0060037562329886222] [-0.11475383777313322:0.10551576384026479] [-0.11231853347974298:0.083970698194064622] [-0.0082289868457234069:0.0073518937511796471] [-0.0094211736803168807:0.0094881696222351326] [-0.0074796967682039996:0.0077628713359638862] [-0.075550719406331179:0.090267552940424822] [-0.0074970107934453373:0.012443168456533656] [-0.0058053703325221849:0.0069723381233438523] [-0.99999957064077361:0.99999430098709319] [-0.011622922491410861:0.0088742633888336149] [-0.0062864912794608737:0.0064575491598710842] [-3.3906772136688232:3.5385239124298096] [-0.22869917568336109:0.21706545424044349] [-0.12417395976256239:0.082727612181842963] [-0.098741836700966257:0.14309862006915841] [-0.58520411492955682:0.60315587893062683] [-0.090922954240840903:0.10309185446091877] [-50:50] [-0.17709182368259357:0.21317743262429056] [-0.08524883524066014:0.080390128884218606] [-0.046625077514761859:0.048891971724942085] [0:1] [-0.009309226082203477:0.012000511732616657] [-81.983406155557049:61.908463036641791] [-0.0058382133199158786:0.0064034281338103977] [-0.086767098536013124:0.12049451428672898] [-0.010002838376246829:0.0075698080760108963] [-0.11102264845766298:0.08206413346398031] [-0.22611627562952324:0.22151287392266647] [-0.15702966159483989:0.17449784722446404] [-0.0059893731751607567:0.0045559809138271791] [-0.17617501794509272:0.2140559945013365] [-0.009045358643168985:0.0072072406257458295] [-0.22545969143747291:0.29019984330955761] [-0.1050122397103368:0.1223678500906189] [-0.0068798231287908549:0.0060031937962166061] [-0.17674144343603748:0.21698621518232386] [-0.080898611225826297:0.11718665628215796] [-0.082114320422825834:0.0955290791383758] [-0.0048419688490224013:0.0056338216982092749] [-0.010829816099965828:0.010640820517043615] [-0.10501223971033635:0.12236785009061979] [-0.0062861491592936056:0.0064634287302916512] [-0.010602930654895303:0.0082651651505102723] [-0.6971015852059923:0.42832854837997675] [-3.3865660717906962:2.6647499796849274] [-0.23524760594866917:0.22151907929185594] [-0.098741836700967145:0.14309862006915708] [-0.12051977506653405:0.10498679917607028] [-0.10291786080788494:0.11487529323726917] [-0.22633234748540909:0.2215163161485372] [-0.25774946175095292:0.24115938179803964] [-0.0051057562322539846:0.0049528137324224954] [-0.090922904352032208:0.10309162090768893] [-0.0062405223061702212:0.010792302542879519] [-0.19624489539704057:0.19616797136587066] [-1.2860572872766309:1.2914808658820385] [-0.0052971728941102001:0.0066247063115639823] [-0.449512375430694:0.52713323669887568] [-0.07976108799059918:0.091353919063345737] [-0.084376789705358321:0.086503667915040952] [-0.45995794956117297:0.49789307873675748] [-0.0067971006595783298:0.0082799536119739971] [-0.13199223581104436:0.13140399920883333] [-0.0251741145597979:0.025424299818758378] [-0.090376136475324761:0.10497626436058632] [-0.23225844483177593:0.22169259857445162] [-0.1312708369971114:0.15455617611660299] [-0.22545969143012012:0.29019984337646498] [-0.0048419688490224013:0.0056338216982092749] [-0.0089283855799781701:0.0081593445230733509] [-0.0086463778909413487:0.012515300696089433] [1.0519379648555589:3.7688876375809195] [-0.006413545393054854:0.0070225060551839897] [-40.679579142277674:39.635245956771513] [1.0519379648555423:3.7688876375809195] [-0.090612960000017839:0.10151237508153538] [-0.025174114559797012:0.025424299818758378] [0:1] [-0.10221361964612338:0.087213519849046794] [-0.10063787520311268:0.091318531934634156] [-0.26916505152422077:0.27108737147838896] [-1.1775472229240953:1.1490896805098405] [-1849.4110703189413:2239.5508318168486] [-0.13199223581104436:0.1040094906633498] [-0.12723164744168733:0.067614700820995785] [-0.010602712015659982:0.0082645674219837297] [-0.079740004287042227:0.091339115309408275] [-0.011570490163591959:0.010850169017329067] [-0.14204171114687125:0.14029830814103039] [-0.11568235284462669:0.080628063665000027] [-0.029900338303297413:0.032031178263201454] [-0.17617501794509272:0.2140559945013365] [-0.11568235284462669:0.080628063665000027] [-0.15229978548711565:0.14733789919428047] [-1626.7428034578388:1959.4868200336755] [-0.046625556633397292:0.048892375585175341] [-49.999999999999467:49.999999999272404] [-0.23053061631408694:0.2215177700532226] [-5151.8509656513434:4139.275427905478] [-0.0051059715982674312:0.0049530328800434838] [-0.25545199470547381:0.23564382599491868] [-1.4211096887339634:1.1488796455142369] [-0.0084466615933089691:0.010610353225621923] [-0.0074791736847327969:0.0077651646485012256] [-1.42110968873398:1.1488796455142554] [-0.08524883524066014:0.080390128884218606] [-0.030335035781257513:0.031766324032963311] [-0.08772076682612584:0.090945008079996378] [-0.15095593917609818:0.18843849806011287] [-0.2254596914301219:0.29019984337646587] [-0.094791204509062421:0.10181465991165028] [-0.15702966159484077:0.17449784722446404] [-1.4211096887642605:1.1488796455457775] [-0.10075360707247612:0.094279245696704775] [-0.10501224167445056:0.12236784947155899] [-1.4193372010697651:1.1467010708795924] [-0.27723109635844145:0.27808196099209681] [-3.4556457996368408:3.6716775894165039] [-2295.3670907952328:2289.670510252869] [-741.71237299210486:782.36200192471938] [-0.0052482688956428537:0.0090459065741474304] [-0.27120956020118436:0.27173284115721852] [-1.3968427335855724:0.65932722108642805] [-0.2261161329654432:0.22151418054680039] [-0.0062859681959896527:0.0064634584681979631] [-3610.1960801633654:4103.1220584408657] [-0.14026419976593429:0.13459054833680656] [-0.098741908078459062:0.14309862008354424] [-0.080713181006287174:0.088144310020629169] [0:1] [-176.83029867187588:151.96306481350302] [-0.13199223581104436:0.13967071506413553] [-47.086796668357451:48.202346766456444] [-0.26879780268607489:0.26086275879368803] [-0.0052971728941102001:0.0066247063115639823] [-0.10075355718366746:0.094279133188149053] [-0.046625077514761859:0.048891971724941641] [-0.022008114772789966:0.017566679994176937] [-3610.1960801633654:4103.1220584408657] [-0.067358445366243025:0.07917728210390651] [-0.07976108799059918:0.091353919063345737] [-0.082003070429177663:0.12373016101976428] [2.1837787333860574:3.7220219092928812] [0.23766085038445076:0.74694021888074624] [-0.23737631291532457:0.23807077130272575] [-0.024886565664841598:0.025433191308919856] [-0.26108649074333656:0.25831838249947647] [1.0537697907825032:3.768903081736688] [-0.082114320422825834:0.0955290791383758] [-0.0074793923239681055:0.0077651349105949188] [-0.080713181006287174:0.088144310020629169] [-0.10501223971033635:0.12236785009061979] [-3.114908514329179:3.1076964980286328] [-0.0052482688956428537:0.0090459065741474304] [-0.080173305742280043:0.082313704086073636] [-0.11362031424854147:0.17791145726498625] [-0.083530802997158385:0.08947087199848977] [-0.024886565664841598:0.025433191308919856] [-0.094791204509061089:0.10181465991165073] [-0.25597269980713705:0.24204442996647824] [-0.25534743744086269:0.25182175570508797] [-0.0062866722427648196:0.0064575194219647723] [-0.082003070429177663:0.12373016101976428] [-0.07698675523600447:0.089679900391876274] [-0.26264772667544672:0.26502756233795033] [-0.17617501794509272:0.21405599450133517] [-0.090218713079079221:0.086077589111457159] [-0.449512375430694:0.52713323669887568] [-0.25807246261007349:0.24081382908054716] [0:1] [-0.22552594614328392:0.29009108866933886] [-0.45995794956117297:0.49789307873675748] [-0.067016071717587167:0.080877057894697124] [-1:1] [-0.21042129814494986:0.20761229097356682] [-4318.721638509167:4017.5939838820464] [-0.27561394517826776:0.27545476346755077] [-0.0094931606498563064:0.013400389353422975] [-0.50771738501023655:0.51577479550785466] [-0.2406325241712719:0.24255241449913478] [-0.26060827577469098:0.24967345301522248] [-0.44951237543069267:0.5271332366988708] [-0.086649710705042196:0.12010955248073764] [-0.0046045769063069505:0.0071395250129430822] [-0.23413118668271787:0.2215201664149333] [-0.44317482637494887:0.37880495535089231] [-0.090224393241817441:0.086086180428145226] [-0.25883425620082551:0.2407110244104429] [-0.45995794956116098:0.49789307873674948] [-0.44317482637495065:0.37880495535088432] [-1.4651583150465997:2.5660382719493575] [-0.0052178514310203383:0.0056823172204706314] [-0.080170439936434967:0.082307207358964157] [-0.0059855548252766046:0.0085311176106746683] [-0.046625077514761859:0.048891971724941641] [-0.0094203259311284385:0.0094884193496164223] [-0.15424265301085349:0.14266280496607303] [-33.682413780410315:35.989232113220439] [-0.01157019992423616:0.010850139279422754] [-0.10137259727074266:0.23840709405791305] [-0.25722535285870252:0.23436880365914958] [-0.45991612089737766:0.49793783841476946] [-0.25961901158047901:0.24041431621221659] [-0.17511498363381861:0.21832136408557989] [-0.004585302608005719:0.0036867944233881025] [-0.13199223581104436:0.10485841855316755] [-0.050783003867468146:0.050276727188916848] [0:1] [-4708.0699300252618:3595.4806612031671] [-5334.651926892142:5092.0341077582179] [-0.0070767864993871001:0.010277513579406745] [-0.01090602046260041:0.011364957980801836] [-0.44951237543069267:0.5271332366988708] [-0.10174336436811666:0.072225171086043941] [-0.0086463778909413487:0.012515300696089433] [-0.11475383777313322:0.10551576384026479] [-0.0062861491592936056:0.0064634287302916512] [-0.030335259332107345:0.031765644481626332] [-0.075922674581482122:0.10925627924223721] [-0.13117004887573325:0.15447714207294228] [-0.08071031520044189:0.088146399893027361] [-0.098741836700967145:0.14309862006915708] [-0.090373270669479672:0.10497549690191912] [-0.55440024874835536:0.50794492404745895] [-0.094791204509062421:0.10181465991165028] [-0.0927582357026802:0.080218874578268845] [-0.085254613248850086:0.080398820657121228] [-0.17511498363381861:0.21832136408557989] [-99.994604874495977:0] [-0.1006395168486329:0.091303728180696847] [-0.0070767864993871001:0.010277513579406745] [-0.2261161329654432:0.22151418054680039] [-0.0034310070391197511:0.0037737745594003148] [-0.0084471846767801839:0.01061722322363259] [-0.25774946175095292:0.24115938179803964] [-0.11217905319551827:0.083954346191661561] [-0.068536188791417929:0.10473038080153137] [-1105.9089280499611:867.36493005980446] [-0.13199223581104436:0.10424452337143969] [-0.10179580242394826:0.23648293264049958] [-50.08302923860402:-49.91193409915499] [-0.080172703857047806:0.082328507840010834] [0:1] [-0.69588638124143387:0.78402941388009517] [-0.0067976237430495525:0.0082776602994366569] [-3228.5622482112094:3703.8991270541778] [-0.085248785351851444:0.080404932638155846] [1.4817694447490759:3.683070354588029] [-0.13199223581104436:0.11598354767650809] [2.1473519042077123:3.8071439818554551] [-38.848672652502245:43.035915578982092] [0.0049005843349853046:0.034675555575701129] [-0.11217905319551827:0.083954346191661561] [-0.22611627562952324:0.22151287392266647] [0.28387538699838133:0.68716982361790468] [-0.13199223581104436:0.14143591660201049] [-0.12417395976256239:0.082727612181842963] [-0.26916505152422077:0.27108737147838896] [-3.114908514329179:3.1076964980286328] [-2.777482242405056:2.4865961000645989] [-0.0087047458368063567:0.013574739728317672] [-0.11567886477243788:0.080596344342511297] [-100.60022296491047:131.15028741976221] [-0.0059855548252766046:0.0085311176106746683] [-0.26255347991563938:0.25681616713885236] [-1.6940634608110643:2.0498784917874735] [-0.10179584594684687:0.23648285311237771] [-0.007942805807075546:0.0087689020239160639] [-0.10179584594684687:0.23648285311237771] [-0.0084469518326647751:0.010610382963528236] [-0.22611627562952324:0.22151287392266647] [-0.005297262219351403:0.0066247360494703046] [-11.011249664705304:6.7878086510915701] [1.4817694447490808:3.683070354588029] [-100:100] [-0.6971015852059923:0.42832854837997675] [-0.10685809470600215:0.11954019719079687] [-0.034284506724282071:0.034361489887566599] [-0.10179580242394826:0.23648293264049558] [-0.08525466313765874:0.080384016903184002] [-3228.5622482112094:3703.8991270541778] [0:1] [-0.089822047607594074:0.089986749452461476] [-0.11362028440451066:0.17791138002305606] [-0.046183205627824186:0.04873230169815157] [-3.1064159062241243:2.4842031747565678] [-0.25473820966237032:0.2352687281513981] [0:1] [-0.021837920799192112:0.016468750499191831] [0.0024690101797216341:0.019732598668439912] [-0.22611654696982281:0.22151986889386738] [0:1] [-0.25545199470547381:0.23564382599491868] [0:1] [-0.27787689989963016:0.27775452400222445] [-0.0044090593776657675:0.004054698362702858] [-0.13199223581104436:0.10390629235357185] [1.1251234294971866e-12:1.7786281813341867e-11] [-0.1050122397103368:0.1223678500906189] [-0.0084474749161359882:0.010617252961538901] [-0.26651950124232793:0.24700028430538895] [-0.26627929910775516:0.26199225643582352] [-1.2860572872766309:1.2914808658820385] [-0.11102264845766298:0.08206413346398031] [-0.048711325824200458:0.045484174345865824] [2.1837787333860574:3.7220219092928812] [-1.4211096887339634:1.1488796455142369] [-0.067358445366243025:0.07917728210390651] [-0.44317482637495065:0.37880495535088432] [-0.99999649708720939:0.99999690487179782] [-0.10685804481719352:0.11955500094473399] [-0.0068793000453196392:0.0060037562329886222] [-1:1] [0:1] [-0.11218148023501934:0.083956436064059808] [-0.08071031520044189:0.088146399893027361] [-0.0094931606498563064:0.013400389353422975] [-0.1547835377768384:0.15451175289409674] [-0.44950245407138789:0.52747677316577013] [-1.4668860420344596:2.5699893342482354] [-0.26165777098995802:0.26448218887271147] [1.4551915228363314e-09:99.999999999998934] [0.004228317167633157:0.073608750031484121] [-0.26169492072440337:0.26849350610467776] [-0.0251741145597979:0.025424299818758378] [-1.0844065843405817:1.1581094751117544] [-0.11362028440451066:0.17791138002305606] [-0.066863854324047178:0.095337572624931255] [-0.11362028440450622:0.17791138002305562] [-0.010002838376246829:0.0075698080760108963] [0.4860213280992684:13.648029440586907] [-0.15702966512867089:0.1744978462863056] [-0.14745039396832882:0.13601821614646331] [-0.09021866319027054:0.086092392865394302] [-0.12916695571178832:0.10271954504583167] [-0.080922136724781199:0.11718680970175267] [-0.1121790033067096:0.083969149945598787] [-0.1121790033067096:0.083969149945598787] [-0.21626706403129398:0.20356731412773843] [-0.098562724965251897:0.087578301732912853] [-0.090373270669479672:0.10497549690191912] [-0.10485730015249395:0.12255507892198203] [-0.006413545393054854:0.0070225060551839897] [-0.58520411492955682:0.60315587893062683] [-3.3865660717906962:2.6647499796849274] [-0.13451194311084658:0.084008913996991605] [-1.0843992561715869:1.1581147088304999] [-0.2604002318007792:0.25830510787433847] [-0.046625077514761859:0.048891971724941641] [-0.12417395976256239:0.082727612181842963] [-1.6940634608110643:2.0498784917874735] [1.8087814390991586:4.1622291817584181] [-0.15702966512867089:0.1744978462863056] [-0.046625077514761859:0.048891971724941641] [0:1] [-0.0096027265912623644:0.010419767937570218] [-741.71237299210486:782.36200192471938] [-0.26264772667544672:0.26502756233795033] [-0.25961901158047901:0.24041431621221659] [-0.0070794503235165522:0.01027748384150042] [-4.1429915428161621:3.7005021572113037] [-0.027446880371752344:1.027790357785169] [-0.13199223581104436:0.10424328515633946] [0.0062299390813715053:0.038132804087942299] [-0.011730945207205157:0.010198462651776551] [1.0519379648244429:3.7688876375811557] [0:1] [-0.0077824821316732256:0.011125171927001014] [0.25974273017605676:0.74084325367065174] [-1.4193372010697651:1.1467010708795924] [-0.087634009099934421:0.075813018692567] [-0.55440024874835536:0.50794492404745895] [-0.085254613248850086:0.080398820657121228] [-0.26145631027778032:0.26042104936421023] [-0.25883425620082551:0.2407110244104429] [-0.25787570570742241:0.24265429622146317] [-81.983406155557049:61.908463036641791] [-0.41616084717748292:0.95785102829793045] [-0.11312565723593489:0.080231315445499329] [-0.12417638680206335:0.08272756229303431] [-0.0087047458368063567:0.013574739728317672] [-0.0034310070391197511:0.0037737745594003148] [-0.25787570570742241:0.24265429622146317] [-29.698778103705177:48.984842198786012] [0.42833558324962168:3.6229171726077953] [-0.0074793923239681055:0.0077651349105949188] [-0.26048772940185877:0.25303078763149883] [-0.13199223581104436:0.10387068598079674] [-0.087610483600979533:0.075827822446504142] [-7.5205550308735063:7.5956019259943179] [-0.0058053703325221849:0.0069723381233438523] [-0.098559287669562387:0.087578251844104185] [-5587.2454388678016:4739.4619264781213] [-0.0052482688956428537:0.0090459065741474304] [-0.17709182368259357:0.21317743262429056] [-0.13117004888780492:0.15447714210204433] [2.1837126657006332:3.72201885173263] [-0.69588638124143387:0.78402941388009517] [-0.025169785186597515:0.025420252491516582] [0:1] [-0.44951237542201872:0.52713323670685197] [-0.1050122397103368:0.1223678500906189] [0.25047999223176537:1.3014699327265773] [0.17424329194295676:0.77677427670449006] [-0.011615916043542108:0.012104942238478023] [-0.13199223581104436:0.10396165672980551] [0.001365726576062334:0.35272689676289087] [2.8704626756136387:4.1506045304212993] [-0.0052482688956428537:0.0090459065741474304] [-0.10685809470600215:0.11954019719079687] [0.00030955588492096218:0.92699295190181952] [-0.0044090593776657675:0.004054698362702858] [0.012909093748915355:1] [0.0054963639252093559:0.035877144804883097] [0.11883083640059833:0.46586042161176466] [-0.25807246261007349:0.24081382908054716] [-107.14285714285714:107.14285714285715] [-29.698778103705177:48.984842198786012] [-0.17674144343603748:0.21698621518232386] [-0.0085501911176036442:0.011928349755154567] [2.9299349481594184:4.0048312498239289] [-0.01175837679929554:0.011590123537098925] [-0.25711167128970569:0.2475322487040173] [2.0144618831763155:3.7028048961790918] [-0.27787689989963016:0.27775452400222445] [-0.22633234748540909:0.2215163161485372] [-816.83817311500866:779.95376633570936] [0.0086215654433994676:0.99478081088990655] [-0.43686687959411463:0.88533661759291737] [-0.22552594614328392:0.29009108866933886] [-11.011249664705304:6.7878086510915701] [-0.11885300127304642:0.073996763731917534] [0:1] [-0.44950245407138789:0.52747677316577013] [0.60423899687524929:0.87967489071671756] [-0.26916505152422077:0.27108737147838896] [10.649151661741211:48.97847215276505] [-0.11218148023501934:0.083956436064059808] [0.60423899687524929:0.87967489071671756] [-0.26034300566113089:0.24195279825392263] [2.704824030716185:4.1543345732665804] [0.0049386098208118647:0.17381962685939359] [-0.17617501794509272:0.21405599450133517] [-3.8341586187764491:3.5595583998143638] [-0.079740004287042227:0.091339115309408275] [0.21552998824255867:0.76916134394793123] [0.0062299390813715053:0.038132804087942299] [0:1] [-0.0046045769063069505:0.0071395250129430822] [-0.11885300127304642:0.073996763731917534] [0.0022419602634986347:0.36549050299683949] [0.23766085038445076:0.74694021888074624] [-2295.3670907952328:2289.670510252869] [-0.88799075723115473:0.87779801925461187] [-0.26255347991563938:0.25681616713885236] [-0.15215288699867924:0.1342431248401369] [0:1] [-50.08302923860402:-49.91193409915499] [0.0056719930334968721:0.033457169794673884] [0.00082307635914435733:3.2326686640637505] [0.0030583208717058904:0.085983835772049377] [0:1] [0.68451581451931665:0.98148498667561002] [-0.52353608014675757:0.65098547275956897] [-0.0062864912794608737:0.0064575491598710842] [1.9420245571643472e-05:14.840769649237393] [0.0037987332861747079:1] [-0.22545969143012012:0.29019984337646498] [0.0010642020009843987:0.053558770120790113] [0:1] [-0.23413118668271787:0.2215201664149333] [0.047425873237035066:0.95257410652037922] [-0.17464977431228501:0.36913571954175373] [-2.2072636841916138:4.4442576180215854] [-0.10612586348381736:0.13456629814356744] [-0.69588638124143387:0.78402941388009517] [-0.25787570570742241:0.24265429622146317] [2.9299349481594184:4.004831249823928] [-0.062442467284967863:0.1097724281059799] [-0.0927582357026802:0.080218874578268845] [0.0023636091154885098:0.024878739367323963] [0:1] [-0.4368668795941133:0.88533661759291249] [-0.26394999070925773:0.27153830338980955] [-0.094914644252965363:0.10159926086246207] [-0.27787689989963016:0.27775452400222445] [-0.022008114772788634:0.017566679994177381] [-0.087634009099934421:0.075813018692567] [-0.0093094565648370754:0.012000481994710335] [0.0028921898452794704:0.043159157528609202] [-0.54084681743226892:0.49627992057299497] [0.852367749209064:0.96525951608315197] [-0.025174114559797012:0.025424299818758378] [-0.1006395168486329:0.091303728180696847] [-1.4211096887642605:1.1488796455457775] [0:1] [-0.10221361964612338:0.087213519849046794] [-0.14256146828078375:0.13478814396906474] [-0.010602712015659982:0.0082645674219837297] [-0.51346898459405654:0.56982784108325957] [-0.020980340883185011:0.017408574594178106] [-0.11567886477243788:0.080596344342511297] [-0.99999957064077361:0.99999430098709319] [-0.0084993841604836719:0.0076863618180663075] [-0.083655305587237105:0.10797869249612413] [0.29320346157052318:0.84096786063496287] [-0.34051218896354113:0.24997763418151731] [0.65400757561523626:0.99198710491043829] [-0.23225844483177593:0.22169259857445162] [-0.01175837679929554:0.011590123537098925] [0:1] [0:1] [0.04518911329732709:1.0828332139791099] [-0.15702966159483989:0.17449784722446404] [0:1] [1.0519379648555589:3.7688876375809195] [0.013382871975677056:0.22298976397106932] [33.200000000000003:986.75] [0.71202525853969934:0.93028130239095974] [0:1] [-100:100] [0.0044066385086429854:0.032173914790243154] [0.0081235439812219618:1] [-0.08682577720741147:0.094384352186788423] [0.00050081057981640439:0.05301992893139372] [-0.1214356285756393:0.12142482205346397] [-0.0052971728941102001:0.0066247063115639823] [2.7026475083465376:4.1292728343041816] [0:1] [-0.26627929910775516:0.26199225643582352] [-0.025174114559797012:0.025424299818758378] [-0.0070794503235165522:0.01027748384150042] [0.00012079471823204653:11.355496639884141] [2.1837787333859833:3.7220219092928963] [0.014375260612011876:0.99949814261162229] [0.014650637961635222:0.22245995268098753] [-5334.651926892142:5092.0341077582179] [0.0027537704538700665:0.06098249078022687] [-0.15229978548711565:0.14733789919428047] [-7.5205550308735063:7.5956019259943179] [0.0029830056008642893:0.023180412402580838] [0.47146281249020516:0.97476953036150338] [-0.44317482637495065:0.37880495535088432] [-0.25262131771307406:0.25029398497628719] [1.6931014365799111:4.1377515789917183] [-0.0074970107934453373:0.012443168456533656] [-0.43338258300456067:0.38720586771414489] [0.0062820339310179409:0.03761139932444147] [-0.084385676324543871:0.086497171187931529] [-1:1] [-38.848672652502245:43.035915578982092] [1.4817694447490808:3.683070354588029] [0.0027786287010111042:0.029961272317874259] [0.11384803432230051:0.85539146031492042] [0.32812324459510156:0.73073698420797251] [-38.848672652502245:43.035915578982092] [4:2534] [0.4860213280992684:13.648029440586907] [3.0222024869078443:4.1955225631396704] [-4.9657141922332784:6.761663507442992] [-0.22130355131931817:0.33218442042190621] [-0.12723164744168733:0.067614700820995785] [-3.1064159062241243:2.4842031747565678] [3.1784231493207757:4.2006069432317927] [-0.080898611225826297:0.11718665628215796] [0.17627047773887544:0.64625335668322847] [-49.999999999999467:49.999999999272404] [0:1] [-3.114908514329179:3.1076964980286328] [0.025757872480050858:0.94605461568868576] [-3.3865660717906962:2.6647499796849274] [5.9787031966926795e-05:0.04119933485195288] [-0.041919959017630459:1.0393262326841548] [-490.40854281878126:461.74566530866804] [0:1] [-0.015778329368382082:0.013520490762227] [0.0066077641057819877:0.033767666963702661] [-0.009045358643168985:0.0072072406257458295] [2.1837787333859833:3.7220219092928963] [-0.10179580242394826:0.23648293264049958] [-0.76710025693487538:0.61901790095960441] [-0.046183205627824186:0.04873230169815157] [0.00041018371800926652:0.30199716875819194] [0.0023260639619585846:0.021405633186197426] [-0.0085475272934741921:0.011928379493060883] [0.012909093748915355:1] [-527.29909239976064:611.44568271841274] [-0.062442467284967863:0.1097724281059799] [0.00060913476627016017:0.29596875281361557] [-1.4668860420344343:2.5699893342482003] [-0.17435122314661378:0.3699547618275254] [-0.13604230316024607:0.10675147099520972] [0:1] [0.00050741432908296853:0.053987985845465811] [-0.030691212830236347:0.030669349600970786] [-0.13340827288946377:0.12212355461692603] [-0.08071031520044189:0.088146399893027361] [0.0004481077646011175:0.010295398809663349] [0.0053227256595768961:0.042672590417982624] [0.0013748822714721169:0.015957238655384339] [-26.501785384717444:48.761550744742422] [-0.0062405223061702212:0.010792302542879519] [0:1] [0.0041390662147086782:0.95034619111408836] [-0.27061014031045161:0.27085762106886491] [-0.23053061631408694:0.2215177700532226] [2.0450480348799562:3.6781305551625425] [-476.40131348914235:452.09269761072574] [-0.01984548311380141:0.021397889159232908] [0.068316092853660165:0.60594187708115377] [0.0069871086874448707:0.13230039136627941] [-0.10137259727074266:0.23840709405791305] [0.00035816277037090322:0.15677695069571143] [-2052.7417102190684:1405.6879714581139] [-38.848672652502245:43.035915578982092] [-0.083530802997158385:0.08947087199848977] [-0.0062405223061702212:0.010792302542879519] [0.06594741158577333:0.61938868799731395] [-0.0065299980536760449:0.0096464327802692207] [-0.27561394517826776:0.27545476346755077] [0.15729276110187548:0.82475353141726948] [-0.26394999070925773:0.27153830338980955] [-0.097899246247389118:0.11677690177383333] [-0.2406325241712719:0.24255241449913478] [2.5719386298989928:4.2169870819319302] [0.0050758802964122659:0.092859675245385687] [0.0024690101797216341:0.019732598668439912] [-0.0084471846767801839:0.01061722322363259] [-0.01913669676416685:0.010114624831223828] [0.0060738552604817121:1] [-1.6940634608110701:2.0498784917874882] [-0.40973065427732691:0.17142042682501513] [0.00041700801585625074:0.0070707829578304845] [-0.17617501794509272:0.2140559945013365] [-2295.3670907952328:2289.670510252869] [-0.0074799154074393168:0.0077628415980575804] [-0.20265272813058233:0.20420074433047891] [-0.007942805807075546:0.0087689020239160639] [1.371409791049169e-05:0.12154097834286141] [-0.0085501911176036442:0.011928349755154567] [-0.11863940978120616:0.096839506429955743] [0:1] [0.56643767332414952:4.1381636494231859] [0:1] [-0.12417638680206335:0.08272756229303431] [2.7031899791990552:4.1066896963127721] [-0.086825776419379164:0.094384354375114832] [0.0062825238654240154:0.037612362254259318] [-0.45995794956116098:0.49789307873674948] [0.0026344063892563942:0.022484076738107629] [-0.26169492072440337:0.26849350610467776] [0.0030348340382788793:0.028216860488279084] [3.9876511785766597:41.588509136119754] [0.018393552788942068:0.99460901001491098] [-0.17511490709966759:0.2183213288176562] [-0.046630197310034149:0.042555860724686423] [-0.083655304787232154:0.10797869294439844] [0.36595390653483212:0.81305103148600044] [-0.0084474749161359882:0.010617252961538901] [-1:1] [0.11883083640059833:0.46586042161176466] [0.53784333609290635:0.99002181868502392] [0.00027734351207904154:0.0052073110889566841] [0.015420009762030016:1] [-444.1805612886107:518.29315427760321] [0.66874315346539337:0.98855186963967889] [-0.13199223581104436:0.10424328515633946] [-0.0084999072439548816:0.0076858792022148573] [-0.080172703857047806:0.082328507840010834] [-0.15215288699867924:0.1342431248401369] [-0.11362031424854147:0.17791145726498625] [0.0024485845773593233:0.027365755329293084] [0.013823007861782444:0.92182916273426807] [-0.10179584594684687:0.23648285311237771] [0.01804378508788106:0.84289244373677175] [-5587.2454388678016:4739.4619264781213] [0.018360264194280305:1.1930659319527788] [-0.10221361964612338:0.087213519849046794] [-0.0927582357026802:0.080218874578268845] [0.17743236647070504:0.67335079902317752] [0.57026589306584397:0.89147849260474532] [-0.10179580242394826:0.23648293264049558] [10.252077782033329:94.654240204163742] [0.00096050459065265368:0.23054116721450096] [7.3355513055002133e-05:1] [1.1925937006002165:3.2186476477514665] [-0.18423316491778524:0.20054848094419037] [-0.067358441139169223:0.079177416542575596] [-0.11646911949855876:0.12598574837267021] [-32.332027586388413:30.967516856770956] [0.00066209553193850108:0.91342872096862526] [3.3799013120033772:4.2753270038203874] [0.0060775244405040689:0.15188323793209466] [0.70995253873727993:0.9958745774971306] [0.013523416079770525:0.38546907350342213] [-0.067016071717587167:0.080877057894697124] [-91.785714285714306:95.714285714285737] [0.00079230400093723767:0.040275539037855808] [-0.904365281269639:0.90318277683989612] [-1626.7428034578388:1959.4868200336755] [0.0062820339310179409:0.03761139932444147] [0.001848107863981071:0.025143429070616174] [0.0022275475444252972:0.025522537133816865] [0.012744663615231785:1] [0.0041390662147086782:0.95034619111408836] [0:1] [-0.52353608014675757:0.65098547275956897] [0.012459027590155457:0.38786579347855316] [0.32324296269271902:0.73456975896914201] [0.02453506277865268:0.99185440001357694] [-0.45818704494046736:0.3233484690264441] [6.8077367997735981e-05:35.883486879055695] [-0.011622922491410861:0.0088742633888336149] [0.012744663615231785:1] [-0.030335035781257069:0.031766324032962423] [0.72081907056872729:0.98838117617238774] [0.45559834727982845:0.54117824059021091] [-0.086825776419378276:0.09438435437511572] [-50:50] [-0.99999649708720939:0.99999690487179782] [-0.19653809563336577:0.25557995665098521] [-26.501785384717444:48.761550744742422] [-0.027002672356876589:0.02487698651610204] [2.0144788675558223:3.7028025440878847] [0.080881292477000793:0.89502735316554038] [0.0059064973075330009:0.038561427258821196] [3.199332911684226:4.0982194002729049] [-1.084406584340579:1.1581094751117473] [0.00035296312509908477:9.9347464350819905] [-1.8620783123947831:1.8710789334311944] [-0.99477063135157484:0.99641262014146403] [-0.08220881202226149:0.14026068852047091] [3.0633862366741516e-05:0.024913911309924697] [0.0048448638850515004:0.031662477431857093] [-0.0051052331487827741:0.0049524960699713879] [-0.097990163197970465:0.12318194605577873] [0.0026079684655266129:0.023643966295415909] [2.0981841177560208e-05:0.0033702283606358388] [4.4992762472391254e-05:0.99820489345492869] [-0.0074799154074393168:0.0077628415980575804] [0.0081732152470469673:0.87436630984052399] [0.45088230366830728:0.8522825104774221] [-0.11646911949855876:0.12598574837267021] [-0.046625077514761859:0.048891971724942085] [0.0018071975401053116:0.02497349394143358] [0.57026589306584397:0.89147849260474532] [-0.99999957064077361:0.99999430098709319] [-0.17617501794509272:0.2140559945013365] [0.76625899952644494:0.98562334480870617] [-51.113408632886319:55.40579385973129] [0.018360264194280305:1.1930659319527788] [-0.54084681743226892:0.49627992057299497] [-0.010718098984486012:0.012885570652043871] [0.0028730554482251664:0.066498253883554348] [-29.698778103705177:48.984842198786012] [-0.080170439936434967:0.082307207358964157] [-720.08374334905648:901.86856791158152] [-0.025261544581476447:0.032039088667126514] [0:1] [0.11384803432230051:0.85539146031492042] [-0.025169785186597515:0.025420252491516582] [0.0027698252682305372:0.071674744541537549] [-0.041480409338943987:1.0384545528237752] [-0.10796714107080518:0.11067890546264536] [0:1] [-3228.5622482112094:3703.8991270541778] [0.015224692989652615:0.44751774576869968] [122.50241822667189:548.93110908689209] [0.024700686391991272:0.96533718042858985] [-0.046625077514761859:0.048891971724942085] [0:1] [-0.17617501137022717:0.21405600616864406] [-0.08525466313765874:0.080384016903184002] [0.0043511800129412111:0.29825787537135012] [-0.20034217598635051:0.20399096291680779] [0.00010363032420651525:0.0382780783510977] [0.0024315206889248724:0.056296132774987295] [0:1] [5.2068147407568244:221.44120076245758] [0.00060587710413333011:0.037835830354689653] [-0.098741836700967145:0.14309862006915708] [0.25047999223176537:1.3014699327265773] [-0.88799075723115473:0.87779801925461187] [0.17767301269163913:0.68017088443893126] [0.0079247413647109584:0.37836934494853597] [0.0014600309533372466:0.018512628317735421] [0.00013800963988218359:0.041012836298178652] [4.279674114293894e-05:1] [0:1] [0.0075533047205595073:0.044167207972782466] [0.14540656497388005:0.72179022795738101] [2.3157204244874379:4.0761099012347719] [0.17711001378167557:0.79519755930749358] [3.2009448299161023:4.0985525558292704] [-0.18613760506704019:0.16601176301495738] [-0.007942805807075546:0.0087689020239160639] [3.3127548492282122:4.2282975112076731] [0.57026589306584397:0.89147849260474532] [0.00082307635914435733:3.2326686640637505] [0.0056947975476301597:0.041076101918211483] [0.00022112321146251042:0.34035758446488196] [-0.010602930654895303:0.0082651651505102723] [-0.2406325241712719:0.24255241449913478] [0.4860213280992684:13.648029440586907] [-2637.1151348370186:3171.0944905159413] [0.71202525853969934:0.93028130239095974] [-0.0070767864993871001:0.010277513579406745] [-0.21734551264323942:0.21879112799089417] [-0.041480409338943987:1.0384545528237752] [-2.777482242405056:2.4865961000645989] [-0.11559557188112247:0.11506645211473533] [0.0062309441901376352:0.038128917031100711] [0.79324736269163043:0.97767831900788305] [-0.041788852649666142:0.036231913735643051] [0.16395071355455026:0.7392301974483495] [0.0052921948511676035:0.62905629234374105] [0.17359603765049053:0.67949690943035634] [0.0027698252682306691:0.071674744541537549] [0.06260344672070528:0.62236443302789157] [-0.13199223581104436:0.10387068598079674] [0.047530876254567533:0.95213145007014466] [-0.14246642868646631:0.13371165291067783] [-0.0062866722427648196:0.0064575194219647723] [-0.15987797684956417:0.70114934309099475] [-0.1050122397103368:0.1223678500906189] [-0.016945776526005984:0.02355424435473099] [0.0014781755286449312:0.11263562574753853] [-0.24312162969022943:0.2519030480641023] [1.4817694447490808:3.683070354588029] [0.013382830951040325:0.22298978630997635] [0.093929028472302611:0.83132835857849774] [0.36595390653483212:0.81305103148600044] [0.00032080104785938942:0.0059570893615829559] [0.00054426624743454883:0.92871455467427477] [-0.1110219171984409:0.082064083575171656] [-0.12110544948738482:0.12326173729809362] [-0.23737631291532457:0.23807077130272575] [-0.0085501911176036442:0.011928349755154567] [8.3888757225118797e-05:0.035519573869855908] [0:1] [0.011818939770986775:0.1070102071689011] [2.5472631923106777:3.818864764584788] [0.0012161087796384044:0.033896887245093967] [-0.31903077062507634:0.27651819110636033] [0.0016936600513331641:0.049334440019366731] [2.1736171794722794:4.1397438260193127] [0.00010522079274850089:0.033211518172038011] [0.007250288280817579:0.036029533129478188] [-1.0844065843405817:1.1581094751117544] [0.32285050655328562:3.5530649107303072] [0.00029926524072708047:0.0065585765463365333] [-0.23413118668271787:0.2215201664149333] [0.15008687798052045:0.73505643527703013] [0.069079360013199226:0.60031673192628943] [0.0021096138957721056:0.41245580392764236] [0.03569789207327255:1.6354566527868197] [-0.24885847567031461:0.079328603676554033] [-0.0051086734779339739:0.0048623682822175615] [-1.1324930568690723:1.1591875911739564] [-50:50] [-0.10685804481719352:0.11955500094473399] [0.0012919758205351792:0.066726304778449666] [-0.086825776419379164:0.094384354375114832] [3.3321025230780896:4.2104826861494349] [0.0063617235628220256:0.035470398002097288] [-0.10732586221911214:0.10528481243365277] [0.020598249859058351:0.99447911088013397] [-0.23869028237116457:0.25790213535301315] [-0.080898611225826297:0.11718665628215796] [0.70062775973731917:0.99434001042994302] [0:1] [-0.26716421681807007:0.15963782503929147] [-0.19829232154720872:0.20090332170507019] [0.16561331351940789:0.81286688541829411] [-0.29446168057023031:0.12400601699649427] [7.9113296023273426e-05:0.035430772455811499] [3.3731176494034773e-05:1] [-0.27586753034323969:0.28772245383194384] [0.25786188904983892:0.72374031439449915] [0.0082338625451544509:0.13263769219905913] [-0.25711167128970569:0.2475322487040173] [-0.31922800909189775:0.314019345593474] [0.76042631167798358:0.98654019909718471] [-50.08302923860402:-49.91193409915499] [0.054022999400597807:0.24262611485698762] [-0.0067976237430495525:0.0082776602994366569] [0.005187067435634264:0.042020525496040767] [0.0011536368225218486:0.14702290606355192] [0:1] [0.012812856962002895:0.38701410884186899] [2.8846188201288467:4.0617219629006209] [0.0029836472903219868:0.027079094881106984] [0.16292001707127987:0.77449631264473273] [0.42256809270039264:0.56325759805348263] [0.0032896165411174846:0.43574341650525727] [-0.084385676324543871:0.086497171187931529] [-0.99790361062554866:0.99824474391325302] [0.02453506277865268:0.99185440001357694] [0.0072849828886009365:0.12492539015826042] [0.0067211265640284958:2.7695038396794565] [0.005432657097737238:0.035684142821434658] [0.00016886256118764435:0.25365537330537929] [0.0070586229051962735:0.037225532225048798] [-0.11102264845766298:0.08206413346398031] [0.0027786287010111042:0.029961272317874259] [0.047473928988800873:0.95200937797672158] [-86.863005030800892:71.45107032861894] [0.04954875429723974:0.33256143192496213] [-0.0094931606498563064:0.013400389353422975] [-5.0642090848889865:5.321886093545416] [0.049675003049709864:0.33257208367669144] [3.2809519342262504e-05:0.99737328019802884] [-0.11646911949855876:0.12598574837267021] [-1.1775472229240953:1.1490896805098405] [0:1] [-0.21734551264323942:0.21879112799089417] [0:1] [-0.030335035781257069:0.031766324032962423] [0.17424329194295676:0.77677427670449006] [0.25974273017605676:0.74084325367065174] [0.0025027110214489346:0.040826357635297614] [0.0024808134174055716:0.060129659995952198] [-69.607005162432685:46.603868930689266] [-0.098559287669562387:0.087578251844104185] [0.0023763170107111678:0.023001825023653007] [0.00010184903752816189:1] [0.79694950066302095:0.97685038971601001] [0.0011116998675908883:0.19853301099649515] [-0.28334654996330894:0.27107465028233702] [-0.081001853712876937:0.076842238332154977] [0.0011116998675908883:0.19853301099649515] [0.0017004563092883462:0.12685158351802867] [-0.059560313956522837:0.054292993122994793] [3.3803736853293326e-09:8.3998559145678336e-08] [0.00020533583529906674:1] [-528.02479513332128:489.8762073528107] [0.0053227256595768961:0.042672590417982624] [0.0062995682122815137:0.34568426286184795] [0.0044381628185546354:0.13590182403227405] [-0.47573076174605544:0.49190324831348609] [0.0011205391458362246:0.24268809809499783] [0.0025027110214489346:0.040826357635297614] [-0.011622922491410861:0.0088742633888336149] [-0.090224393241817441:0.086086180428145226] [-0.50771738501023655:0.51577479550785466] [3.3805875865323989:4.281025636094431] [0.0065758700992557297:0.035621576355585056] [-0.25961901158047901:0.24041431621221659] [0:1] [-0.0082289868457234069:0.0073518937511796471] [0.79737592252866307:0.97748858270901717] [0.024700686391991272:0.96533718042858985] [0.36187423047338563:0.77356759481959625] [0:1] [0.0036323051129892149:0.42470992668272517] [-0.27438637445398217:0.088531073883006517] [-0.10965516294439488:0.10303170589575422] [0.12306858727710246:0.86699371584367912] [0.0063033583597359314:0.037519186522369068] [0.73926747371330759:0.99636718358479104] [2.5472631923106785:3.8188647645847884] [-0.084743435263444786:0.088421553328056138] [-0.024886565664841598:0.025433191308919856] [0:1] [0.7520746496510553:0.98296223079749723] [-0.090612960000017839:0.10151237508153538] [0:1] [0.014828878918201362:0.1198184719022887] [1.0403053237303892:13.702249742524671] [0.06354999996123778:0.99325631022760119] [0.013373574835659239:0.38488157567292941] [-0.41613358726748118:0.95785395931214712] [-0.0084999072439548816:0.0076858792022148573] [2.5472631923154041:3.8188647645913627] [0.0027698252682306691:0.071674744541537549] [0.014181520314562806:0.98847611563308446] [0.0028389636682641067:0.021030024616088085] [0.0066328269673751414:0.03344952065115394] [-0.10179580242394826:0.23648293264049558] [0.30096193544744659:0.7588804386890422] 