tree
version=v4
num_class=1
num_tree_per_iteration=1
label_index=0
max_feature_idx=615
objective=binary sigmoid:1
feature_names=williams_r frac_c_h3_diff fisher_dt corwin_schultz_estimator trendflex_ddt frac_c_l3_diff cmma bekker_parkinson_vol vwap_dt adx_7_dt voss_0_dt frac_c_h4_diff acc_swing_index_dt roofing_filter_ddt frac_c_h2_diff cmma_dt_lag1 fisher_ddt deep_ssm_2 frac_c_o2_diff acc_swing_index_dt_lag1 frac_c_h5_diff swamicharts_rsi_4_curv20_lag3 frac_l_l5_diff frac_o_l1_diff williams_r_dt_lag1 frac_o_o2_diff comb_spectrum_18_phent20 frac_c_l2_diff frac_h_h5_diff swamicharts_rsi_3_curv20_lag4 frac_c_l4_diff frac_l_o1_diff frac_c_h5_diff_lag1 adx_14_dt cmma_ddt_lag1 frac_c_o5_diff_lag1 frac_l_h2_diff frac_l_l3_diff frac_l_c2_diff frac_l_l2_diff frac_l_l4_diff dft_15_curv20_lag5 mod_rsi_curv20 frac_l_h5_diff vmd_w32_0_mean20 frac_h_h4_diff cmma_dt frac_h_o3_diff cwt_w64_17_ddt_lag1 frac_c_o5_diff swamicharts_rsi_4_curv20 swamicharts_rsi_4_curv20_lag2 ac_21_std20_lag2 ac_21_std20_lag3 frac_c_c1_diff_std20 cwt_w32_17_dt cwt_w32_11_dt dft_14_hurst20_lag3 swamicharts_rsi_6_phent20 vmd_w64_0_mean20_lag5 comb_spectrum_23_ddt acp_pwr_17_hurst20_lag3 swamicharts_rsi_32_mean20 frac_l_c1_diff_dt sample_entropy_w32_spot_mean20 williams_r_lag2 ac_20_curv20_lag1 ac_20_curv20_lag4 bandpass_1_std20_lag4 swamicharts_rsi_5_curv20_lag2 fisher ac_32 frac_c_h2_diff_phent20 frac_c_h1_diff_mean20 sample_entropy_w32_array_lag5 ac_42_curv20_lag2 swamicharts_rsi_31_dt frac_h_l3_diff_hurst20_lag5 vmd_w32_0 reactivity vmd_w256_0 hurst_coef_slow_dt_lag2 sample_entropy_w64_spot_lag4 acp_pwr_12_dt adaptive_stochastic_curv20 voss_1_mean20 frac_l_o5_diff cwt_w32_20_dt_lag1 frac_l_h3_diff adaptive_rsi_mean20 dft_5_std20_lag3 frac_h_l4_diff swamicharts_stochastic_25_ddt forecast_oscillator_dt_lag1 ac_18_std20_lag2 frac_o_c1_diff_std20 swamicharts_rsi_15_std20_lag5 frac_o_o5_diff lg_ssm_3 forecast_oscillator_ddt_lag1 ac_24_std20_lag1 stc_hurst20_lag5 frac_c_o4_diff voss_1_ddt acp_pwr_33_mean20_lag3 cwt_w32_5_lag4 ac_16_curv20_lag5 swamicharts_rsi_3_curv20_lag1 cwt_w32_1_mean20_lag1 frac_c_o2_diff_mean20 swamicharts_rsi_2_curv20_lag2 cwt_w32_1_mean20_lag2 swamicharts_rsi_3_curv20_lag2 norm_on_balance_volume_curv20_lag3 frac_l_l2_diff_mean20 swamicharts_rsi_3_curv20_lag3 acp_pwr_6_ddt_lag5 cwt_w32_1_mean20_lag4 cwt_w32_2_mean20_lag3 frac_l_o5_diff_dt swamicharts_rsi_4_curv20_lag1 swamicharts_stochastic_9_phent20 frac_h_l3_diff_ddt_lag3 swamicharts_rsi_4_curv20_lag4 swamicharts_stochastic_6_phent20 vmd_w32_2_hurst20_lag4 norm_on_balance_volume_curv20_lag2 swamicharts_rsi_5_curv20_lag4 norm_on_balance_volume_curv20_lag4 conv_37_mean20_lag1 reactivity_curv20_lag3 frac_o_l1_diff_dt frac_o_l2_diff_dt frac_o_l3_diff_dt swamicharts_rsi_33_dt_lag4 swamicharts_rsi_11_hurst20_lag3 swamicharts_stochastic_40_phent20 swamicharts_stochastic_41_phent20 dft_12_dt_lag4 swamicharts_stochastic_29_phent20 dft_6_std20 swamicharts_stochastic_42_phent20 swamicharts_rsi_12_hurst20_lag3 vmd_w256_1_hurst20_lag5 frac_o_l4_diff_std20_lag5 vmd_w32_2_curv20 acp_pwr_23_dt_lag1 conv_22_lag4 swamicharts_stochastic_22_ddt_lag4 vwap_phent20 frac_c_l2_diff_mean20 swamicharts_stochastic_36_ddt ac_35_mean20 cwt_w32_8_lag3 swamicharts_rsi_14_hurst20_lag2 frac_h_c1_diff_dt frac_o_h3_diff_dt swamicharts_rsi_29_dt_lag2 ac_16_curv20_lag4 frac_l_o1_diff_mean20 ac_7_dt dft_7_dt_lag1 vmd_w64_1_curv20_lag4 swamicharts_rsi_33_hurst20 acp_pwr_14_dt acp_pwr_13_dt acp_pwr_10_dt dft_15_mean20_lag5 cwt_w32_10_ddt_lag5 vmd_w64_0_curv20_lag3 vmd_w64_1_curv20_lag3 cwt_w128_20_phent20 swamicharts_rsi_6_curv20_lag2 approximate_entropy_w64_array_std20_lag2 frac_l_l2_diff_mean20_lag2 vmd_w64_2_curv20_lag2 frac_l_l1_diff_mean20_lag5 vmd_w64_2_curv20_lag5 dft_12_mean20_lag5 acp_pwr_0_hurst20_lag1 approximate_entropy_w256_spot_std20_lag2 cwt_w32_13_ddt_lag1 evenbetter_sinewave_long_std20_lag5 adaptive_bp_0_dt_lag5 vmd_w256_2_dt_lag1 dft_13_lag3 dft_1_ddt swamicharts_rsi_33_curv20_lag1 swamicharts_rsi_32_curv20_lag5 swamicharts_rsi_32_curv20_lag2 swamicharts_rsi_39_hurst20_lag4 acp_pwr_8_hurst20_lag3 comb_spectrum_15_curv20_lag3 cwt_w32_17_ddt_lag1 trendflex voss_0 cwt_w64_19_std20_lag1 conv_39_dt_lag4 dft_8_lag1 acp_pwr_25_dt cwt_w32_8 evenbetter_sinewave_short_std20_lag3 cwt_w32_6_ddt_lag1 swamicharts_rsi_30_hurst20_lag3 ac_26_curv20_lag1 acp_pwr_32_dt_lag1 iqr_ratio_std20 swamicharts_rsi_12_curv20_lag2 swamicharts_rsi_3_ddt frac_o_o4_diff_mean20 dft_6_ddt_lag1 swamicharts_rsi_21_hurst20_lag5 acp_pwr_16_std20_lag5 frac_o_h2_diff_dt_lag1 ac_20_curv20_lag3 conv_33_lag3 comb_spectrum_30_curv20_lag5 dft_2_mean20_lag4 swamicharts_rsi_20_ddt swamicharts_rsi_21_ddt ac_19_curv20_lag1 sample_entropy_w64_array_std20 cwt_w32_0_hurst20 bar_low_dt_curv20 ac_6_dt approximate_entropy_w64_spot_std20_lag5 phase_accumulation_std20 acp_pwr_24_ddt_lag3 evenbetter_sinewave_long_ddt approximate_entropy_w32_spot_std20_lag3 approximate_entropy_w32_spot_std20_lag2 acp_pwr_34_dt_lag4 swamicharts_rsi_18_curv20_lag2 vmd_w256_1_curv20_lag3 dft_1_dt_lag1 swamicharts_stochastic_20_hurst20 sample_entropy_w64_array_std20_lag4 cwt_w32_0_ddt_lag2 cwt_w64_20_phent20 swamicharts_rsi_16_curv20_lag3 vmd_w32_2 comb_spectrum_27_curv20_lag1 dft_26_hurst20_lag2 swamicharts_stochastic_2_dt_lag3 swamicharts_stochastic_4_phent20 fti_0_curv20_lag2 swamicharts_stochastic_2_phent20 frac_l_o4_diff_hurst20_lag2 sample_entropy_w32_array_curv20 ac_27_ddt_lag4 comb_spectrum_4_mean20_lag2 comb_spectrum_4_mean20_lag5 conv_16_std20_lag1 ac_20_curv20 ac_21_curv20 swamicharts_rsi_40_mean20 ac_26_phent20 ac_36_curv20 frac_c_h1_diff_std20 frac_c_c5_diff_dt_lag1 ac_43_curv20 ac_45_curv20 bar_low_dt_curv20_lag5 conv_32_phent20 adx_7_dt_lag3 cmma_lag3 cmma_lag2 dft_39_dt_lag1 frac_h_l5_diff_curv20_lag2 frac_h_l2_diff_hurst20_lag4 approximate_entropy_w128_array_hurst20_lag3 swamicharts_rsi_2_curv20 swamicharts_rsi_25_ddt_lag2 dft_37_curv20_lag3 dft_37_curv20_lag1 frac_o_h1_diff_mean20_lag3 ac_34_std20 ac_33_std20 frac_h_h5_diff_curv20_lag5 ac_30_std20 frac_o_o4_diff_mean20_lag3 ac_28_std20 comb_spectrum_11_lag4 ac_24_std20 ac_23_std20 ac_22_std20 ac_20_std20 reactivity_dt_lag1 ac_18_std20 hurst_coef_slow_dt_lag3 frac_l_o4_diff_hurst20_lag4 cwt_w32_13_ddt hurst_coef_slow_dt_lag1 hasbrouck_lambda_ddt_lag1 acp_pwr_35_phent20 ac_7_dt_lag4 conv_0_phent20 dft_32_hurst20_lag1 acp_pwr_38_lag1 vmd_w256_0_lag2 ac_7_ddt_lag1 comb_spectrum_31_std20_lag4 vmd_w128_0_mean20 acp_pwr_30_lag5 dft_2_curv20_lag3 dft_28_hurst20_lag4 comb_spectrum_23_phent20 ma_difference_ddt_lag1 dft_27_hurst20_lag5 vmd_w128_0_lag5 dft_3_curv20_lag2 comb_spectrum_28_std20_lag5 acp_pwr_31_phent20 dft_35_hurst20_lag5 ac_0_ddt_lag4 fisher_ddt_lag3 conv_28_phent20 swamicharts_stochastic_37_mean20 evenbetter_sinewave_short_ddt_lag1 frac_l_o5_diff_curv20_lag3 aroon_diff_dt_lag4 comb_spectrum_11_mean20_lag1 conv_24_phent20 frac_l_h1_diff_curv20_lag3 conv_21_phent20 dft_13_curv20_lag5 dft_18_hurst20_lag4 amihud_lambda_lag5 conv_22_curv20 adaptive_stochastic_lag5 bar_low_dt_hurst20_lag1 frac_l_h5_diff_hurst20_lag3 aroon_diff_ddt_lag2 acp_pwr_29_phent20 dft_38_curv20_lag5 acp_pwr_7_lag3 swamicharts_rsi_6_curv20 approximate_entropy_w32_array_mean20 swamicharts_stochastic_7_ddt_lag3 comb_spectrum_14_mean20 acc_swing_index_std20_lag4 frac_o_o3_diff_curv20 comb_spectrum_27_std20 ac_17_hurst20_lag4 swamicharts_rsi_17_dt_lag3 frac_o_o2_diff_hurst20_lag4 evenbetter_sinewave_long_curv20_lag5 conv_24_mean20_lag1 frac_o_l3_diff_curv20 frac_o_l3_diff_curv20_lag4 entropy_for_jesse_curv20_lag2 entropy_for_jesse_curv20_lag1 conv_40_hurst20_lag3 frac_o_o2_diff_std20_lag2 conv_45_std20_lag5 voss_1_curv20 trendflex_curv20 dft_6_std20_lag2 comb_spectrum_10_mean20 fti_1_curv20_lag2 swamicharts_rsi_26_phent20 acp_pwr_37_mean20_lag1 frac_h_l5_diff_dt_lag3 dft_10_std20_lag5 homodyne_curv20_lag4 adaptive_bp_1_mean20 conv_5_std20 vmd_w128_1_std20_lag4 bandpass_0_mean20 cwt_w64_13_ddt acp_pwr_8_dt_lag4 cwt_w64_14_ddt vmd_w128_2_std20_lag5 dft_8_std20_lag2 swamicharts_rsi_20_dt_lag4 vmd_w256_0_std20_lag2 frac_o_h1_diff_std20_lag2 acr_mean20_lag5 fti_1_curv20_lag5 frac_o_h1_diff_hurst20_lag4 acp_pwr_3_dt_lag3 vmd_w256_2_mean20_lag5 frac_h_c1_diff_phent20 ac_6_hurst20_lag4 ehlers_early_onset_trend_ddt_lag4 swamicharts_rsi_31_ddt_lag4 vmd_w64_1_mean20_lag2 frac_c_o2_diff_curv20 swamicharts_rsi_26_curv20 acp_pwr_8_std20 fti_0_hurst20_lag3 sample_entropy_w128_spot_phent20 dft_31_dt_lag2 evenbetter_sinewave_short_hurst20_lag5 frac_l_o2_diff_phent20 sample_entropy_w32_array_mean20 dual_diff_curv20_lag5 comb_spectrum_2_std20_lag4 sample_entropy_w256_spot_ddt_lag4 dual_diff_curv20_lag1 ac_45_std20 sample_entropy_w32_array_curv20_lag1 dft_15_mean20 swamicharts_rsi_12_dt_lag1 frac_l_l1_diff_ddt_lag1 acp_pwr_1_dt_lag5 swamicharts_stochastic_29_curv20 approximate_entropy_w256_spot_curv20_lag2 vmd_w256_1_mean20_lag2 ma_difference_hurst20_lag2 bandpass_0_mean20_lag2 swamicharts_stochastic_22_curv20 vmd_w128_0_ddt adaptive_rsi_std20 vmd_w128_0_mean20_lag1 adaptive_bp_1_std20 homodyne_phent20 bekker_parkinson_vol_mean20_lag1 swamicharts_stochastic_5_curv20 frac_o_l3_diff_mean20_lag5 change_variance_ratio_std20_lag3 dft_0_hurst20_lag4 vmd_w128_0_mean20_lag3 ac_0_lag5 mod_stochastic_ddt ac_10_ddt_lag5 williams_r_curv20_lag3 ac_43_curv20_lag4 ac_35_std20_lag2 ac_20_std20_lag3 conv_0 frac_l_h5_diff_std20_lag5 swamicharts_rsi_34_std20_lag1 cwt_w32_18_dt frac_h_h3_diff_lag3 williams_r_curv20_lag4 swamicharts_rsi_1_std20_lag5 swamicharts_rsi_40_mean20_lag5 swamicharts_rsi_35_std20_lag1 frac_c_c5_diff chaiken_money_flow_hurst20 swamicharts_rsi_39_mean20_lag5 swamicharts_rsi_35_std20_lag2 cwt_w64_14_dt_lag5 mod_stochastic_lag2 comb_spectrum_1_curv20_lag5 adx_7_mean20_lag3 adx_7_mean20_lag2 ac_22_std20_lag1 cwt_w32_12_dt bandpass_0_ddt frac_c_l5_diff_lag1 cwt_w64_15_std20 forecast_oscillator_lag1 frac_c_l5_diff frac_l_l1_diff swamicharts_rsi_23_mean20_lag1 ac_41_curv20_lag3 ac_19_std20_lag2 cwt_w32_1_hurst20_lag3 comb_spectrum_17_ddt_lag4 frac_c_o1_diff ma_difference frac_c_o3_diff ac_37_std20_lag2 ac_40 cwt_w32_20_std20_lag2 swamicharts_stochastic_5_curv20_lag4 frac_c_c1_diff_lag1 ac_19_std20_lag5 ac_20_std20_lag1 comb_spectrum_17_ddt frac_l_h4_diff_std20_lag5 williams_r_dt_lag2 cwt_w32_0_hurst20_lag3 ac_43_curv20_lag2 ac_36_std20_lag1 norm_on_balance_volume_lag2 cwt_w32_20_dt ac_29_mean20_lag4 conv_9 comb_spectrum_36_hurst20_lag2 swamicharts_rsi_15_std20_lag4 conv_14_ddt_lag1 ac_27_std20_lag1 williams_r_dt evenbetter_sinewave_long_dt iqr_ratio_mean20_lag3 dft_2 iqr_ratio_lag2 ac_6_hurst20 trendflex_dt trendflex_dt_lag3 dual_diff_lag4 comb_spectrum_23_hurst20_lag5 acp_pwr_32_hurst20_lag3 frac_h_l1_diff_lag1 cwt_w64_20_hurst20_lag2 cwt_w32_3_std20_lag5 cwt_w64_17_hurst20_lag1 swamicharts_stochastic_32_dt conv_35_hurst20 ac_41 cwt_w64_18_hurst20_lag2 comb_spectrum_24_hurst20_lag4 swamicharts_rsi_39_std20_lag2 swamicharts_stochastic_33_dt sample_entropy_w256_array_mean20_lag4 ac_27_std20_lag4 frac_c_l1_diff_lag1 voss_0_curv20_lag5 bar_duration_hurst20 cwt_w128_19_std20 acc_swing_index_curv20_lag2 swamicharts_stochastic_1_std20_lag1 acc_swing_index_curv20_lag5 ac_22_std20_lag2 swamicharts_stochastic_22_curv20_lag1 acp_pwr_17_curv20_lag4 swamicharts_rsi_5_mean20_lag1 dft_23_dt frac_l_c1_diff_std20_lag1 cwt_w32_5_dt ac_4_hurst20 ac_29_std20_lag1 comb_spectrum_30_dt_lag2 dft_14 comb_spectrum_30_dt_lag1 acp_pwr_1_curv20_lag1 comb_spectrum_16_hurst20 deep_ssm_1 iqr_ratio_mean20_lag5 ac_3_hurst20 swamicharts_rsi_37_std20_lag5 dft_8 comb_spectrum_28_ddt_lag1 ac_39_mean20_lag5 cwt_w32_16_std20 approximate_entropy_w32_array_lag1 voss_0_std20 ac_0_mean20_lag2 adx_14_std20_lag2 ac_43_std20_lag2 frac_c_c1_diff_ddt swamicharts_rsi_32_std20_lag2 adx_7_std20_lag4 conv_34_dt_lag5 swamicharts_stochastic_23_dt_lag1 swamicharts_rsi_14_mean20_lag1 frac_h_o1_diff frac_h_o2_diff dft_16_lag1 conv_0_hurst20_lag2 norm_on_balance_volume_mean20_lag5 frac_l_o4_diff_std20_lag4 phase_accumulation_std20_lag1 comb_spectrum_6_dt entropy_for_jesse_mean20_lag5 approximate_entropy_w64_spot_lag1 phase_accumulation_std20_lag3 frac_o_l2_diff phase_accumulation_hurst20 swamicharts_rsi_38_curv20_lag2 adx_14_ddt entropy_for_jesse_mean20_lag1 ac_37_curv20_lag2 comb_spectrum_20_hurst20_lag1 swamicharts_stochastic_15_std20_lag4 ac_2_ddt bekker_parkinson_vol_dt_lag3 swamicharts_stochastic_2_hurst20_lag1 frac_l_o3_diff_hurst20 frac_l_l5_diff_lag5 dft_18_lag5 ac_44_std20_lag2 cwt_w32_11_hurst20_lag5 swamicharts_rsi_39_curv20_lag3 ma_difference_hurst20 comb_spectrum_38_ddt_lag5 aroon_diff_std20_lag5 frac_o_o3_diff phase_accumulation_std20_lag4 comb_spectrum_39_ddt ac_11_std20_lag1 swamicharts_rsi_32_dt comb_spectrum_17_dt_lag5 adaptive_cci_hurst20_lag2 swamicharts_rsi_43_curv20_lag4 ac_18_std20_lag3 comb_spectrum_37_hurst20_lag2 deep_ssm_4 adaptive_stochastic_curv20_lag1 conv_3_ddt ac_39_hurst20 swamicharts_stochastic_30_hurst20_lag4 swamicharts_rsi_35_curv20_lag2 iqr_ratio_std20_lag3 cwt_w32_15_curv20_lag2 cwt_w64_12_dt swamicharts_rsi_22_mean20_lag4 ac_18_std20_lag5 ac_41_std20_lag1 pfe_mean20_lag2 conv_29_ddt_lag2 acp_pwr_12_hurst20 cwt_w64_10_dt_lag2 acp_pwr_26 swamicharts_stochastic_32_hurst20_lag2 frac_o_o1_diff ac_17_std20_lag3 cwt_w64_11_ddt_lag1 adx_7_std20_lag3 frac_h_l3_diff comb_spectrum_34_hurst20 ac_42_std20_lag2 frac_h_c1_diff
feature_infos=[-100:0] [-0.074007506796679348:0.070378808537851847] [-2.2463550211773295:2.3684840720778517] [0:0.066497887390380497] [-0.50186759946412318:0.55742394498486014] [-0.066487172952906765:0.082195839386323771] [-50.07671473713733:-49.921651062591422] [0:0.13663043810091755] [-3400.4414559323923:5362.4107460181694] [-10.318428662559043:6.7776117342885733] [-1127.6224619250124:1128.8783949494332] [-0.078572416208886359:0.069312448341620439] [-151.10890985762853:177.81627437270686] [-57.772766760874219:62.926871500975722] [-0.076051560985137226:0.080304143409945489] [-0.033078652639410677:0.039348161080233979] [-3.5678836734968309:3.4837791694250146] [-4.0359644889831543:4.2476272583007812] [-0.067013453171570619:0.081306123460752264] [-151.10890985762853:177.81627437270686] [-0.071663175936026946:0.074170516307497394] [0.011149020915187364:0.044191791006693647] [-0.06460244122295794:0.073256623487183106] [-0.034865980319747608:0.039937098847971877] [-70.823892874593497:66.6310227592991] [-0.06229329507128651:0.081493657352601626] [1.9480182492723868:4.104821372900413] [-0.068372961620906822:0.083547379164639002] [-0.075916030669969728:0.066976869151090287] [0.013615254795021773:0.048488751198745614] [-0.0710520823651139:0.081206274607233203] [-0.054383496463087308:0.071900247167517486] [-0.071663175936026946:0.074170516307497394] [-3.4262286849635757:3.3173645560335672] [-0.052193014610566024:0.049924647113464005] [-0.070552698046511861:0.078958201952763041] [-0.071493662830995536:0.076689312185500069] [-0.07668737725627893:0.0860241027285642] [-0.054473028976833045:0.071863049729038217] [-0.061533359239700373:0.075786030534835291] [-0.06501763441050902:0.078554852759964489] [0.00051634047728211444:0.055895144636255778] [0.00565509756124985:0.037639794363505986] [-0.069251404438668868:0.065667400408287224] [-336.01848848185449:510.99131921775097] [-0.079640861230137167:0.068889314325907225] [-0.033078652639410677:0.039348161080233979] [-0.077670259209887904:0.080914521614302237] [-0.031662230932018698:0.026322243087539832] [-0.070552698046511861:0.078958201952763041] [0.011149020915187364:0.044191791006693647] [0.011149020915187364:0.044191791006693647] [0.0019163166702036727:0.11914255938945723] [0.0019163166702036727:0.11914255938945723] [0.0044570982575894294:0.029940553403405529] [-0.048623856790346309:0.049911794209960281] [-0.11525481328548004:0.11162567577364779] [0.61231644347280034:0.99563867330952027] [2.6905394137778433:4.1359123965233913] [-779.58216970805893:516.93719004192178] [-0.25465467088942029:0.19375524510664449] [0.65053521021175054:0.9896363819930416] [0.44617001870376904:0.55304120770088738] [-0.065366623868052823:0.10211867805355362] [0.1055842983572679:0.59009194508639207] [-100:0] [0.00034185053373044595:0.0055261673350418808] [0.00034185053373044595:0.0055261673350418808] [0.064292620324798128:0.74416936947914158] [0.0086663932083168495:0.039716494826904543] [-7.4337635711349552:7.5091273447592206] [0.16100415814318431:0.82248271680646312] [2.6661314639847427:4.1026671182157051] [-0.0048621124438514842:0.0056450735578412754] [0.12783337150988489:1.1100409844917325] [0.00088644415428353117:0.007295936091779834] [-0.08600560278544811:0.065979769284352563] [0.53452407491061649:0.99960630692314856] [-3623.3725139172134:4696.3868207593678] [-50:50] [-2428.7213980879396:4336.9717087830013] [-0.090950307465818114:0.068295910475126509] [0.040073273550209128:0.41296599564628639] [-0.19578314666413044:0.28352356977128779] [0.00473554515515851:0.076259285555872316] [-369.13564249905085:449.97836583758806] [-0.067134025759205546:0.074117570048895062] [-0.024891188588951785:0.026011667253647452] [-0.084207711100051347:0.062728611077324081] [0.005403151379577093:0.94852840975024699] [0:0.4479736195793953] [-0.066859241930459931:0.081174112407460614] [-0.13248118993345759:0.13727904332948748] [-3.7247160404358537:2.988968514740677] [0.0025429183639667811:0.10882541100836654] [5.648600983982611e-07:0.0016295368626584614] [0.0078949933251541479:0.25463176567080453] [-0.069939011391244726:0.070232895018962127] [-4.6054987907409668:6.0183510780334473] [-5.110418266583844:4.468782863901648] [0.0014462202913752119:0.1053732204691944] [0.72257990924903082:0.98809270850532871] [-0.069692573915777725:0.070314428392427353] [-210.1331945373081:215.75407257814436] [0.0002566902368842304:0.65137214349017758] [2.1807226752740108:3.5756768499717917] [0.00039254476767221246:0.0053443472541599727] [0.013615254795021773:0.048488751198745614] [1.9665864938828943:2.984060522892598] [-0.0081358492395175418:0.009883514358603903] [0.014683883772592218:0.055764072151433773] [1.9665864938828943:2.984060522892598] [0.013615254795021773:0.048488751198745614] [0.049832996640128448:2.1173383929755207] [-0.0062122702031588602:0.0060268460824972041] [0.013615254795021773:0.048488751198745614] [-0.27114044919307634:0.34406991650799867] [1.9665864938828943:2.984060522892598] [2.1913751458294701:3.0939643940090606] [-0.08966684682608915:0.079769283344230404] [0.011149020915187364:0.044191791006693647] [0.69214985382485184:4.0709201527623362] [-0.12121639400544779:0.10121933297821771] [0.011149020915187364:0.044191791006693647] [0:4.0863050327779193] [0.1607156577347662:0.76743429354440484] [0.049832996640128448:2.1173383929755207] [0.0086663932083168495:0.039716494826904543] [0.049832996640128448:2.1173383929755207] [0.054634907132661295:0.62078715455714018] [0.02112666553489221:1.9377671580530618] [-0.070818357052404371:0.056575553851619172] [-0.081782430098060771:0.10134038646133844] [-0.086068189560207342:0.097653916328374862] [-0.071276485451722493:0.067646417426255823] [0.77026655320587056:0.98128906917091607] [2.1666950497577022:4.1446955505029548] [2.1666950497577022:4.1593663585521563] [-0.35309195663507531:0.34089079993326721] [1.7538138920742454:4.1426073371561785] [0.0048599060931791248:0.4306922242912179] [2.1666948777750514:4.1761384506295993] [0.77699466369905978:0.98057559906225944] [0.29699427939585954:0.99510571747069698] [0.0049911356181202727:0.03481727287644542] [0.0018361281094327706:5.3960857233744193] [-0.16832180842712485:0.22760015172614656] [0.047465525815253817:0.95220463552338852] [-0.14463814809607112:0.14546895986714697] [0.68132131017857678:4.1870658843001198] [-0.0071729232377383241:0.0081194050702673264] [-0.13621411883908574:0.12441704339011744] [0.19615787695871831:0.75757339641423105] [2.5407039892692396:3.6723231070158366] [0.73577528813271875:0.98605956706236719] [-0.079966300120867667:0.053515027687434671] [-0.085476430705303447:0.073994308828423047] [-0.09072688654575356:0.072979939522087034] [0.00039254476767221246:0.0053443472541599727] [-0.0057285650886100391:0.0048619449978450158] [-0.023932397001829808:0.030536607496801205] [-0.42159007645052016:0.50687441970573621] [6.8937813129068697e-05:10.92625861135989] [0.75234323988265539:0.97799745794802406] [-0.1952459307406158:0.25738134804948415] [-0.19510699377215335:0.28446417241963928] [-0.19468523207972266:0.31720611294945167] [0.005222941669720327:0.99599610870853295] [-0.083095426518745796:0.13402428918404796] [2.5986928206317216e-05:16.929381343757193] [6.8937813129068697e-05:10.92625861135989] [2.6657450189682539:4.1369484200121889] [0.0060674772503039476:0.037504902490464655] [0.0047408075411818221:0.17176459958563542] [-0.0062122702031588602:0.0060268460824972041] [0.00064134799950927863:5.9876982712929196] [-0.0039146853741696894:0.0037784683220291231] [0.00064134799950927863:5.9876982712929196] [0.024714687484604862:0.99305137455098857] [0.65170261653954975:0.99020233451486572] [0.00013132329579970521:0.019503201437744821] [-0.091037519187522786:0.21361712027111102] [0.0016257071779288406:0.95051315351764065] [-0.92481757731259351:0.73452905546137182] [-792.97604381280951:576.44592759986813] [3.4358587359722388e-05:1] [-0.63492465641912277:0.5223465968553046] [0.0010776056544635686:0.015017722358939539] [0.00094426128112847852:0.01598308920773428] [0.00094426128112847852:0.01598308920773428] [0.76125054072648668:0.98239650601201578] [0.65952985568026878:0.98736679658699811] [0.00031525663546040986:0.025806702741244952] [-0.032044016169670453:0.027273219334499554] [-2.9080421622232633:2.6666896268396849] [-1558.8254300087544:1852.4637901171091] [0.0010058255662452693:0.037391819907826376] [-0.42431744526799131:0.41766684037383028] [0.00013160576858695054:1] [-0.17063832791553912:0.19140968737709224] [2.5407039892692396:3.6723231070158366] [0.0041914383740192457:0.95058681949296031] [-1.6296478725707524:2.7165691305651158] [0.80372853199975325:0.98082646097676285] [0.00040264364727290715:0.0055208026773874456] [-0.1674538617387904:0.19454644636995055] [2.0444517058346192:81.559760122075573] [0.0019010908660218959:0.028094664941039672] [-0.10905198000188965:0.12424124375575479] [-0.0095071900553028027:0.012154540756201157] [-0.50228187064294694:0.30238478243155376] [0.78394313124835269:0.97909574226084173] [0.00024715148004655641:0.33372492482804555] [-0.1177413469333829:0.084330521455249011] [0.00034185053373044595:0.0055261673350418808] [0.047567318303582906:0.95201252647668255] [0.00019414586622587652:0.015923140375891591] [0.018454624844692839:1] [-0.040087698946856709:0.045466876977993009] [-0.043312021337041706:0.044523526288535453] [0.00029088301739571543:0.005338050713501236] [0.0070917078427365889:0.17247529536462275] [0.4653313818242199:0.98218654848184894] [1.1735586300608701e-05:31.686037076637103] [-0.024287234855199014:0.029796216111594886] [0.0020266471736470298:0.1521378721354176] [0.0028820484196966007:0.65466237808801431] [-0.24584633049115218:0.24237730880454889] [-1.790337685759964:1.8256000389766034] [0.0086689005391137938:0.2064340359607883] [0.0086689005391137938:0.2064340359607883] [-0.15105876566235799:0.18182120673417457] [0.0016461111136233972:0.022166950259565929] [3.0712309529272608e-05:20.022113359173055] [-0.60552872279002146:0.64115646972440299] [0.6775125788631563:0.98677215780110117] [0.0070917078427365889:0.17247529536462275] [-2.1226281505025963:4.3873299988702961] [2.6667459579962753:4.1363960117376175] [0.0018007251501635461:0.023962843548512865] [-219.02987108138723:185.99066920948013] [0.00016799952705692111:0.018636888998215109] [0.68059030829119538:0.9886259428727745] [-0.27417927802431996:0.27699890344968831] [0:4.0534601300814419] [0.026095446245633553:1.2696847540355165] [0:4.0376270632777098] [0.41820268270389027:0.97996721470656045] [0.0057280247439981877:0.068691448944982511] [-0.014557515680909516:0.013419899455210937] [0.038629795981572859:0.95615021615557405] [0.038629795981572859:0.95615021615557405] [0.0022872183080273924:0.37697320767662901] [0.00034185053373044595:0.0055261673350418808] [0.00023769733219134557:0.0054573042688628327] [0.45887862228666654:0.53812155245310078] [2.3521676757888881:4.2158344542058472] [0.00059528035738586733:0.0070507904901573604] [0.00429877529256327:0.029211945779599964] [-0.081244566646433036:0.08919621625789656] [0.00083913400768929089:0.0074845460936674713] [0.00077995473953228309:0.0078450774018234606] [1.1735586300608701e-05:31.686037076637103] [1.4169457984017837:4.1323258703222985] [-10.318428662559043:6.7776117342885733] [-50.07671473713733:-49.921651062591422] [-50.07671473713733:-49.921651062591422] [-0.4115992964136026:0.36699921137733571] [0.0014734153321649943:0.017420203812402994] [0.44906910062882566:0.96038452075020109] [0.56681627031655168:0.99873588544913006] [0.014683883772592218:0.055764072151433773] [-0.04690619129221496:0.041524239076787872] [0.0001139187585626383:0.067568745971119198] [0.0001139187585626383:0.067568745971119198] [-0.0027915389561854291:0.0028793019183962765] [0.0023221761184401648:0.16003861023835658] [0.0023899291354195717:0.15627302749863214] [0.0013979279791045756:0.017811030993686128] [0.0020126201010828263:0.14255798525178309] [-0.0095071900553028027:0.012154540756201157] [0.0021601816757871387:0.1274267818938532] [0.0067017411010476709:1] [0.0014462202913752119:0.1053732204691944] [0.0016714867571547009:0.10916657956705338] [0.0020993680460756094:0.11562752356947685] [0.0018546041498232625:0.11955405316511476] [-39.924948667821603:44.464884472416571] [0.0025429183639667811:0.10882541100836654] [-0.090950307465818114:0.068295910475126509] [0.41820268270389027:0.97996721470656045] [-0.091037519187522786:0.21361712027111102] [-0.090950307465818114:0.068295910475126509] [-8.8774445913968506e-08:1.2464106541771889e-07] [1.4872965056157716:4.109326630422415] [-0.023932397001829808:0.030536607496801205] [0.056934555598493787:3.6855032485604631] [0.71690238239497484:0.99194387578191767] [4.6893435351142526e-05:0.84823658790232515] [-2428.7213980879396:4336.9717087830013] [-0.010256531819373471:0.012680334305882335] [0.00091548530780822634:0.23722569588680334] [-1074.8457929416827:1840.9898531246472] [9.0012394780923641e-05:0.98237440165133139] [0:0.11008061530449913] [0.71778844023996047:0.99463613440265897] [2.2835650002382697:4.1315574518382432] [-517.35544169401692:492.40990893028356] [0.6918684806757095:0.99411767429221853] [-2211.6842189000927:4165.4506492215942] [0.0013746669485383777:0.10947937054141135] [0.0015491387187001899:0.25745305440380067] [1.6674627789372363:4.1178105345894771] [0.68094607759782366:0.99066594796443075] [-0.006947378159182005:0.0078400690596387435] [-3.5678836734968309:3.4837791694250146] [1.4278266247739211:4.0264203297821881] [0.026646416463295224:0.97411460383703974] [-1.9763076522876077:2.1054303135874317] [0.0016921240651655953:0.021342627727216457] [-107.14285714285714:107.14285714285715] [0.025184833439823175:0.96390545425342877] [1.4285097398631481:4.0385172454785758] [0.0011850130213176813:0.017542042808992415] [1.3305282139702159:3.960410636658628] [0.0016379611418055669:0.055384196960460888] [0.67288549827362965:0.99386146086382099] [1.1650355994602539e-12:4.7540736791197755e-11] [0.00085271697594856209:0.12842009309264929] [-0.040986026884347188:1.0418918065867135] [0.43602976610307143:0.961211940369885] [0.46320685550591661:0.99872705201765632] [-178.57142857142856:185.71428571428572] [1.7273070660100152:4.1176973700052093] [0.00011009712440375937:0.06818899060343539] [0.00021735464766559629:1] [0.0060674772503039476:0.037504902490464655] [0.19005754383273629:0.73524820661113977] [-0.18300813462221954:0.18617846739125365] [0.025953390850379354:0.99506645004386896] [17.707905888401893:240.8494492546686] [0.0018630497642047549:0.023553770027023611] [0.0016160609452693239:0.24633343594087723] [0.7565428526802046:0.98988711667476159] [-0.12098151000255297:0.10272720557366866] [0.42386687642103033:0.94718310810651063] [0.00090212578493652977:0.27646818900344983] [0.051038801700071579:0.61953109537499329] [0.0019023438140391021:0.023720116036455276] [0.0019023438140391021:0.023720116036455276] [0.0034073425416037868:0.052025240216304447] [0.0034073425416037868:0.052025240216304447] [0.78821150740390211:0.98627485452671315] [0.0046835035259872844:0.033567497050468763] [0.011501118665790989:0.38718630535859078] [7.4679987565245043e-05:4.1849894939471408] [0.018689208499528952:0.15744797725740284] [0.0048599060931791248:0.4306922242912179] [0.025291338837670589:0.97837540835862469] [0:2.768424091408149] [2.6148648116237463:4.1342906001257553] [0.00016491483547408957:0.60111742349579478] [-0.076770079275703465:0.082911778820255105] [0.003300572223950078:0.43029276322212739] [0.053265734247094257:0.43278197068581398] [-0.31646772804218443:0.36476676037882516] [0.0016783960974427103:0.35471056938349343] [20.869073172099888:421.10724581143103] [-0.62924827597796529:0.63107672819107363] [-0.09081508724040166:0.21167525740681947] [-0.1805185739832339:0.29899690924187372] [-0.088917560556644126:0.23863708113044835] [7.7294251256138367:169.37020823239914] [0.0084087632712279547:0.41956421076360595] [-0.095461448144673944:0.10078683413670853] [72.779744215562687:2435.6777335858815] [0.0024056625441826627:0.019888046208773172] [0:0.34999999999999998] [0:2.768424091408149] [0.29556122785090766:0.85899736202096111] [-0.19344917179134113:0.28246557778752501] [-51.848755927124238:87.436507919259867] [2.4266643687672254:4.1076195306299512] [0.74640837780870661:0.98754948460601566] [-1.1999680830606549:1.3193804500681523] [-0.046029300047255806:0.038115088004461561] [-62.109155258767409:109.67383815216412] [0.001861500264860573:0.023553030510973537] [0.0011252339429609281:0.017757280596080234] [0.00047586203112577418:0.36126399013536903] [0.52953861523125678:0.99747739791117862] [1.2889047148344228:4.1040715285426508] [-0.41997332092978296:0.40788906316014917] [0.65449909014563401:0.99996687108441296] [2.3407903355037099:4.057500002550209] [0.21947265077241687:0.95845029106277069] [0.05908717473038394:0.4207786425101826] [0.0080660059056123275:0.40243549064692186] [-0.020899828517827665:0.020727497294676989] [0.05908717473038394:0.4207786425101826] [0.0049526774866440089:0.16502237178357484] [0.0057280247439981877:0.068691448944982511] [0.005222941669720327:0.99599610870853295] [-0.13523414554735724:0.15728212264997404] [-0.20453660864567833:0.2072798606098547] [-0.19278859259223835:0.30529729571380848] [0.0042209303668942827:0.053999454983251205] [3.6680053337095538e-05:0.0027040643712960221] [-363.10516037456352:618.67928269593858] [0.65948730283170465:0.99989383931202913] [-0.62924827597796529:0.63107672819107363] [0.0029632382645842933:0.060964175459343441] [-5173.2161833057908:5928.3591406438545] [0.026455594637239628:0.46024375820255997] [-1074.8457929416827:1840.9898531246472] [0.30293510908737115:0.62321933804278384] [2.5035767300595824:4.1792179719759481] [0.00048986274944971993:0.028499312336390137] [0.0023377814416339878:0.073869997582026753] [-0.0071743491893785068:0.0081199809223048685] [2.1099283055414841:30.442265496120907] [0.66004508019495522:0.99961610486313157] [-1074.8457929416827:1840.9898531246472] [0.82877852193180523:0.96538144156062211] [-0.087622687622322837:0.10336966880339576] [-0.011520383283233127:0.010282223506733912] [0.0075151063375493198:3.3897548320809205] [0.00083913400768929089:0.0074845460936674713] [0.00263278418056431:0.16251572573038053] [0.0018546041498232625:0.11955405316511476] [0.047425873762955761:0.95256317943493529] [0.0042294873244935055:0.035960866430224253] [0.0083662466100305494:0.12616368452424401] [-0.029147504782670364:0.029481617512352898] [-0.08655010150299651:0.071551881669227588] [0.0075151063375493198:3.3897548320809205] [0.14786909230578227:0.44273245951145768] [0.45887862228666654:0.53810433095372701] [0.0054005167659698494:0.12905989707489771] [-0.069586129517198281:0.070180089735457987] [0.59784721606671876:0.9855390213746843] [0.45666159164655235:0.5405674425204956] [0.0054005167659698494:0.12905989707489771] [-0.2009458222685736:0.17575260283367022] [0.00048300383443699018:0.99662812540114454] [0.0017378149132206999:0.057888047041991644] [15.280469401106711:74.80127384840651] [15.280469401106711:74.80127384840651] [0.0020993680460756094:0.11562752356947685] [-0.16517456679443532:0.15732163713901182] [-0.81779417582933234:0.62107566117945479] [-0.065750506903475947:0.075953998558569352] [0.0059033331693233663:0.17393179606335857] [-2.153404030282783:2.9599410555706176] [-0.065750506903475947:0.075953998558569352] [-0.060303139653725836:0.073339833175595934] [0.42684596044583045:0.58419895272332067] [0.00091615524873553682:0.0071236565524292455] [0.0022285789462402035:0.11579991894416042] [0.50605028285726428:0.99964751572903199] [-0.23773876256670678:0.19856093035795808] [-0.062281439780576965:0.08113986486054417] [-2143.3183338517701:1914.1501698631182] [-0.069584136107292915:0.077142436480697379] [0.0037618189437425321:0.16521346228196182] [0.20015118798651693:0.81796946271915261] [0.0017333579236381673:0.045009618135334252] [0.0023377814416339878:0.073869997582026753] [-0.054680004111509674:0.064728363865464905] [0.0022285789462402035:0.11579991894416042] [0.0018546041498232625:0.11955405316511476] [-0.23773876256670678:0.19856093035795808] [0.0043317657912082764:0.033753362857313167] [-70.823892874593497:66.6310227592991] [0.4653313818242199:0.98218654848184894] [0.00083913400768929089:0.0074845460936674713] [0.0037983502220924679:0.16420587967535397] [-46.190427410201806:48.761575499534047] [-0.024891188588951785:0.026011667253647452] [0.14933571583138011:0.7791106134059107] [0.047426680865132076:0.95239116713856553] [0.70983657189282501:0.98866036189029693] [0.0078949933251541479:0.25463176567080453] [-0.79903904941955028:0.62511343615122983] [0.0022194774554226667:0.12015672043980842] [-70.823892874593497:66.6310227592991] [-1.2259856050961599:1.4269897481099674] [-143.60684795958124:-15.967654038588762] [0.00019387520665896133:1] [-256.74496533840681:-10.870417293993878] [0.74640837780870661:0.98754948460601566] [-0.73244620646548486:0.83826744409647969] [-0.73244620646548486:0.83826744409647969] [7.7036733261100929:47.685982194692322] [0.78420063597937928:0.98442128264307849] [0.62952876267116042:0.99275376513708113] [-0.064902444611832144:0.05665582943029307] [0.74114968202662024:0.98778611328952415] [0.017665886274019132:0.27931225952519839] [0.75884499442124531:0.98297135097797872] [-0.23570858295248892:0.22630223121732923] [0.76402835715276052:0.99789549396260113] [0.19309718670152987:0.82392615753579634] [0.73550867951127608:0.98756424370873142] [0.71691208836084985:0.99159462729906545] [0.0060397905146985179:0.11784875028841699] [-0.23594644605599502:0.22617494105719327] [0.082271152780131182:0.4400537989971659] [0.0022194774554226667:0.12015672043980842] [-0.06364094822991305:0.068177007665892839] [9.2526693240468863e-06:12.343117328915358] [0.50695744610609972:0.9814565520148183] [0.0010057394150389408:0.037396046202279626] [0.0015138268955875501:3.7109146403158526] [0:0.45953271936373657] [0.0015138268955875501:3.7109146403158526] [0.0020993680460756094:0.11562752356947685] [0.0029632382645842933:0.060964175459343441] [5.0388452505467327e-05:0.050943719313973901] [0.27509745057618262:0.82859290598023028] [-0.36144084975770863:0.38065415098306021] [0.0022705934239955704:0.022507121792783743] [-0.57292221581592395:0.46839161803895157] [0.69419215700116021:0.98296187374153565] [0.0021595394545397724:0.13377765496646629] [-0.19059366594784111:0.054623113711645355] [2.787630846086334e-05:1] [-0.19059366594784111:0.054623113711645355] [3.1706274439917905e-05:0.05462192290170511] [0.67493463112812369:0.98226807231866786] [-4.5119462013244629:4.0944905281066895] [-143.60684795958124:-15.967654038588762] [0.74565595542464103:0.98695711989154922] [0.0076444207300488849:0.12784192696989066] [0.00013160576858695054:1] [-0.13733296927293415:0.088580170750392123] [0.22799800440057599:0.73827186409518908] [0.0049414349667016855:0.12983490401077627] [0.081588190680726369:0.84972115754130573] [85.482393110931696:984.50987411525739] [0.84209237445227125:0.96405195985129866] [0.5589911857126606:13.332747116448406] [0.00313581657809188:0.16572512084641247] [-0.17539084641991676:0.18504867903524755] [0.0057216220886502061:0.13087089636784383] [1.4076934349538663:23.630795849370241] [-0.36592692450330216:0.36198294036810585] [-0.24275715045293206:0.23985794351666845] [0.37890972412132939:0.64296704058189558] [-0.063542936162495997:0.082312937991919785] [-0.071292980988582985:0.082479196592128198] [5.1916634831907056e-05:1] [0.52898495098271869:0.9652730612158853] [-37.64116291533626:44.920404283228194] [0.0046821494136365157:0.037256277742862241] [0.0028820484196966007:0.65466237808801431] [-0.17036977492814154:0.17246169858775501] [1.1002267482548933:1.5894807713153882] [0.011270176651565933:0.41739376072237611] [0.0028820484196966007:0.65466237808801431] [-0.063652803520622678:0.068211828335188171] [0.81702267158803155:0.95882847844196895] [0.00091199508675085593:0.012443631876479195] [-3.8015404224967213:2.4437567133109397] [1.1002267482548933:1.5894807713153882] [0.00066001500948561337:0.0069577663036531848] [0.73973845936989224:0.98760249422190882] [0.012604488619639458:0.45187596186879403] [-0.0099723518133295608:0.012715765210236762] [-0.08814110650079976:0.071014496445317668] [0.5:0.98480454434772202] [0.48089327263206721:0.98157493654760086] [-0.06460244122295794:0.073256623487183106] [6.3368292777172454e-05:1] [0.0040784291865381848:0.16555897027716007] [0.68246284344494512:0.9966676866529548] [0.00070587073429036261:0.011067256150539748] [0.65948730283170465:0.99989383931202913] [-0.14420091432283244:0.090837563561280199] [5.7142857142857109:80.207002595198148] [-0.066843164036873182:0.081659915952809831] [0.0028820484196966007:0.65466237808801431] [-0.14719169260494913:0.085081587555548704] [0.001674967645618503:0.07775691163971421] [-0.078623826618786363:0.064170564923218598] [-0.26396994369364946:0.098223898089949802] [0.77689446212869773:0.98714979141907144] [0.0010685863283233896:0.012115131304671749] [0.0025429183639667811:0.10882541100836654] [0.73834241526333:0.99171433564001343] [-3.7647182941436768:4.2065348625183105] [0.00473554515515851:0.076259285555872316] [-1.4257842803456451:1.6468814953788244] [0.79319817275504056:0.97873049503842746] [0.73789586958296927:0.98203195991757664] [0.0013241050077590539:0.014669575523820316] [2.0444517058346192:81.559760122075573] [0.001749041942099851:0.023869662172029425] [-0.16620679940328564:0.15781429920460877] [0.42322927931527377:0.58975700940521636] [0.0025429183639667811:0.10882541100836654] [0.0047951511803452302:0.16590365681952357] [-78.355937628048991:93.622139779938067] [-0.3485881378653648:0.26735736505788577] [0.63787282296422287:0.99881890974372334] [-0.10121767060553744:0.10393065866912687] [0.00018970059555477098:0.95849789032026478] [0.74699656542749349:0.9812320247337043] [-0.054690377936897072:0.064800381973239299] [0.0027563692298517716:0.10245267585775579] [-0.069509598202156297:0.099874859199519772] [1.4076934349538663:23.630795849370241] [-0.079029767659224301:0.083368912517699414] [0.74766412042686514:0.99246388137817287] [0.0032024057995087805:0.16516183964578532] [-0.043791711485684295:0.045892956689995656]
tree_sizes=6235 6314 6199 5981 6461 6195 6271 6049 6762 6237 6434 6574 6726 6719 7207 6903 6917 7009 7111 7250 7136 7054 7008 6728 6992 6957 7091 6957 6996 7234 7032 7513 7238 6951 7223 7043 7092 7029 7203 7246 6994 7020 6971 7081 7156 7370 6968 7067 6967 6786 7264 6794 7001 6710 6653 6671 6650 6898 6976 6724 6581 6320 6512 6803 6647 6538 6598 6277 6765 6130 6389 6343 6668 5749 6165 6324 6084 6655 6239 5759 6143 5730 5972 6072 5776 5544 5670 4904 5882 5183 5376 4685 5292 5036 5161 4900 4650 4796 5187 4651 4247 3736 4410 3985 3470 3715 4062 3691 3095 3848 3525 3236 3117 3417 3006 3102 3404 3087 2432 2640 2535 2688 2116 1912 2141 2662 2050 1748 1526 1382 1490 2252 985 1121 906 764 751 899 680 903 468 791 470

Tree=0
num_leaves=57
num_cat=0
split_feature=1 2 0 3 14 7 0 32 16 361 531 475 163 206 166 289 127 103 110 80 2 179 365 463 337 135 52 181 461 481 69 583 2 532 293 245 94 0 203 429 108 585 12 521 301 101 565 243 582 524 174 135 202 56 0 27
split_gain=693.736 257.102 199.428 71.9894 62.0237 60.3646 40.1672 37.9535 32.8716 28.5373 28.4179 24.5973 23.2323 21.4081 20.2793 19.7473 18.8097 18.6 17.7534 17.1911 16.3359 14.8274 16.3647 14.7458 13.9541 13.7749 13.4654 13.1898 12.823 12.6305 12.391 12.141 11.7946 11.3903 11.3897 11.1069 10.9714 10.9269 11.8864 13.5671 10.7591 7.61997 7.57379 9.1581 6.77564 7.32475 9.41357 5.75623 5.44344 4.98915 4.03884 3.09757 2.04137 1.95259 1.89494 1.08113
threshold=0.0029101457249126618 0.078697937017110767 -71.951676324731395 0.0041823898022984654 -0.0019750448201284162 0.014111149250799428 -35.67793454371791 -0.0083575304778951663 0.17624383959493548 0.014544144877721441 -67.995835274420202 0.0021797736697458845 0.93375514841645668 21.800071838875713 -0.0055965785002749053 0.0035785176485480246 0.0240428242629574 -19.699525301439845 0.041725938822434396 -670.79498235057076 -0.24257556214478923 0.90087224804412336 -0.021438880920726818 0.0074743862638280249 0.48967874611235357 0.94079244989327571 0.01477675041605288 -0.0041884638912617058 -0.0048366175451663145 0.93293940364277994 0.026050294027874871 0.016729040414438349 -0.078392413808768865 0.93535440860185048 -3.9433195523713236e-09 0.30366392900267097 0.025504905881726308 -46.718066751853826 0.92180783706668867 0.020118651605511632 2.5914242994709129 -0.017153016887492888 -4.3111832191892168 0.006086879868441618 0.015094135899872085 0.89020423219858991 0.0029427304045527565 0.14937568783447081 -0.0013227897300308875 0.014609661892411622 0.00080782830967109337 0.934901650817623 -0.044641200347298231 0.0071473735396947466 -51.41689312393121 -0.0073977199193035765
decision_type=2 2 2 2 2 2 2 2 2 2 2 2 2 2 2 2 2 2 2 2 2 2 2 2 2 2 2 2 2 2 2 2 2 2 2 2 2 2 2 2 2 2 2 2 2 2 2 2 2 2 2 2 2 2 2 2
left_child=1 3 10 8 6 7 17 23 37 50 15 20 -12 16 -11 30 31 47 21 -9 -5 22 -13 33 -16 -20 -23 -19 35 -26 -2 -6 -7 -4 -18 -21 41 38 39 -1 -39 -30 52 -44 -38 46 -46 -3 -43 -40 -8 -42 -28 -51 -34 -41
right_child=2 4 5 11 13 32 9 19 -10 14 12 18 -14 -15 24 -17 34 27 25 28 -22 26 -24 -25 29 -27 42 -29 36 -31 -32 -33 54 -35 -36 -37 44 40 49 55 51 48 43 -45 45 -47 -48 -49 -50 53 -52 -53 -54 -55 -56 -57
leaf_value=-0.024795025256856718 -0.086355159966308645 -0.15331755033324371 0.011343961716438233 -0.049558007802240393 0.071275090557829893 0.049923648823212478 0.033891241401620649 -0.011522272521403589 -0.012547216052088641 -0.092989270781677957 0.099128396480653039 -0.10635195788243881 -0.040874853701407754 -0.012547216052088641 -0.052841125090337671 -0.14991443797439882 0.035243854858811062 0.019161592870219631 0.024462117065390303 0.092731716063089789 0.061507895330194545 -0.041169111110753373 -0.005223432469704083 0.049175526691960292 0.09977271873530813 -0.086844538802013288 -0.10992834395615546 -0.078615787108197693 0.05404203945640608 -0.012547216052088641 0.013982456940757048 -0.040693655005595762 0.087269877303207441 -0.095332387306016314 0.13789276906342471 -7.3635451529730986e-05 0.008566255255184849 -0.026778876783745215 -0.099872958939730916 -0.1666507053575943 -0.077813683519055946 0.06523667095038313 -0.13437585170482116 -0.037882943165237257 0.093660827381206804 0.1255138323273991 -0.011600819620055595 -0.063858078734796556 0.14721043294399538 -0.18084446905574492 0.11921122717139018 -0.15929685378705427 -0.18028281877181609 -0.1110560650955338 0.16085230957653784 -0.092234274382187939
leaf_weight=17.347170531749725 25.090552806854248 28.039932012557983 18.128705263137817 30.900298655033112 17.157152414321899 17.144526720046997 17.13505744934082 18.366069734096527 19.119196653366089 26.59049379825592 17.426081120967865 26.327877938747406 28.647230744361877 32.447585999965668 21.350169599056244 28.043088436126709 19.907044231891632 23.169542074203491 25.188401937484741 24.488934218883514 20.429119527339935 25.128429889678955 33.969621956348419 33.526457250118256 18.688657641410828 17.059303283691406 24.318487346172333 28.109373331069946 21.432236611843109 21.634880423545837 20.144408702850342 17.337701261043549 17.166621685028076 17.556127190589905 45.756404101848602 30.703967690467834 18.378695428371429 18.100297451019287 21.06545877456665 18.765044510364532 18.068733215332031 18.666562676429749 22.04332447052002 22.86904913187027 18.432354629039764 28.55821818113327 17.359796226024628 17.575065732002258 92.541176676750183 154.62964832782745 17.18556022644043 19.771318018436432 34.270747601985931 18.549775004386902 135.07296001911163 17.056146860122681
leaf_count=69 100 112 72 123 68 68 68 73 76 106 69 105 114 129 85 112 79 92 100 97 81 100 135 133 74 68 97 112 85 86 80 69 68 70 181 122 73 72 84 75 72 74 88 91 73 113 69 70 366 618 68 79 137 74 534 68
internal_value=-0.011341 -0.0653293 0.0685832 -0.104801 0.00239467 0.0949674 -0.0299629 0.0705665 -0.137257 0.00754121 -0.047281 -0.0669753 0.0125292 0.0560689 -0.0221091 -0.0856217 0.0786185 -0.0777203 -0.080824 0.0864749 -0.00585114 -0.0938755 -0.0494842 0.00232173 0.0085593 -0.0198636 -0.113367 -0.0333941 0.0928015 0.0431841 -0.0406961 0.0141898 0.14481 -0.0404527 0.109845 0.0443091 0.104349 -0.145232 -0.155193 -0.104168 -0.0970172 0.123862 -0.129446 -0.0895245 0.0700994 0.0855516 0.0469367 -0.123465 0.135469 -0.167878 0.0828284 -0.126685 -0.155826 -0.174809 0.154214 -0.138338
internal_weight=1603.94 957.062 646.875 604.977 352.085 527.523 219.479 358.139 322.473 122.585 119.351 282.505 46.0733 132.606 88.2642 73.278 100.158 96.8939 231.175 288.928 51.3294 188.928 60.2975 69.2113 61.6737 42.2477 128.63 51.2789 270.562 40.3235 45.235 34.4949 169.384 35.6848 65.6634 55.1929 215.369 303.354 247.413 53.1684 55.9403 132.64 103.502 44.9124 82.7291 64.3504 35.7922 45.615 111.208 194.245 34.3206 37.8401 58.5892 173.179 152.24 35.8212
internal_count=6376 3811 2565 2412 1399 2090 873 1420 1287 487 475 1125 183 526 351 292 397 386 921 1145 204 753 240 275 245 168 513 204 1072 160 180 137 670 142 260 219 853 1211 988 212 223 525 413 179 328 255 142 182 440 776 136 151 234 692 602 143
is_linear=0
shrinkage=1


Tree=1
num_leaves=58
num_cat=0
split_feature=1 2 0 0 3 7 103 451 418 428 561 531 17 549 163 475 103 10 400 80 310 289 261 78 110 284 20 202 540 67 5 272 200 116 71 135 2 9 419 547 389 14 556 64 527 145 583 13 283 59 235 518 573 214 4 302 327
split_gain=570.128 212.015 163.915 74.2279 52.849 49.2531 45.7269 32.2865 30.1824 29.0072 24.1114 23.4194 21.6247 21.0046 19.2318 18.8943 18.881 17.1496 17.0546 18.5662 16.5055 16.3225 13.6454 14.0394 13.3058 13.6715 13.0304 16.6152 12.6989 12.6846 11.8295 11.6932 11.668 10.9947 10.8446 9.71733 9.46369 8.9178 8.75187 8.63206 8.2756 7.63023 11.5181 7.5837 7.48544 7.01905 6.27555 5.69548 5.29949 5.64369 5.25193 5.19189 4.5484 2.5809 2.45327 1.72331 1.40956
threshold=0.0029101457249126618 -0.04412864370403418 -71.951676324731395 -32.943151129843493 0.0079777547041866969 0.014111149250799428 -18.350336981378742 -0.0093828066569211274 0.02931127843368787 0.025344667893195914 0.94283233607601391 -67.995835274420202 1.3646384477615359 0.0099609420013869066 0.93375514841645668 0.0022104049231089179 -0.81171919295819694 -35.965242598284327 0.079652933322487143 68.212149370308353 0.03213431534426086 0.0035785176485480246 0.0045978293691366469 -191.19027374556367 0.041725938822434396 0.021568960352129487 -0.0093998747104617874 -0.047004863629610531 0.93892497348426385 0.00222170715281006 -0.0044205064637689584 0.0034391134929933902 3.4153206494240842 0.00082056863985262827 0.63164609314513065 0.90434263015625216 -0.078392413808768865 -1.392604260681727 -0.0004726174154917391 -0.067224853393999293 0.089186667734312539 0.0013688444313797313 -0.015860980753044398 0.27932100602879095 -0.0059009189318321295 0.43168039096638661 0.033765749816095189 -8.0519555727560128 0.040261478119516601 -46.497023517690515 0.90041610987166598 0.0027746356352297327 0.18514977783812089 0.0014325841114420082 -0.087672275769277927 -49.401165139891653 3.1045706956113617e-12
decision_type=2 2 2 2 2 2 2 2 2 2 2 2 2 2 2 2 2 2 2 2 2 2 2 2 2 2 2 2 2 2 2 2 2 2 2 2 2 2 2 2 2 2 2 2 2 2 2 2 2 2 2 2 2 2 2 2 2
left_child=1 4 11 6 13 7 29 16 17 -8 20 21 31 26 -13 30 -4 -5 19 -12 -10 33 23 -9 25 43 35 -28 40 52 -6 -11 -30 -2 37 -1 -7 41 -33 -18 53 -25 -43 -17 -21 -44 47 -27 49 -39 51 -37 -3 -29 -46 -38 -51
right_child=2 3 5 8 15 36 9 22 10 12 18 14 -14 -15 -16 24 39 -19 -20 44 -22 -23 -24 34 -26 46 27 28 32 -31 -32 38 -34 -35 -36 50 55 48 -40 -41 -42 42 45 -45 54 -47 -48 -49 -50 56 -52 -53 -54 -55 -56 -57 -58
leaf_value=-0.059298013271931883 -0.063397804959299572 -0.062457664294435791 -0.047535671248396333 -0.10341926069882963 -0.032765951247058077 0.056805919037110464 0.08777702571557619 0.0035819621060175543 0.05878970264833927 0.0023621420449276447 0.019219514976960554 0.10170996807039166 0.064108902443948429 0 -0.025659530264058796 0.011397871890594904 0.0022350275979597114 0.028444300358773246 0.0055363416014491251 0.054818559144108991 -0.054111793184634785 -0.12508011130163718 0.00033930948062525177 0.01672082339198358 0.0018027608959670007 -0.14251565774675704 -0.00015179914279342177 -0.084653819914154785 0.0066124953969098959 -0.016805460106436299 0.075348298234072048 -0.035090564943210216 -0.099716092550711843 0.033098922552811605 0.03534241949263188 -0.042783430514249127 0.11074529988299611 0.067556692976394744 -0.13089106781439228 0.10412255831970058 -0.060077528415533557 0.018351615501451778 0.073910393101704094 -0.069396682901717063 0.080685481860953673 0.16298388846515879 -0.033866544065870051 -0.064852857149091378 0.070474794459420717 0.090950314701660748 -0.15801726325215978 -0.13496904881592114 -0.13796429806819716 -0.15549171490398478 0.15566550871088319 0.16224964963395355 0.15843884653316581
leaf_weight=20.74119359254837 28.080922722816467 20.766750648617744 28.847380176186562 17.516047388315201 19.080568999052048 17.134523421525955 27.973131477832794 17.587034717202187 23.661240294575691 22.863767623901367 25.134119778871536 17.38402658700943 18.372945234179497 17.062395364046097 28.636395961046219 23.122605443000793 17.341287910938263 17.853081911802292 25.36733104288578 19.883968889713287 24.823309928178787 27.887212038040161 17.835701212286949 19.611874938011169 25.893730491399765 36.166371032595634 18.809116914868355 19.708004519343376 18.045475050806999 19.027969896793365 17.391137734055519 25.588931247591972 18.702870190143585 17.108115419745445 28.149868875741959 16.989584073424339 37.447367608547211 18.363796293735504 19.746880024671555 17.907540991902351 24.226662665605545 18.336463958024979 30.196613684296608 18.77104377746582 17.119320899248123 22.703653618693352 17.020153969526291 25.277874946594238 25.929878398776054 18.124167174100876 126.38268633186817 17.417616248130798 42.151788726449013 57.255081683397293 48.209899351000786 113.89558465778828 76.415745437145233
leaf_count=83 112 83 115 70 76 68 111 70 94 91 100 69 73 68 114 92 69 71 101 79 99 112 71 78 103 145 75 79 72 76 69 102 75 68 112 68 149 73 79 71 97 73 120 75 68 90 68 101 103 72 508 70 169 230 191 453 303
internal_value=0.00105929 -0.0479549 0.0736269 0.00549495 -0.0893157 0.0975991 -0.0387751 0.0755064 0.045449 0.00159364 0.0617816 -0.031472 -0.0265206 -0.111916 0.0227272 -0.0443422 0.00957558 -0.0365177 0.0831823 0.100008 0 -0.0663665 0.0895245 0.0949896 -0.0603862 -0.07423 -0.117353 -0.0925182 -0.104418 -0.0950224 0.0178325 -0.052965 -0.047497 -0.025367 0.100869 -0.137351 0.14282 0.108261 -0.0815806 0.0584067 -0.123252 0.0786469 0.093886 -0.0243255 0.122142 0.117323 -0.0988725 -0.114313 0.125943 0.136814 -0.146244 -0.0956154 -0.116463 -0.140486 0.139635 0.151341 0.148081
internal_weight=1599.05 954.125 644.925 416.06 538.064 525.828 196.492 357.351 219.568 114.546 184.199 119.097 86.5725 355.341 46.0204 182.723 64.0962 35.3691 135.715 110.347 48.4846 73.0763 293.255 275.419 146.252 120.358 338.278 156.747 137.938 81.9465 36.4717 68.1996 36.7483 45.189 257.832 181.531 168.477 229.682 45.3358 35.2488 101.19 90.8486 71.2367 41.8936 85.2132 52.9003 78.4644 61.4442 138.834 112.904 160.79 34.4072 62.9185 76.9631 65.3292 151.343 94.5399
internal_count=6376 3811 2565 1657 2154 2090 784 1420 873 456 732 475 345 1425 183 729 255 141 539 438 193 292 1165 1094 584 481 1357 628 553 328 145 272 147 180 1024 729 670 912 181 140 406 361 283 167 338 210 314 246 551 448 646 138 252 309 259 602 375
is_linear=0
shrinkage=0.1


Tree=2
num_leaves=57
num_cat=0
split_feature=1 0 0 10 3 13 376 2 510 426 123 13 94 13 78 225 14 99 104 20 503 65 0 242 193 319 18 536 165 150 72 248 203 322 561 20 601 434 289 545 534 129 56 145 479 393 3 610 361 12 516 416 327 202 284 304
split_gain=476.373 219.167 118.187 65.7415 49.901 44.7785 41.5816 29.1024 26.347 26.386 26.2701 25.8479 25.788 25.4444 21.6609 20.7016 19.9998 19.9944 19.8598 16.6753 15.4707 15.2926 16.3878 16.987 15.1741 13.8613 13.3306 12.3369 12.3159 12.3115 12.9787 11.7666 11.2386 10.36 10.3107 9.25057 10.0392 9.10061 8.47518 8.35984 6.97844 6.7162 6.19827 5.87721 4.75423 4.74912 4.31867 3.48259 4.11193 3.29941 3.28638 2.38305 1.89002 1.38054 1.29071 0.592914
threshold=-0.0011308568746724878 -63.127306333331589 -30.481028926316963 1.9988811102424509 0.0085393725156707647 -10.04314474112793 0.0064060034098539871 0.46390783586440237 0.0011595379246314226 0.30152194257516801 0.029586260802784776 -11.221895921345235 0.019643446402245381 0.85782384847217952 -184.27152384737443 0.0086124375384681543 -0.0019750448201284162 -1.142580197927286 0.0097994759214501629 -0.0056819470456415892 0.93934450842010153 -28.103443999638667 -43.084695542290675 0.90304003833897262 0.0052913541889505486 0.0054706054418522691 1.0000000180025095e-35 0.44924156415616384 -0.00083670743647781029 9.4536249516357721e-05 3.5570559419717642 0.019573213182197378 0.91868274882856205 3.3374714170551951 0.95036121046655453 -0.0066923106461346752 0.029755680262768723 -0.0065805192964021606 -0.0055182051417343439 6.7721512148194964 0.46419093783392912 0.5233573120780709 -0.0047368339016935481 0.021117062833910086 0.48517415005325815 0.87450018485720238 0.0068877632638667686 -0.0073774071792667142 0.027988566827474994 -8.4113426381238678 0.027369208924524806 3.5616320563459216 4.2709933001705018e-12 -0.046465267828479366 0.018927565219358376 0.034660854202453996
decision_type=2 2 2 2 2 2 2 2 2 2 2 2 2 2 2 2 2 2 2 2 2 2 2 2 2 2 2 2 2 2 2 2 2 2 2 2 2 2 2 2 2 2 2 2 2 2 2 2 2 2 2 2 2 2 2 2
left_child=2 6 4 11 7 12 10 24 -8 28 27 -3 -4 -12 -5 -7 18 -13 -17 -16 33 22 23 42 32 -25 -19 -2 -10 30 -21 -27 34 -20 44 53 -37 -28 -29 -11 -18 43 -6 -31 -1 -33 -32 48 -45 -49 54 -51 -40 -34 -38 -14
right_child=1 3 5 14 21 15 8 -9 9 39 13 17 55 -15 19 16 40 26 20 29 -22 -23 -24 25 -26 31 37 38 -30 41 46 45 35 -35 -36 36 50 -39 52 -41 -42 -43 -44 47 -46 -47 -48 49 -50 51 -52 -53 -54 -55 -56 -57
leaf_value=-0.12823603262551536 -0.022757027692081107 -0.046335714873341288 0.012103577353023646 0 -0.018070256079419766 -0.038221174008650667 -0.052340924596267407 0.014522526612228984 0.041400417533627526 0.13907391171942585 -0.064078908581156765 -0.019077901607613572 -0.14968432346146093 0.06695182271931692 0.011627656855609521 0.10418059418121497 0.054585134939588303 0.016414798523938342 0.078127102196027365 0.021289681493193886 -0.073099120819926977 -0.10191503257030608 0.054221855784435558 -0.12471035630508959 -0.014749798183762526 0.030427776037178729 0.033334507822106195 -0.045725666265842797 -0.072645298504387668 0.056192996924798379 0.12493573755969545 -0.018015427576542047 -0.1006086997407 -0.018737279265109912 -0.0042510209314249366 -0.015737320777925046 -0.095484315836100342 0.12338476539273664 -0.16333096568800828 0.043875884780872079 0.146133839943244 0.057471458093957511 0.06122217270082965 0.12323057066493213 -0.04299452691652611 -0.10009530600887027 0.048485435492934582 0.079264781728698747 0.03994400134773983 0.10292176123717434 -0.12997503874089228 0.1530580599618819 -0.085483416250069819 -0.14707123667443894 -0.03779010778126532 -0.078854708729573966
leaf_weight=22.717103227972984 21.690405920147896 32.711530297994614 21.78041410446167 18.547426864504814 17.503277957439423 30.289146155118942 33.185103610157967 18.533237054944038 17.019767045974731 24.60616198182106 32.115464493632317 29.269010812044144 17.33585399389267 24.585510984063148 18.234650313854218 19.083520412445068 23.8296899497509 33.057096645236015 19.333156287670135 31.44352975487709 22.002227157354355 26.901215195655823 22.576009124517441 23.384638458490372 18.470535352826118 18.285570338368416 20.274412512779236 17.972653895616531 16.958538949489594 16.94755631685257 40.958012595772743 16.990031659603119 37.490186795592308 20.271301403641701 19.650006875395775 17.166430488228798 17.368697017431259 45.043810904026031 29.175055831670761 22.271589174866676 21.600969716906548 21.190785303711891 17.077522814273834 17.988462671637535 16.886321932077408 17.195381805300713 17.279882952570915 20.271203771233559 16.937520712614059 37.58569698035717 43.668020009994507 171.56721626222134 17.142483040690422 140.5627454072237 17.0880166888237 16.916431695222855
leaf_count=92 87 131 87 74 70 121 133 74 68 98 129 117 70 98 73 76 95 132 77 126 88 108 90 94 74 73 81 72 68 68 164 68 152 81 79 69 70 180 118 89 86 85 68 72 68 69 69 81 68 151 177 689 69 573 69 68
internal_value=0.000981682 0.0522727 -0.0573879 0.0858226 -0.0826096 0.00527601 -0.0245042 -0.102874 0.0198775 0.0508936 -0.0603237 0.0301256 -0.0697552 -0.00567571 0.106271 0.0330854 0.0510781 0.0506503 0.0192427 0.11103 -0.00791065 -0.0347289 -0.0194893 -0.0358141 -0.109326 -0.0621227 0.072127 -0.0947066 -0.0141225 0.115391 0.0777219 -0.0298603 -0.114251 0.0279488 -0.0683865 -0.123445 -0.0922183 0.0980846 -0.116647 0.0984544 0.10334 0.125824 0.0200041 0.130338 -0.0969192 -0.0641407 0.10549 0.134426 0.0885573 0.140395 -0.107396 0.145289 -0.140053 -0.13873 -0.0720234 -0.122075
internal_weight=1587.99 846.031 741.958 589.308 529.515 212.443 256.723 369.601 114.041 80.8561 142.682 160.356 56.0327 56.701 428.952 156.41 126.121 127.644 80.6902 410.405 61.6067 159.914 133.012 110.436 351.068 75.8556 98.3753 85.9806 33.9783 392.17 89.6814 52.471 332.598 39.6045 59.2534 273.344 95.2912 65.3182 64.2902 46.8778 45.4307 302.488 34.5808 281.298 39.6034 34.1854 58.2379 264.35 34.926 229.424 78.1247 209.153 46.3175 178.053 34.4567 34.2523
internal_count=6376 3390 2986 2361 2137 849 1029 1497 456 323 573 641 225 227 1720 624 503 510 322 1646 246 640 532 442 1423 304 393 346 136 1573 359 210 1349 158 239 1110 385 261 259 187 181 1214 138 1129 160 137 233 1061 140 921 316 840 187 725 139 138
is_linear=0
shrinkage=0.1


Tree=3
num_leaves=55
num_cat=0
split_feature=11 6 0 1 468 15 14 18 13 545 9 361 120 2 563 565 581 180 33 206 121 285 97 114 579 233 5 364 200 398 12 62 185 384 123 203 203 26 384 268 585 12 223 62 52 155 256 33 314 77 553 318 88 285
split_gain=405.696 165.621 93.3493 82.4092 52.6634 41.4283 38.0513 24.874 23.6127 23.1433 20.3056 19.0194 18.5983 17.8018 17.7172 17.7044 17.8621 17.1645 16.7887 17.2089 14.7908 14.18 13.0221 12.5996 12.5675 12.4292 12.0935 11.7252 11.6835 11.3723 11.1773 11.1024 10.9267 8.92785 8.54836 8.38538 8.20721 7.95965 8.54088 6.14249 5.6233 8.01892 5.44069 4.95227 4.92353 4.64022 4.35911 4.26953 2.90211 2.17115 1.99888 3.69317 1.59166 4.18837
threshold=0.0045281560320795328 -50.000058816311594 -71.951676324731395 -0.0039354953785889586 0.0065007027083503 -0.00018048047745011783 0.0016355313391646063 0.0056622989822810972 -7.4127068939528824 10.091031155039998 -0.62315709325022073 0.15902328991176173 0.024676622474663606 -0.036449588546068161 -0.16987413204670429 0.0027235632851357579 0.18876680353079123 0.0012667007902092016 0.68138339473103227 16.813359660145156 3.4427394179085575 0.029359897600769218 0.0044273884428401179 0.00054809888262288646 38.302634708923485 0.082863828499999667 0.0064581472131897445 0.15677195344586983 3.3783714552659982 2.3057211928332464e-05 -24.614291495906965 0.50713836559410586 0.031052916937716338 -0.0016824477290641735 0.027819544406808488 0.90389394904289599 0.93845715747518088 3.75189508713424 -0.0029442583008228436 0.0094443208788067608 -0.0065327582954194515 -18.976755157793942 0.94225101529568012 0.48086237583740365 0.024938468341909922 -0.00064806629667774551 3.9959532592165403 0.19677550299085492 -0.00072873345403035017 0.76766515062613228 -16.464841684594351 0.36343251102892898 0.0092904974046199382 0.040688359267127563
decision_type=2 2 2 2 2 2 2 2 2 2 2 2 2 2 2 2 2 2 2 2 2 2 2 2 2 2 2 2 2 2 2 2 2 2 2 2 2 2 2 2 2 2 2 2 2 2 2 2 2 2 2 2 2 2
left_child=1 4 12 5 7 15 10 23 9 31 22 27 -2 21 -14 16 -3 28 19 29 -9 34 -4 32 -19 -20 -16 -10 -6 -7 -26 -5 -1 44 -8 -34 -22 38 45 42 41 49 43 -15 -12 -29 52 -17 -40 -37 -42 -52 53 -45
right_child=2 3 6 8 17 18 13 20 11 -11 33 -13 14 39 26 47 -18 24 25 -21 36 -23 -24 -25 30 -27 -28 37 -30 -31 -32 -33 35 -35 -36 40 -38 -39 48 -41 50 -43 -44 46 -46 -47 -48 -49 -50 -51 51 -53 -54 -55
leaf_value=-0.03132053941279727 -0.10454151872274019 -0.087321407782933153 -0.063350566359890628 0.0034473155874290493 0.069903398024110677 -0.025706098762216592 0.030428376591577266 -0.082187649764680223 0 0.079770302622759123 0.12228583239224894 -0.016421004642185249 0.072292805440814192 0.060120856435148751 -0.067696886182209412 -0.14245740375812022 0.014127534976091731 0.013806126050935978 0.0067749826316877391 -0.079464210158332493 0.057787420407803394 0 0.035391505509083522 -0.031484020067065042 -0.11724390888479481 0.11770291075228614 0.03106304278681378 0.090125524924252146 -0.02379281761185115 0.073813402068587691 -0.023500053054580854 -0.096835545237393295 -0.050425664725030496 0.016204305502535762 0.12312542619638048 -0.062817685477356958 -0.032964278225633643 0.034532161326697529 0.06606352513974531 0.045053116456068631 -0.077960289319764453 -0.036750817166829167 0.055444022608611601 0.12716265616607314 0.042035717703719874 0.011807357486847482 0.061605646359923528 -0.063247807357901767 0.13815421476713849 -0.13519039553234075 -0.13903152338761465 -0.068743933846541747 0.15251288829916512 0.056537474400736615
leaf_weight=22.050684452056885 19.698063552379608 33.099405527114868 23.657815009355545 18.93736369907856 27.700046315789223 23.42177951335907 20.419349655508995 29.750497832894325 16.942085742950439 19.484405592083931 29.30829344689846 21.361565411090851 22.462950676679611 19.25445730984211 31.920009449124336 34.484235778450966 31.72685818374157 22.584578990936279 25.190960735082626 28.513999864459038 17.47426638007164 28.132661670446396 25.928398117423058 28.426979005336761 26.275670990347862 17.50242006778717 17.197822540998459 17.179474771022797 21.578905701637268 18.763434007763863 29.886802315711975 20.593375355005264 27.836244881153107 24.562325328588486 29.587933421134949 16.471713617444038 18.400338500738144 27.085867866873741 16.845145925879478 17.391342654824257 22.9233638048172 28.070184618234634 19.854179218411446 82.81530100107193 18.156315982341766 17.922996431589127 16.670655950903893 19.053358122706413 54.4276984333992 27.55674184858799 164.09030243754387 17.824081286787987 96.018304646015167 18.502494603395462
leaf_count=90 80 134 95 76 111 94 82 120 68 78 118 86 90 78 129 141 128 91 101 115 70 113 104 115 107 70 69 69 87 75 120 83 113 99 119 68 74 109 68 71 94 114 81 337 73 72 68 77 219 114 677 73 394 75
internal_value=0.000859143 -0.0369187 0.0689472 0.00702009 -0.0739914 -0.0347881 0.0868946 -0.0910659 0.0492802 -0.00404531 0.0370643 0.0679028 -0.0226003 0.103802 0.000770073 -0.0758044 -0.037416 -0.0168284 0.00784267 -0.0212133 -0.0317616 0.0578284 -0.0107639 -0.10161 -0.04579 0.0566631 -0.0317382 0.0804267 0.0279462 0.0179463 -0.0707761 -0.0487486 -0.107289 0.0705219 0.0889358 -0.112338 0.00981899 0.0902622 0.103002 0.116369 -0.117952 -0.0858616 0.120646 0.125442 0.0955893 0.0545386 0.13046 -0.118391 0.124047 -0.11304 -0.128099 -0.133242 0.135333 0.116121
internal_weight=1572.98 1011.44 561.539 462.536 548.901 231.756 470.26 420.875 230.78 59.0151 121.613 171.765 91.2788 348.647 71.5808 118.364 64.8263 128.026 113.393 70.6992 65.6251 78.1399 49.5862 355.25 78.7471 42.6934 49.1178 150.403 49.279 42.1852 56.1625 39.5307 326.823 72.0269 50.0073 304.773 35.8746 133.461 106.375 270.507 276.936 72.0986 253.115 233.261 47.4646 35.1025 214.007 53.5376 71.2728 44.0285 204.838 181.914 197.336 101.318
internal_count=6376 4101 2275 1863 2238 935 1907 1722 928 237 489 691 368 1418 288 480 262 516 455 284 264 314 199 1458 318 171 198 605 198 169 227 159 1343 290 201 1253 144 537 428 1104 1140 296 1033 952 191 141 874 218 287 182 844 750 806 412
is_linear=0
shrinkage=0.1


Tree=4
num_leaves=59
num_cat=0
split_feature=1 6 0 13 31 7 461 219 588 451 74 164 225 9 382 30 131 203 593 601 20 279 469 202 359 198 418 63 394 289 85 222 163 312 546 26 286 485 70 403 500 195 77 290 535 12 546 164 3 147 479 245 304 62 263 465 396 145
split_gain=337.892 134.286 97.2418 54.6207 41.5815 32.7127 28.4547 25.0031 24.8496 24.3216 23.8742 20.8411 20.1621 19.7586 18.9953 17.0065 15.9358 16.6082 15.4844 14.959 14.2614 13.0892 12.617 15.1007 12.5461 12.3889 11.0668 10.446 10.6529 9.84386 9.82845 9.22879 9.20076 8.89803 10.0707 8.81758 8.6969 8.48987 8.4529 12.6558 11.1785 11.1771 8.32111 9.18523 7.66141 6.31943 5.87764 5.12823 5.06183 4.88534 4.78917 4.51047 8.79056 4.15915 4.12349 4.00865 2.66394 2.31875
threshold=0.0033695246723433035 -50.000058816311594 -70.993562315105962 -5.6675829067763663 0.0039702525631888962 0.01513193627952595 -0.0029826094956605423 0.014412512536017998 0.016619198235491617 -0.0093828066569211274 0.53611436113775468 -0.0060024069990064896 0.0082727427866336137 -1.5742821230407553 3.640193731260053 1.0000000180025095e-35 0.012336740895019399 0.92323527438863373 0.95186224045702972 0.063292931640357569 0.0089046519732338802 0.035005542052810507 0.021395489471150362 -0.044641200347298231 1.1004007760053771 0.13902309522310441 0.031821740356090915 -0.0036480555899120544 3.5986286202342277 0.00053591305815170475 -48.925300608500017 0.8099573282961261 0.9411376999734602 3.6903063800337601 -0.017352888947741976 3.7074508145503207 0.016082562215911544 -3.9254101246102375 -0.12121816636330375 0.00099580001945609475 -0.073293961594518661 233.55769834161859 0.893454251927427 0.68252283017296611 -0.00013208427626051897 -23.083611776514029 0.0062606173231660464 -0.00011664539079821828 0.015209903507832067 0.054713554811027028 0.481740912650995 0.29335230038639126 0.034052672201594407 0.51328328163654879 3.2639011946170551 0.49025127481934883 0.19046731480488002 0.26458771753668703
decision_type=2 2 2 2 2 2 2 2 2 2 2 2 2 2 2 2 2 2 2 2 2 2 2 2 2 2 2 2 2 2 2 2 2 2 2 2 2 2 2 2 2 2 2 2 2 2 2 2 2 2 2 2 2 2 2 2 2 2
left_child=1 4 11 8 7 9 10 22 14 19 31 32 -8 -12 -3 33 17 -6 35 44 29 -9 23 36 38 -15 -27 28 -19 46 37 -5 -2 34 -10 51 -1 -25 39 40 -11 -41 43 -24 -4 -28 -13 -42 53 -7 -32 -14 -53 54 -40 56 -45 -47
right_child=2 3 5 6 16 49 12 21 15 24 13 20 18 25 -16 -17 -18 27 -20 -21 -22 -23 42 30 -26 26 45 -29 -30 -31 50 -33 -34 -35 -36 -37 -38 -39 48 41 47 -43 -44 55 -46 57 -48 -49 -50 -51 -52 52 -54 -55 -56 -57 -58 -59
leaf_value=0.037426929605236331 0.086167277566764247 -0.042120899397521575 0.077515457758134954 -0.097424175201576035 0.033388479758287404 0.061906993858394876 -0.021753352181892418 0.047407026204288959 0.0022122176116311362 0.0098254427375056054 -0.049173046884581101 -0.068325295033646094 0.14151648970222439 -0.022833989027243307 0.078936312919399718 0.0073343775652726251 0.043553616753924496 -0.073454247215024707 -8.296686701637126e-05 -0.06660047593249889 0.025403240366438647 -0.063233323959444601 -0.047148612490743966 -0.081914372449404901 -0.0042877275327236038 -0.0010219640100396039 0.029836731899845342 -0.10642641377618103 0.029503862820387524 -0.11117485749234808 -0.13806777714582197 -0.0031034699608259234 -0.0092759491117495787 -0.12784366103497094 -0.089775596942431951 0.03516777156577449 -0.057022087594727926 0.0072247050773701907 0.058854901355927886 -0.034896155878536637 0.13284644377808238 0.055042078020280938 -0.034047445128057872 -0.049152360300308881 -0.00059740397379207425 0.14442616182605453 0.0084065619798153988 0.05808312040824179 0.050356048849197477 0.13027748860208155 -0.068038121722793152 0.11919139953220342 0.015919916510907097 0.056513228286420483 0.13474980539392142 -0.14411417760163767 -0.11291598173527347 0.06583580802148005
leaf_weight=16.768872931599617 18.899883985519409 26.212430119514465 21.411438941955566 26.472015023231506 21.094777941703796 21.606909736990929 22.856487825512886 18.501521378755569 16.929744854569435 18.002279594540596 26.333166599273682 16.902617365121841 35.295957580208778 18.092545762658119 22.167064100503922 19.776060402393341 28.689873024821281 18.777857661247253 19.781302779912949 18.371581166982651 18.123962208628654 20.616358533501625 21.634022921323776 21.476994007825851 16.966488435864449 16.923126667737961 18.388120993971825 30.661585241556168 17.165262460708618 30.459567204117775 39.593895271420479 19.343484565615654 16.790274694561958 39.322326391935349 28.550376489758492 25.80480432510376 18.316849008202553 16.745439976453781 16.748060941696167 20.688836649060249 34.515711650252342 32.653554260730743 16.583256974816322 18.017555072903633 23.391211435198784 17.703725770115852 17.693138539791107 24.451393499970436 27.392442241311073 117.56634511053562 28.183901950716972 20.028425559401512 17.335792690515518 21.610551759600639 66.323594599962234 101.83686605095863 45.535516560077667 17.409860163927078
leaf_count=68 76 106 86 107 85 91 92 75 69 73 107 68 143 73 89 80 115 76 80 74 73 85 90 89 69 68 74 126 69 125 167 78 68 162 117 104 75 69 69 84 141 133 69 75 94 71 71 100 111 497 117 81 70 89 273 429 191 70
internal_value=0.000821425 -0.0360712 0.0595458 0.00311924 -0.0717426 0.0795135 0.0279135 -0.0876242 -0.045081 0.0619116 -0.000481242 -0.0207214 0.0604065 0.0234119 0.0126082 -0.0722631 -0.0182322 -0.0397272 0.0770017 0.00443518 -0.0483024 -0.00924337 -0.0962134 -0.0701503 0.0745367 0.0463541 0.065298 -0.0642443 -0.0231345 -0.0700947 -0.0888381 -0.0607 0.0408173 -0.0914876 -0.0550512 0.0929904 -0.0101644 -0.0422835 0.0799159 0.058922 0.0847937 0.0187796 -0.113191 -0.119445 0.0365349 0.0870511 -0.0284008 0.105534 0.0990744 0.121056 -0.112362 0.111261 0.075935 0.110125 0.121796 -0.127886 -0.0977126 0.112252
internal_weight=1555.5 954.927 600.57 454.727 500.2 481.7 301.769 383.811 152.958 342.527 160.666 118.869 141.103 114.851 48.3795 104.579 116.389 87.6995 118.246 63.1742 83.1793 39.1179 344.693 141.086 279.353 88.5174 70.4248 66.6047 35.9431 65.0553 106 45.8155 35.6902 84.8024 45.4801 98.465 35.0857 38.2224 262.386 130.312 76.9694 53.3424 203.607 187.024 44.8027 53.5017 34.5958 58.9671 132.075 139.173 67.7778 72.6602 37.3642 104.682 83.0717 165.39 63.5531 35.1136
internal_count=6376 3911 2465 1841 2070 1984 1218 1599 623 1396 648 481 570 463 195 428 471 356 478 254 337 160 1439 585 1142 356 283 271 145 264 442 185 144 348 186 398 143 158 1073 531 314 217 854 785 180 215 139 241 542 588 284 294 151 431 342 695 266 141
is_linear=0
shrinkage=0.1


Tree=5
num_leaves=57
num_cat=0
split_feature=11 6 0 1 4 33 14 54 203 26 189 19 500 611 465 478 322 172 9 375 19 198 75 290 156 148 205 128 26 526 529 387 391 30 250 97 361 35 333 384 469 28 58 585 19 102 446 10 163 451 477 11 152 381 77 447
split_gain=288.539 117.389 65.9886 58.2505 41.9439 31.2335 30.3265 24.3328 22.9671 21.912 20.2121 18.7202 17.9987 17.9377 17.8954 22.7134 16.7357 15.914 15.4877 14.9465 13.8048 13.6787 13.6424 13.0474 12.8481 12.7444 13.1339 12.2414 12.7681 11.7653 11.5123 11.1776 10.9765 10.6029 10.4302 10.1888 9.99311 9.72745 9.10062 7.63458 7.22298 9.72917 6.94583 6.64335 6.51793 6.3403 5.38912 5.24387 5.22294 5.12387 3.94518 3.57331 2.93758 1.99834 1.95561 1.48119
threshold=0.0045281560320795328 -49.99961689071074 -71.951676324731395 -0.0039354953785889586 -0.071884111151000116 0.44319202422910126 0.0016355313391646063 0.013039193212336266 0.92323527438863373 3.6553701683027904 0.0048474972726649948 19.214353529946298 -0.042548306555830133 10.325946501444845 0.49558473433555122 0.0025034310379887796 3.2440979083181554 0.021256422550552271 -0.62315709325022073 394.04686118891658 -31.33928098321638 0.44999235122301268 0.0026234568259947146 0.82540589840032774 0.0056488913566162214 0.046096131266294194 0.0019661804542561315 0.670334064411654 3.6938282407581284 0.047736091166710369 0.93498018831927832 0.011966747888278699 3.3823879539983839 -0.00839467120501944 0.58437196163719174 0.0044273884428401179 0.044745885430708877 -0.0058979654946403814 3.796209168851457 -0.0016824477290641735 0.031988817794567616 0.0044203469321004059 3.7095852912301788 0.00040362274693880878 4.8646746710166449 -0.0064017313393570337 31.10587243014098 -148.68063345928246 0.90067537106560824 0.0025199153504351789 -3.5919459205082762 -0.0061904856232667472 0.63843333004212655 -3.1131480122752095 0.76705850937506825 31.824221405658296
decision_type=2 2 2 2 2 2 2 2 2 2 2 2 2 2 2 2 2 2 2 2 2 2 2 2 2 2 2 2 2 2 2 2 2 2 2 2 2 2 2 2 2 2 2 2 2 2 2 2 2 2 2 2 2 2 2 2
left_child=1 4 16 5 29 11 18 8 10 22 -6 25 13 -5 15 17 43 -10 35 37 -8 -12 -9 30 27 26 51 28 32 -1 -7 40 -14 -13 42 -4 -19 -18 49 46 48 -42 -16 -2 45 -31 -20 -47 -22 -26 -43 -3 53 -50 -44 -17
right_child=2 3 6 12 7 23 20 9 14 -11 21 33 24 -15 34 55 19 36 39 -21 31 -23 -24 -25 38 -27 -28 -29 -30 44 -32 -33 -34 -35 -36 -37 -38 -39 -40 -41 41 50 54 -45 -46 47 -48 -49 52 -51 -52 -53 -54 -55 -56 -57
leaf_value=-0.012671812112107684 -0.019986600041779823 -0.14161514580346121 -0.058391225810224948 -0.055757994365622857 0.051603149289979347 -0.050849648130448323 0.017886742011922925 0.11310239548850232 -0.067845564847886231 -0.053447096578129155 -0.098104975496511038 -0.050110166162933727 0.015111164518333274 0.067579829537299282 -0.05400705553714872 -0.12165234769163683 0 0.091668512581234443 0.037540156473942952 -0.045208090244644658 0.043688979800062991 0.0099522269048846809 0.00091942142575365511 0.068406972811072705 0.053786168481231737 0 -0.027795656711645095 -0.02232785558473474 -0.01160615226640904 -0.12942631246598177 0.044855079259743469 0.0091715905119005656 0.12326823399398507 0.054089334707391183 -0.020133013278604714 0.029075372710005428 -0.0071051832232591015 0.10588903311422732 0.020078399549566799 0.0094715235066740386 0.0090217076865414178 0.11858213127223281 -0.083431102374621743 -0.11627086939513172 -0.039951657047955003 -0.10406018248163895 0.1163457157664361 -0.025440318164380516 0.076071038187548234 0.13037278677030628 0.04841569170219398 -0.068438384222771972 0.05929111875423651 0.12698235009604911 -0.14024067241543556 -0.05401984092946658
leaf_weight=16.526053592562675 16.994550600647926 39.016806796193123 23.524502798914909 29.898078545928001 32.276634514331818 29.329898849129677 27.811558708548546 19.195724457502365 17.168628498911858 31.187677040696144 24.204874202609062 16.742833971977234 17.509672030806541 16.953787758946419 27.962109684944153 17.944050773978233 17.186629086732864 18.975574508309364 22.114025220274925 22.688123688101768 17.03095942735672 18.792915463447571 25.547098785638809 31.887748509645462 20.786167606711388 17.590061292052269 25.324234157800674 26.82556563615799 17.789981305599213 110.87784089148045 19.001152321696281 16.264598846435547 26.389607042074203 18.908140376210213 19.29195910692215 25.670073926448822 17.324820578098297 16.927898764610291 18.515607357025146 24.27932845056057 22.902584046125412 28.834403350949287 28.560480758547783 16.462445169687271 18.49458672106266 24.203570649027824 24.230052471160889 19.299987688660622 26.600148648023605 40.33088506758213 22.510573387145996 20.470043197274208 18.634464651346207 155.04809345304966 52.199445143342018 16.374175280332565
leaf_count=70 69 163 95 122 131 119 114 77 71 128 100 68 71 69 116 75 70 77 91 93 72 77 104 129 85 72 104 109 72 483 77 68 108 76 80 104 71 68 76 99 94 122 119 68 78 104 100 81 113 167 96 84 79 660 219 69
internal_value=0.000755434 -0.0313731 0.0590791 0.00749785 -0.0617099 -0.0285783 0.0745475 -0.0413209 -0.0544439 0.00809613 -0.00560082 -0.0573102 0.0444116 -0.00877806 -0.0709594 -0.0338905 -0.0180867 0.00594124 0.0298498 0.0139803 0.0900538 -0.0505624 0.0530068 0.0201003 0.0596199 -0.0787739 -0.0945594 0.0311571 0.0555885 -0.100119 -0.0114659 0.0961979 0.0839154 0.00306795 -0.0950359 -0.0117989 0.0442783 0.0557361 0.0890425 0.059516 0.100715 0.0679718 -0.107137 -0.0727787 -0.107844 -0.11498 0.0829198 -0.0730771 0.110955 0.107644 0.0917297 -0.120215 0.115893 0.120697 -0.123155 -0.0954711
internal_weight=1535.39 989.678 545.715 433.27 556.408 218.271 455.455 367.006 291.076 75.9305 75.2744 138.052 214.999 46.8519 215.801 87.7872 90.2596 53.469 119.818 56.8027 335.637 42.9978 44.7428 80.2188 168.147 102.401 84.8111 88.5148 61.6893 189.402 48.3311 307.826 43.8993 35.651 128.014 49.1946 36.3004 34.1145 79.6327 70.6234 291.561 74.2476 108.722 33.457 172.876 154.381 46.3441 43.5036 217.314 61.1171 51.345 59.4868 200.283 181.648 80.7599 34.3182
internal_count=6376 4101 2275 1771 2330 892 1907 1514 1205 309 308 567 879 191 897 363 368 219 489 231 1418 177 181 325 688 423 351 360 251 816 196 1304 179 144 534 199 148 138 328 290 1236 312 454 137 746 668 191 185 924 252 218 247 852 773 338 144
is_linear=0
shrinkage=0.1


Tree=6
num_leaves=58
num_cat=0
split_feature=5 0 2 28 0 376 12 123 256 435 13 202 78 263 74 544 143 429 589 470 548 12 494 198 19 161 338 19 190 423 581 286 220 379 496 300 359 569 401 215 504 206 144 252 205 40 396 80 218 97 187 518 295 206 47 421 355
split_gain=243.668 100.232 73.6076 42.8031 28.3892 27.4562 24.8854 23.0742 20.0727 18.4697 18.0237 17.7865 17.5977 17.2323 18.6593 17.4788 16.584 15.631 15.3911 14.7743 14.8466 14.0785 13.0216 12.989 12.3076 11.5497 11.471 11.3008 10.5971 10.4877 10.3751 9.70704 9.29621 9.00987 8.9529 11.2175 8.63783 8.3124 8.22589 7.66739 7.11787 6.90221 6.68321 6.09793 6.03686 7.03264 5.81982 5.20091 4.79942 4.16227 3.55313 3.2563 3.07448 3.07076 2.32855 2.30843 2.01133
threshold=0.0002126037975419854 -63.127306333331589 -0.064275886725463235 0.0016498812447414465 -16.923133409545049 0.0063676057585224264 -18.976755157793942 0.029271957453348894 3.8355340338671433 0.29961046221970261 0.85782384847217952 -0.097953225925676998 -164.63421275437585 3.383526135181794 0.5486854117900225 0.039182189349207759 0.82445582342311274 0.037947874575610614 0.94681892995478156 0.023698115427326614 0.50769116867859998 -28.228622156551292 0.94829582643856203 0.20244181947319673 -25.524127595163119 -0.017211437101847048 -0.030325858478684072 22.325909547355938 0.93171259314983579 0.92502989717743223 0.14501695144953 0.023462316450783539 0.0015158375149856211 0.52901893331803573 0.0012096565190882703 -0.0013257043095183938 0.34529676608499371 -7.0073624449723177e-05 0.017770383224680126 0.8408365496131045 0.91623742023717447 12.159516581783917 0.0092461217743010447 0.30113971264349437 0.013271841790391101 0.0018547360183458845 0.16227931376959584 -208.77738178328602 -0.004018031350893291 0.0076236406331290241 0.0058863396845679969 0.00057393070979355699 -0.0029281343220337037 17.656104656526825 -0.0047687154690856841 0.95368841521326886 0.0031708631410285871
decision_type=2 2 2 2 2 2 2 2 2 2 2 2 2 2 2 2 2 2 2 2 2 2 2 2 2 2 2 2 2 2 2 2 2 2 2 2 2 2 2 2 2 2 2 2 2 2 2 2 2 2 2 2 2 2 2 2 2
left_child=2 5 6 17 8 7 11 28 13 31 -9 -1 -5 15 29 -4 19 22 23 20 37 -16 26 -6 -22 -11 30 40 -2 -15 -3 -7 -17 -28 35 -14 -23 -8 -21 42 -10 -40 -37 -27 45 49 -36 -48 -25 51 -30 -13 -53 -35 -42 -49 -44
right_child=1 3 4 12 18 9 16 10 27 25 -12 44 34 14 21 32 -18 -19 -20 38 24 36 -24 48 -26 43 33 -29 50 -31 -32 -33 -34 53 46 39 -38 -39 41 -41 54 -43 56 -45 -46 -47 47 55 -50 -51 -52 52 -54 -55 -56 -57 -58
leaf_value=0 -0.015319667707947286 -0.048226766223967918 0.039681566342127987 0 0 0.022038144772588402 -0.0092949694559434342 -0.044638851991871828 -0.023465276346043881 -0.0066840811301091159 0.070047591483555952 -0.057385034976078525 0.012657711783380141 0.025381953784940611 -0.005308726270976275 -0.015772761418355114 0.046902064452558762 -0.037390958256236173 -0.02863372501647973 -0.018556555371151237 -0.02302504704378763 0.11390713833609478 -0.024226194905169481 0.058286005069690484 0.081878238277887511 0.032968424563115294 0.024050898246737701 0 -0.068804642118126355 -0.069789451017298831 0.047750154487720908 -0.067678280847337943 -0.11171407618357435 0.12167606697332678 0.047150858859943662 0.029771410989385218 0.017043466368377412 -0.095719864046694525 -0.031935467060531179 0.013758904920188173 -0.14200406011242209 -0.11583470664701066 0.057767410287990054 0.11866094820535743 -0.036145120838364082 -0.030639344232914506 0.055271461564927862 0.12639077087889547 0.14026551494141892 -0.044959413347279154 -0.14273101820099571 -0.078609292258542768 -0.13097679851044472 0.050852312474610542 -0.065557839022621675 0.061344861575815028 0.12312118340044763
leaf_weight=20.646224096417427 19.229134082794189 16.919684290885925 16.580806225538254 20.880964547395706 17.019937917590141 20.242954805493355 24.453312039375305 31.379152536392212 16.856750994920731 17.382917106151581 21.683560594916344 18.802117794752121 32.072224631905556 17.763505473732948 25.32677286863327 19.917105063796043 18.334483101963997 31.223028123378754 17.837367087602615 22.160467132925987 21.873531207442284 31.025701209902763 25.015103816986084 24.625103652477264 18.755450129508972 19.269203662872314 28.433439999818802 22.583866328001022 25.277858912944794 25.046028167009354 26.12936806678772 23.516441881656647 26.551888570189476 31.778682917356491 22.68742062151432 16.967066094279289 16.54491563141346 23.63618840277195 17.766198605298996 16.209986373782158 18.889994248747826 47.095909610390663 15.820475265383719 24.11800728738308 21.200258880853653 17.018452703952789 22.758817464113235 132.22387759387493 19.327885717153549 16.283130809664726 23.183609247207642 33.078646719455719 109.16580750048161 17.702320337295532 18.107971698045731 15.722396835684775 51.931394353508949
leaf_count=86 80 69 68 85 69 83 102 130 70 71 88 81 135 72 104 82 76 128 73 93 92 126 103 101 76 79 117 92 105 103 107 96 111 132 98 72 68 100 75 69 80 203 68 98 92 71 97 581 80 69 98 145 485 74 75 69 224
internal_value=0.000684037 0.0411911 -0.0389577 0.0651203 -0.003447 -0.0142526 -0.0662287 -0.0466509 -0.0198779 0.0226038 0.00154283 -0.0882735 0.0855582 -0.000958536 0.0214651 -0.0427776 -0.0384913 0.0242205 0.0481277 -0.0481831 -0.0178162 0.0521755 0.0381845 0.0719591 0.0249192 0.0580085 0.0518629 -0.0621902 -0.0846573 -0.0291188 0.00794108 -0.0252161 -0.0741304 0.0745053 0.0912281 0.067865 0.0834692 -0.0550739 -0.0773738 0.0841803 -0.086468 -0.0953644 0.0962531 0.0849033 -0.0967045 -0.102562 0.106193 0.11307 0.0997898 -0.108692 -0.109238 -0.114145 -0.120373 0.100294 -0.110971 0.120742 0.110699
internal_weight=1514.03 749.759 764.276 524.476 334.006 225.283 430.27 120.753 255.195 104.53 53.0627 236.195 347.275 178.757 115.707 63.0498 194.076 177.202 78.8103 175.741 88.7185 72.8974 145.979 60.9729 40.629 60.7701 120.963 76.4386 67.6906 42.8095 43.0491 43.7594 46.469 77.9144 326.394 133.001 47.5706 48.0895 87.0226 100.929 53.8547 64.8621 84.7189 43.3872 215.548 194.348 193.393 170.705 43.953 177.33 48.4615 161.047 142.244 49.481 36.998 147.946 67.7519
internal_count=6376 3156 3220 2228 1374 928 1846 501 1051 427 218 1029 1498 734 473 261 817 730 323 741 370 298 602 250 168 248 499 317 283 175 176 179 193 323 1413 568 194 202 371 433 225 278 364 177 943 851 845 747 181 780 203 711 630 206 155 650 292
is_linear=0
shrinkage=0.1


Tree=7
num_leaves=56
num_cat=0
split_feature=11 6 0 1 468 15 7 506 454 565 24 361 163 448 61 323 554 78 290 180 427 141 135 137 5 234 185 304 199 58 12 485 280 41 235 69 316 381 372 203 518 152 113 147 33 421 421 382 256 246 223 200 566 29 125
split_gain=208.511 85.5797 48.5131 43.6391 30.7621 26.3816 26.3389 19.0599 17.2981 16.7817 16.6327 15.4273 15.1609 14.713 14.6785 14.6433 14.6547 14.2769 13.8752 13.8347 12.4631 18.5904 10.9328 10.2375 10.1558 9.7987 9.63586 9.60985 9.47825 9.34931 9.27094 9.16256 8.89139 8.62083 8.62052 20.9223 10.2552 12.6276 8.58535 8.22627 9.70182 7.69413 7.31262 5.6993 8.24684 5.27748 5.08586 5.07474 4.0959 3.5305 3.50172 2.6484 2.50742 2.08417 0.73829
threshold=0.0045281560320795328 -50.000485441340743 -76.279347227404386 -0.0039354953785889586 0.0065007027083503 -0.00018048047745011783 0.0094127030362379672 -0.018870534512431199 -0.0068390937466738912 0.0027235632851357579 -13.92755033513137 0.014544144877721441 0.93343032672260862 0.023345753099064389 0.93401932671194421 0.0081863311056780182 0.008076645096610836 -13.757535263993089 0.82540589840032774 0.0012667007902092016 0.0035902685813319906 3.7539131315594645 0.93003047716626386 3.8328751820848042 0.0012846139102093551 -0.029005090543043826 0.1534381429822978 0.03604564035782605 -0.00098687019597188774 3.7294792123860838 2.9782066321491816 7.7639438830937886 0.0012013441694614482 0.02241476963272766 0.91696776791505508 0.025613305600775769 3.3462377167349739 0.56329059565240069 34.259965184996162 0.92499116489282229 0.0023110937585184943 0.43858198894779094 0.54336096235803777 0.054713554811027028 -0.21182972982026446 0.91090075160581863 0.95300484565868715 3.5592291147480668 3.9560431372399676 3.2437097434751583 0.43226813769411626 3.3766034900452815 0.88822428591978142 0.026043592155224404 0.45413796720438621
decision_type=2 2 2 2 2 2 2 2 2 2 2 2 2 2 2 2 2 2 2 2 2 2 2 2 2 2 2 2 2 2 2 2 2 2 2 2 2 2 2 2 2 2 2 2 2 2 2 2 2 2 2 2 2 2 2
left_child=1 4 12 5 8 9 15 14 39 11 -8 -3 -2 26 24 16 -4 30 25 29 34 -22 -21 33 -5 -7 -10 -28 -13 -6 -9 47 -27 41 35 -18 37 -36 -20 40 -1 -15 -14 44 -12 -24 52 -19 50 -11 53 -38 -41 -45 -42
right_child=2 3 6 7 19 18 10 17 13 49 43 28 42 23 -16 -17 20 31 38 22 21 -23 45 -25 -26 32 27 -29 -30 -31 -32 -33 -34 -35 36 -37 51 -39 -40 46 54 -43 -44 48 -46 -47 -48 -49 -50 -51 -52 -53 -54 -55 -56
leaf_value=0 0.030559225953688509 0.054680422676929734 -0.037454689485765635 -0.027213539449380708 0.078026455121443836 0.035823588748003385 0 -0.021205781127238664 0.047465314352441029 -0.04958118203700046 -0.00030636901897079376 -0.087050527977722142 -0.010582138095624999 -0.036690232120250875 -0.064798635884584732 -0.034323825386555581 -0.043639128072651315 0.055590061205645191 0.087109701672465678 0.0090356689906745703 -0.042841963980451092 0.071393729470937473 -0.097453667746729089 -0.010485403356172051 0.058780465578588993 -0.074307031595103823 0.0098651189555090946 -0.073061351945729755 0 -0.0071804075292926338 0.056473924486979722 0.022685450959379599 0.0097017891069603561 -0.028227267726667019 -0.02263940099440084 0.090658336285662999 0.11824759677674848 0.090134768051177983 0 -0.056317775555740905 -0.050001841779720217 -0.13057815668247408 -0.102772753289831 0.063029844759607587 0.095218703698505117 -0.022131677604500563 -0.037855264588930071 0.12233520010261843 0.046982470561737821 -0.1199369823982494 0.047562030400196402 0.052244910066224573 -0.11872731269682471 0.12246080858572349 -0.11124860295650495
leaf_weight=22.236447006464005 23.45138293504715 16.768795341253281 16.90730781853199 20.389238610863686 20.405034348368645 19.520783454179764 18.565253555774689 31.978082850575447 19.217151239514351 18.833117634057999 15.580883055925371 28.69377738237381 17.088989675045013 16.149946942925453 26.170304641127586 22.53566038608551 19.998258322477341 30.010927274823189 25.038660496473312 27.416373401880264 28.025460794568062 25.31762383878231 25.772246643900871 26.207355856895447 32.272782906889915 32.07686460018158 24.63088284432888 26.139496758580208 22.097305446863174 26.958835065364838 25.67717669904232 27.219219967722893 17.225968509912491 23.566559091210365 17.317303135991096 22.59202353656292 56.595353469252586 18.06798729300499 20.376065269112587 17.001826405525208 15.326501786708834 41.774941131472588 22.617904424667358 18.228723779320717 15.733694791793821 20.673006147146225 15.916816487908362 40.054742932319641 19.655559912323952 36.091806635260582 15.535518020391462 16.500631973147392 109.49505884945393 117.3903124332428 15.164353296160696
leaf_count=96 97 69 70 84 83 80 78 131 79 81 68 122 71 69 107 93 83 126 102 113 116 106 108 112 134 131 103 111 91 111 106 115 71 101 72 95 240 76 84 77 68 182 95 82 70 86 72 170 88 157 70 69 501 536 68
internal_value=0.000583044 -0.027004 0.051077 0.00338083 -0.0560076 -0.0266133 0.0622906 0.0340493 -0.070227 -0.0586027 0.0875777 -0.0228213 -0.029715 -0.0460658 -0.00507864 0.0386598 0.0466315 0.0542848 0.00737856 -0.011301 0.0542001 0.0105149 -0.0384637 -0.0691018 0.0242749 -0.0200489 -0.0087791 -0.0323438 -0.0507756 0.0293784 0.0127221 0.0775234 -0.0441059 -0.0864547 0.0688467 0.0266123 0.0840886 0.0343534 0.0497971 -0.0912676 -0.0518611 -0.107425 -0.0669459 0.0958373 0.047764 -0.0674244 -0.104566 0.0967515 0.103666 -0.0993148 0.109951 0.105853 -0.111769 0.115884 -0.0869914
internal_weight=1492.25 964.548 527.706 470.496 494.053 236.723 464.548 233.772 372.827 122.485 220.69 67.5599 63.1583 177.686 78.8323 243.858 221.322 154.94 114.238 121.225 204.415 53.3431 73.8616 107.699 52.662 68.8236 69.9875 50.7704 50.7911 47.3639 57.6553 97.2849 49.3028 81.4914 151.072 42.5903 108.481 35.3853 45.4147 195.141 52.7273 57.9249 39.7069 202.125 31.3146 46.4453 142.414 70.0657 170.81 54.9249 151.155 73.096 126.497 135.619 30.4909
internal_count=6376 4101 2275 1961 2140 988 2012 973 1639 520 992 282 263 757 325 1020 927 648 468 501 857 222 307 464 218 282 293 214 213 194 237 411 202 352 635 178 457 148 186 882 232 251 166 914 138 194 650 296 776 238 688 309 578 618 136
is_linear=0
shrinkage=0.1


Tree=8
num_leaves=62
num_cat=0
split_feature=5 80 6 0 4 31 560 46 3 465 222 159 465 541 189 574 187 447 200 170 433 113 416 19 511 430 298 66 72 55 180 253 393 565 477 296 27 144 213 449 481 589 261 375 540 402 53 534 263 59 551 265 131 396 595 26 511 64 57 182 465
split_gain=179.498 73.0637 53.4893 34.6686 32.9606 31.1754 23.3752 21.0438 17.1343 17.0551 20.0835 16.7687 16.5647 14.7743 14.7046 14.5865 14.443 13.992 13.4909 13.3126 20.0302 15.4602 13.8966 12.6747 11.9661 11.8408 11.6952 11.6476 11.6031 11.2101 11.1985 11.0021 11.2586 10.7843 12.3222 9.66676 9.35388 8.59759 8.34767 8.06044 7.75296 7.46101 6.84517 6.14921 6.03273 6.45018 5.95606 5.90901 5.52456 5.41911 4.56133 4.4591 4.11119 3.67462 3.6085 3.58008 3.37141 3.28129 5.84817 1.6532 1.11424
threshold=0.0038904839828930232 46.134772589804733 -49.999438042848119 -13.253688966335226 -0.070016783724169904 0.0039702525631888962 0.011978060227290904 0.005372811410691015 0.019778461774646872 0.49271280291158426 0.7851044603476528 0.00028620537179422761 0.49025127481934883 3.1399536549406037 0.0041394025384890974 0.033079035542839648 0.0048521235829174772 43.913161172768064 3.2296462710994422 0.095550047085172354 0.0024489952744843895 0.64828399243112023 3.7150682701223361 -18.967279438907038 0.77758924544814023 0.04799317486681854 0.012175981183746073 0.0011947553019613728 3.5956254591848613 -0.0006991820647079815 0.0016567809615379906 0.0012416559930742783 0.91860938583646423 0.0027660885804006497 0.78313448538762043 1.3083356156985422 -0.0040194247363706812 0.010969809632339159 0.0028528800731488385 0.023156313428438938 0.93421585344180913 0.94681892995478156 0.0043475349241829924 450.20500887443859 0.93862925373540274 0.09584663991806168 0.017659122473164313 0.3362044404999483 3.4197334706852902 -74.661808563654773 0.40092743260816815 -49.999276804478917 -0.0024227659734264526 0.23762665210706246 0.0077705029691006594 3.7904216086846216 0.84346617274993185 0.29916241093524054 0.93478809269254282 0.61603639621926021 0.56149038286464747
decision_type=2 2 2 2 2 2 2 2 2 2 2 2 2 2 2 2 2 2 2 2 2 2 2 2 2 2 2 2 2 2 2 2 2 2 2 2 2 2 2 2 2 2 2 2 2 2 2 2 2 2 2 2 2 2 2 2 2 2 2 2 2
left_child=1 5 6 4 19 11 7 9 23 10 29 14 33 40 25 -11 18 27 -14 21 60 22 -3 28 -17 -1 -18 -7 -4 -2 37 32 52 50 -35 -26 56 -29 -9 -8 -13 46 49 -28 45 -33 -5 -20 -32 -25 -6 -46 -16 -15 55 -51 -27 -47 -59 -48 -21
right_child=2 3 8 41 12 17 39 38 -10 15 -12 13 16 53 31 24 26 -19 47 20 -22 -23 -24 42 35 36 43 30 -30 -31 48 44 -34 34 -36 -37 -38 -39 -40 -41 -42 -43 -44 -45 51 57 59 -49 -50 54 -52 -53 -54 -55 -56 -57 -58 58 -60 -61 -62
leaf_value=0.026290399464160497 -0.0057072966514545949 0.078038800004426201 -0.032378590124635682 0.022289709415196299 0.042428551995658349 0.036947492846784634 0.012396915907105989 0.006291926280667908 -0.0093485919776832727 0.029210764634063455 -0.053541241130159137 0.065546869568952115 0.080325262268482217 -0.098640971154758894 -0.021044943253407344 -0.0045774300636671197 0.018119067272991403 0.057392595953238507 -0.054964583509636004 -0.13258211015282359 0.0094450962500434287 -0.073532127179862725 -0.028482586475449313 0.042232577228724838 -0.13093147312917061 -0.10969356989039597 -0.1136742697137694 -0.051096630833068993 0.071364493499775861 0.091768651537417534 -0.026064423056672861 -0.036817857398036384 0.025005827959250906 0.06239865340905254 -0.045371198886476616 -0.030950454164197991 0 0.030516030683626596 0.10873216717399824 0.10649842541392583 -0.022069335907108203 0.0027870584387550412 0.021047456286341686 -0.022757670063851581 -0.023443138371911514 -0.13062525679704831 0.058257098550733015 0.025112419293325663 -0.11095631086109699 0.11360501944581761 0.12454954108109557 -0.092905157612356432 -0.097301091776787016 -0.021578410299249812 0.046740064060768888 0.059969957838385074 -0.034048187827750688 -0.11116112012692009 -0.030850284035832422 0.12360244277596999 -0.066291921338597723
leaf_weight=21.509351775050163 16.708536297082901 20.536889925599098 17.233264282345772 16.627983406186104 19.049227491021156 22.565189197659492 16.705125823616982 16.569350242614746 20.619292810559273 16.975800514221191 24.353547066450119 19.89550593495369 25.522009432315826 16.0951307117939 15.784057483077047 22.813966035842896 18.368277460336685 24.469188138842583 16.07007123529911 28.843582183122635 16.475821688771248 26.77042444050312 24.652603462338448 25.791056543588638 30.001603990793228 23.15712483227253 18.765844434499741 21.921695441007614 22.103384658694267 28.733236014842987 17.198143392801285 16.790604814887047 15.676080554723738 21.671213120222092 17.300954654812813 19.112933620810509 18.881369858980179 26.222172096371651 17.972443968057632 27.926247388124466 16.095815896987915 17.258306190371513 17.323636040091515 17.267901375889778 25.804983109235764 85.425521299242973 17.420263066887856 16.361979469656944 22.580949917435646 147.94323912262917 19.996292039752007 19.838509395718575 22.571353480219841 16.12440513074398 19.891014784574509 27.549903050065041 15.089941620826719 30.557420879602432 19.29003432393074 25.693939998745918 15.682951644062994
leaf_count=92 69 86 72 71 79 94 70 69 86 71 103 82 107 69 68 95 77 101 68 127 68 116 107 117 126 107 78 92 96 120 72 75 68 89 73 80 80 108 76 121 68 72 77 73 115 390 74 69 95 685 83 90 102 68 92 125 68 141 86 110 68
internal_value=0.000498141 -0.0259174 0.0465734 0.00620217 -0.00803472 -0.0501041 0.010701 -0.00418272 0.0746942 -0.0200565 0.0159504 -0.0641489 0.0183248 -0.0170304 -0.0735149 -0.0489363 -0.00572167 -0.00779323 0.0278698 -0.0461003 -0.0801522 -0.0150472 0.0193569 0.0812213 -0.0686537 -0.0331752 -0.0426256 -0.0235416 0.024593 0.055378 -0.0403098 -0.085517 -0.0411426 0.0533054 0.0127897 -0.0958009 -0.0569654 -0.00558588 0.064229 0.0746229 0.0251024 0.0658581 0.0900109 -0.0750381 -0.0968203 -0.1074 0.0822747 -0.0130838 -0.0785981 0.094875 0.0897113 -0.0574378 -0.06999 -0.0652597 0.101025 0.106254 -0.0844062 -0.115055 -0.0835502 0.102031 -0.114097
internal_weight=1470.21 933.881 536.328 400.337 323.336 533.545 237.873 193.241 298.455 158.7 69.7953 398.587 190.374 68.2109 330.376 88.9043 112.356 134.957 57.9541 132.962 61.0024 71.9599 45.1895 277.835 71.9285 78.6378 54.402 110.488 39.3366 45.4418 87.923 251.739 54.0315 78.0177 38.9722 49.1145 57.1284 48.1439 34.5418 44.6314 35.9913 77.0005 238.499 36.0337 197.707 152.064 59.7422 32.4321 39.7791 221.175 39.0455 45.6435 38.3554 32.2195 195.384 175.493 38.2471 135.273 49.8475 43.1142 44.5265
internal_count=6376 4026 2350 1695 1368 2331 1000 809 1350 664 292 1769 796 287 1482 372 472 562 244 572 263 309 193 1264 301 347 228 461 168 189 367 1135 238 324 162 206 255 200 145 191 150 327 1096 151 897 692 255 137 167 1019 162 205 170 137 902 810 175 617 227 184 195
is_linear=0
shrinkage=0.1


Tree=9
num_leaves=57
num_cat=0
split_feature=12 491 23 27 100 43 18 74 206 396 282 301 19 0 242 552 26 189 461 207 532 245 0 19 374 367 59 80 224 168 387 223 286 442 381 170 382 477 373 382 178 200 261 14 294 538 13 143 135 202 209 379 169 288 277 553
split_gain=154.754 85.6912 41.1018 37.2999 27.8806 20.3017 20.2366 18.1712 17.6976 16.8779 16.6606 18.6646 16.2534 15.7499 15.2496 14.7642 14.2383 13.3932 12.3467 11.8153 11.4633 11.2114 11.0523 11.0438 11.0368 10.7787 10.7703 10.4645 10.1561 9.93434 9.81856 11.8571 9.7374 9.70309 9.42695 9.11887 11.3241 8.92056 8.77504 7.72609 7.57214 9.64986 7.21437 7.18938 6.75006 6.11538 8.27563 5.71226 5.15928 4.52002 4.39249 3.25344 3.12613 2.528 1.70038 1.17216
threshold=-18.976755157793942 -0.024527791274844942 0.0056119759422849471 0.0035987307756323796 0.031254226027338197 -0.0057142210888923928 0.0090674383030105842 0.51772828179769415 16.344100802983213 0.28835598911641191 0.23966680417401168 0.031268677657708854 1.0000000180025095e-35 -71.951676324731395 0.8787640086731513 0.7715124021911367 3.6913336324073636 0.003560104254844165 0.00079730540354919536 0.017994398714804998 0.92423448139154796 0.45013338237174882 -58.927993201649855 -16.940875307036773 -0.034829497611222053 87.465751742052447 -28.933186437614928 369.58097083105662 -0.0014887755607898288 0.014957834125087778 0.010792156476184213 0.94225101529568012 0.022101009276290842 0.043239194964254817 0.91826469315383386 0.16573771693107583 3.4687416468751562 -7.3824875778282353 0.24859029206070013 3.6468738813848662 0.25285710816996682 3.2362590234142128 0.0026366976904141797 0.0073526060415071868 3.8238232192219415 0.57606637048818987 -10.804618335585131 0.68340810499903248 0.91002488455009123 -0.0518377831466088 0.0022100135112890426 0.56414434702533522 0.00062558265712083373 0.040298181169160514 0.042783797799514613 -13.390418692083356
decision_type=2 2 2 2 2 2 2 2 2 2 2 2 2 2 2 2 2 2 2 2 2 2 2 2 2 2 2 2 2 2 2 2 2 2 2 2 2 2 2 2 2 2 2 2 2 2 2 2 2 2 2 2 2 2 2 2
left_child=2 4 5 7 6 29 9 18 10 12 11 -6 22 -9 -10 23 -17 -7 20 24 -3 30 37 -15 -19 -14 -23 49 -12 45 31 35 47 -34 42 52 -37 -2 -16 -24 41 -25 -8 -38 50 48 -47 -4 -1 -26 -42 -36 -5 -54 -45 -50
right_child=1 3 32 21 8 17 34 13 14 -11 28 -13 25 15 38 16 -18 19 -20 -21 -22 26 39 40 27 -27 -28 -29 -30 -31 -32 -33 33 -35 51 36 43 -39 -40 -41 44 -43 -44 54 -46 46 -48 -49 55 -51 -52 -53 53 -55 -56 -57
