tree
version=v4
num_class=1
num_tree_per_iteration=1
label_index=0
max_feature_idx=831
objective=binary sigmoid:1
feature_names=80m_ac_1 80m_ac_29 80m_acc_swing_index_dt_lag1 80m_acc_swing_index_lag16 80m_acc_swing_index_lag27 80m_acc_swing_index_lag29 80m_adaptive_bp_ddt 80m_adaptive_bp_ddt_lag18 80m_adaptive_bp_dt_lag18 80m_adaptive_cci 80m_adaptive_rsi_ddt_lag3 80m_adaptive_stochastic_dt 80m_adaptive_stochastic_dt_lag1 80m_adaptive_stochastic_dt_lag23 80m_adaptive_stochastic_lag14 80m_adx_14 80m_adx_14_ddt_lag3 80m_adx_14_dt 80m_adx_14_dt_lag1 80m_adx_14_dt_lag29 80m_adx_14_dt_lag3 80m_adx_14_lag1 80m_adx_14_lag15 80m_adx_14_lag20 80m_adx_14_lag3 80m_adx_14_lag8 80m_adx_7 80m_adx_7_dt 80m_adx_7_dt_lag26 80m_adx_7_lag1 80m_adx_7_lag2 80m_adx_7_lag25 80m_adx_7_lag8 80m_amihud_lambda 80m_amihud_lambda_dt_lag20 80m_amihud_lambda_dt_lag29 80m_amihud_lambda_lag16 80m_amihud_lambda_lag3 80m_amihud_lambda_lag4 80m_aroon_diff 80m_aroon_diff_lag1 80m_aroon_diff_lag13 80m_aroon_diff_lag23 80m_aroon_diff_lag25 80m_aroon_diff_lag3 80m_aroon_diff_lag4 80m_bandpass_ddt 80m_bandpass_ddt_lag2 80m_bandpass_dt_lag1 80m_bandpass_dt_lag11 80m_bandpass_dt_lag3 80m_bandpass_lag1 80m_bandpass_lag2 80m_bekker_parkinson_vol_ddt_lag23 80m_bekker_parkinson_vol_dt_lag12 80m_chaiken_money_flow 80m_chaiken_money_flow_dt_lag15 80m_chaiken_money_flow_lag1 80m_chaiken_money_flow_lag21 80m_chaiken_money_flow_lag27 80m_chaiken_money_flow_lag5 80m_change_variance_ratio_lag28 80m_cmma 80m_cmma_ddt_lag21 80m_cmma_dt 80m_cmma_lag1 80m_cmma_lag2 80m_cmma_lag21 80m_cmma_lag3 80m_cmma_lag4 80m_cmma_lag6 80m_cmma_lag9 80m_comb_spectrum_dom_cycle_ddt_lag6 80m_comb_spectrum_dom_cycle_lag2 80m_comb_spectrum_dom_cycle_lag9 80m_corwin_schultz_estimator_dt_lag3 80m_dft_dom_cycle_ddt_lag1 80m_dft_dom_cycle_ddt_lag14 80m_dft_dom_cycle_dt_lag10 80m_dft_dom_cycle_lag8 80m_dual_diff_ddt_lag3 80m_dual_diff_lag7 80m_ehlers_early_onset_trend 80m_ehlers_early_onset_trend_ddt 80m_ehlers_early_onset_trend_ddt_lag1 80m_ehlers_early_onset_trend_ddt_lag3 80m_ehlers_early_onset_trend_dt_lag7 80m_ehlers_early_onset_trend_lag8 80m_entropy_for_jesse_ddt_lag17 80m_entropy_for_jesse_lag21 80m_evenbetter_sinewave_long 80m_evenbetter_sinewave_long_ddt 80m_evenbetter_sinewave_long_ddt_lag10 80m_evenbetter_sinewave_long_dt 80m_evenbetter_sinewave_long_dt_lag1 80m_evenbetter_sinewave_long_lag1 80m_evenbetter_sinewave_long_lag18 80m_evenbetter_sinewave_long_lag19 80m_evenbetter_sinewave_long_lag2 80m_evenbetter_sinewave_long_lag20 80m_evenbetter_sinewave_long_lag3 80m_evenbetter_sinewave_long_lag4 80m_evenbetter_sinewave_long_lag6 80m_evenbetter_sinewave_long_lag8 80m_evenbetter_sinewave_short 80m_evenbetter_sinewave_short_ddt_lag3 80m_evenbetter_sinewave_short_dt 80m_evenbetter_sinewave_short_dt_lag1 80m_evenbetter_sinewave_short_lag1 80m_evenbetter_sinewave_short_lag11 80m_evenbetter_sinewave_short_lag3 80m_evenbetter_sinewave_short_lag5 80m_evenbetter_sinewave_short_lag6 80m_evenbetter_sinewave_short_lag7 80m_fisher 80m_fisher_dt 80m_fisher_dt_lag1 80m_fisher_dt_lag2 80m_fisher_dt_lag6 80m_fisher_lag1 80m_fisher_lag17 80m_fisher_lag2 80m_fisher_lag3 80m_fisher_lag4 80m_fisher_lag5 80m_fisher_lag7 80m_fisher_lag9 80m_forecast_oscillator_lag1 80m_forecast_oscillator_lag2 80m_fti_best_period_ddt_lag13 80m_fti_best_period_lag15 80m_fti_best_period_lag6 80m_fti_lag10 80m_fti_lag12 80m_fti_lag15 80m_hasbrouck_lambda 80m_hasbrouck_lambda_ddt_lag13 80m_hasbrouck_lambda_ddt_lag22 80m_hasbrouck_lambda_lag10 80m_hasbrouck_lambda_lag14 80m_hasbrouck_lambda_lag19 80m_hasbrouck_lambda_lag2 80m_hasbrouck_lambda_lag6 80m_hasbrouck_lambda_lag8 80m_highpass_bp_ddt_lag16 80m_highpass_bp_dt_lag26 80m_highpass_bp_lag15 80m_highpass_bp_lag25 80m_homodyne 80m_homodyne_ddt_lag19 80m_homodyne_lag27 80m_homodyne_lag8 80m_hurst_coef_fast_dt_lag22 80m_hurst_coef_slow_dt_lag9 80m_hurst_coef_slow_lag16 80m_iqr_ratio_dt 80m_iqr_ratio_dt_lag2 80m_iqr_ratio_lag10 80m_iqr_ratio_lag12 80m_iqr_ratio_lag16 80m_iqr_ratio_lag22 80m_ma_difference_ddt_lag16 80m_ma_difference_ddt_lag19 80m_ma_difference_dt 80m_ma_difference_dt_lag1 80m_ma_difference_lag14 80m_ma_difference_lag19 80m_ma_difference_lag24 80m_ma_difference_lag27 80m_mod_rsi_ddt_lag3 80m_mod_rsi_lag1 80m_mod_rsi_lag18 80m_mod_stochastic_lag11 80m_mod_stochastic_lag18 80m_mod_stochastic_lag3 80m_natr_dt 80m_natr_lag11 80m_natr_lag12 80m_natr_lag14 80m_natr_lag15 80m_natr_lag18 80m_natr_lag2 80m_natr_lag25 80m_natr_lag27 80m_natr_lag28 80m_natr_lag3 80m_natr_lag7 80m_natr_lag8 80m_norm_on_balance_volume 80m_norm_on_balance_volume_ddt_lag20 80m_norm_on_balance_volume_dt 80m_norm_on_balance_volume_dt_lag2 80m_norm_on_balance_volume_lag1 80m_norm_on_balance_volume_lag2 80m_norm_on_balance_volume_lag22 80m_norm_on_balance_volume_lag3 80m_norm_on_balance_volume_lag9 80m_phase_accumulation_ddt_lag1 80m_phase_accumulation_ddt_lag11 80m_phase_accumulation_ddt_lag7 80m_phase_accumulation_dt 80m_price_change_oscillator_ddt_lag22 80m_price_change_oscillator_dt_lag23 80m_price_variance_ratio_dt_lag8 80m_price_variance_ratio_lag13 80m_price_variance_ratio_lag26 80m_reactivity 80m_reactivity_ddt_lag8 80m_reactivity_dt 80m_reactivity_dt_lag12 80m_reactivity_lag1 80m_reactivity_lag10 80m_reactivity_lag12 80m_reactivity_lag16 80m_reactivity_lag2 80m_reactivity_lag21 80m_reactivity_lag3 80m_reactivity_lag4 80m_reactivity_lag5 80m_reactivity_lag7 80m_reactivity_lag9 80m_roll_measure_ddt_lag28 80m_roll_measure_lag20 80m_roofing_filter 80m_roofing_filter_ddt 80m_roofing_filter_ddt_lag28 80m_roofing_filter_dt_lag1 80m_roofing_filter_lag16 80m_roofing_filter_lag5 80m_roofing_filter_lag8 80m_stc 80m_stc_ddt 80m_stc_ddt_lag1 80m_stc_ddt_lag3 80m_stc_ddt_lag8 80m_stc_dt 80m_stc_dt_lag1 80m_stc_dt_lag2 80m_stc_dt_lag3 80m_stc_dt_lag4 80m_stc_lag1 80m_stc_lag16 80m_stc_lag2 80m_stc_lag23 80m_stc_lag24 80m_stc_lag5 80m_stc_lag9 80m_swamicharts_rsi_8 80m_swamicharts_stochastic_13 80m_swamicharts_stochastic_14 80m_swamicharts_stochastic_15 80m_swamicharts_stochastic_18 80m_swamicharts_stochastic_25 80m_swamicharts_stochastic_27 80m_swamicharts_stochastic_28 80m_swamicharts_stochastic_29 80m_swamicharts_stochastic_32 80m_swamicharts_stochastic_37 80m_swamicharts_stochastic_9 80m_trendflex 80m_trendflex_ddt 80m_trendflex_dt 80m_trendflex_dt_lag1 80m_trendflex_dt_lag3 80m_trendflex_lag2 80m_trendflex_lag23 80m_trendflex_lag3 80m_trendflex_lag6 80m_voss 80m_voss_dt_lag1 80m_voss_dt_lag2 80m_voss_filt 80m_voss_filt_ddt_lag1 80m_voss_filt_ddt_lag10 80m_voss_filt_lag12 80m_voss_filt_lag2 80m_voss_filt_lag4 80m_voss_filt_lag6 80m_voss_lag1 80m_vwap_ddt_lag20 80m_vwap_dt 80m_vwap_dt_lag1 80m_vwap_dt_lag10 80m_vwap_dt_lag2 80m_vwap_dt_lag3 80m_vwap_dt_lag4 80m_vwap_lag28 80m_williams_r 80m_williams_r_ddt_lag13 80m_williams_r_dt 80m_williams_r_lag1 80m_williams_r_lag13 80m_williams_r_lag14 80m_williams_r_lag15 80m_williams_r_lag2 80m_williams_r_lag23 80m_williams_r_lag3 80m_williams_r_lag4 80m_williams_r_lag5 240m_ac_0 240m_ac_46 240m_acc_swing_index_ddt 240m_acc_swing_index_ddt_lag1 240m_acc_swing_index_dt 240m_acc_swing_index_dt_lag1 240m_acc_swing_index_dt_lag2 240m_acc_swing_index_dt_lag24 240m_acc_swing_index_lag19 240m_acc_swing_index_lag2 240m_acc_swing_index_lag4 240m_acc_swing_index_lag7 240m_acp_pwr_8 240m_adaptive_bp_ddt 240m_adaptive_bp_ddt_lag10 240m_adaptive_bp_dt_lag9 240m_adaptive_bp_lead_ddt_lag9 240m_adaptive_cci 240m_adaptive_cci_ddt 240m_adaptive_cci_dt 240m_adaptive_cci_dt_lag1 240m_adaptive_cci_dt_lag13 240m_adaptive_cci_dt_lag8 240m_adaptive_rsi_dt_lag6 240m_adaptive_stochastic 240m_adaptive_stochastic_ddt 240m_adaptive_stochastic_ddt_lag1 240m_adaptive_stochastic_dt 240m_adaptive_stochastic_dt_lag1 240m_adaptive_stochastic_lag22 240m_adaptive_stochastic_lag24 240m_adx_14_ddt 240m_adx_14_ddt_lag12 240m_adx_14_dt 240m_adx_14_dt_lag24 240m_adx_14_lag12 240m_adx_14_lag29 240m_adx_14_lag7 240m_adx_14_lag9 240m_adx_7_ddt 240m_adx_7_dt 240m_adx_7_dt_lag1 240m_adx_7_dt_lag8 240m_adx_7_lag1 240m_adx_7_lag12 240m_adx_7_lag19 240m_amihud_lambda 240m_amihud_lambda_dt 240m_amihud_lambda_lag13 240m_amihud_lambda_lag18 240m_amihud_lambda_lag19 240m_amihud_lambda_lag24 240m_amihud_lambda_lag28 240m_amihud_lambda_lag5 240m_aroon_diff 240m_aroon_diff_dt 240m_aroon_diff_lag2 240m_bandpass 240m_bandpass_ddt 240m_bandpass_ddt_lag1 240m_bandpass_ddt_lag14 240m_bandpass_dt 240m_bandpass_lag14 240m_bekker_parkinson_vol 240m_bekker_parkinson_vol_dt 240m_bekker_parkinson_vol_dt_lag12 240m_bekker_parkinson_vol_lag24 240m_bekker_parkinson_vol_lag29 240m_bekker_parkinson_vol_lag3 240m_chaiken_money_flow 240m_chaiken_money_flow_ddt 240m_chaiken_money_flow_ddt_lag1 240m_chaiken_money_flow_dt 240m_chaiken_money_flow_dt_lag1 240m_chaiken_money_flow_dt_lag6 240m_chaiken_money_flow_lag1 240m_chaiken_money_flow_lag12 240m_chaiken_money_flow_lag3 240m_chaiken_money_flow_lag4 240m_change_variance_ratio_ddt_lag14 240m_change_variance_ratio_lag18 240m_cmma 240m_cmma_ddt 240m_cmma_dt 240m_cmma_dt_lag1 240m_cmma_dt_lag11 240m_cmma_lag1 240m_cmma_lag2 240m_cmma_lag25 240m_cmma_lag5 240m_cmma_lag8 240m_comb_spectrum_dom_cycle_ddt_lag22 240m_comb_spectrum_dom_cycle_dt_lag27 240m_comb_spectrum_pwr_24 240m_comb_spectrum_pwr_27 240m_comb_spectrum_pwr_35 240m_conv_1 240m_conv_2 240m_conv_22 240m_conv_27 240m_corwin_schultz_estimator 240m_corwin_schultz_estimator_dt 240m_corwin_schultz_estimator_lag3 240m_dft_dom_cycle_ddt_lag16 240m_dft_dom_cycle_ddt_lag29 240m_dft_dom_cycle_lag29 240m_dft_spectrum_24 240m_dual_diff_ddt 240m_dual_diff_lag5 240m_ehlers_early_onset_trend 240m_ehlers_early_onset_trend_ddt 240m_ehlers_early_onset_trend_ddt_lag1 240m_ehlers_early_onset_trend_ddt_lag16 240m_ehlers_early_onset_trend_ddt_lag25 240m_ehlers_early_onset_trend_dt 240m_ehlers_early_onset_trend_lag1 240m_ehlers_early_onset_trend_lag17 240m_ehlers_early_onset_trend_lag2 240m_entropy_for_jesse_ddt_lag18 240m_entropy_for_jesse_lag16 240m_evenbetter_sinewave_long 240m_evenbetter_sinewave_long_ddt_lag13 240m_evenbetter_sinewave_long_dt 240m_evenbetter_sinewave_long_dt_lag1 240m_evenbetter_sinewave_long_lag1 240m_evenbetter_sinewave_long_lag2 240m_evenbetter_sinewave_long_lag4 240m_evenbetter_sinewave_long_lag7 240m_evenbetter_sinewave_short 240m_evenbetter_sinewave_short_ddt 240m_evenbetter_sinewave_short_ddt_lag1 240m_evenbetter_sinewave_short_dt 240m_evenbetter_sinewave_short_dt_lag1 240m_evenbetter_sinewave_short_lag1 240m_evenbetter_sinewave_short_lag2 240m_fisher 240m_fisher_ddt 240m_fisher_ddt_lag1 240m_fisher_dt 240m_fisher_dt_lag1 240m_fisher_dt_lag2 240m_fisher_dt_lag4 240m_fisher_lag1 240m_fisher_lag2 240m_fisher_lag3 240m_fisher_lag4 240m_fisher_lag6 240m_forecast_oscillator 240m_forecast_oscillator_lag1 240m_fti_best_period_lag6 240m_fti_ddt_lag15 240m_fti_dt_lag4 240m_fti_lag20 240m_fti_lag9 240m_hasbrouck_lambda 240m_hasbrouck_lambda_ddt_lag1 240m_hasbrouck_lambda_ddt_lag16 240m_hasbrouck_lambda_lag14 240m_hasbrouck_lambda_lag17 240m_hasbrouck_lambda_lag20 240m_hasbrouck_lambda_lag22 240m_hasbrouck_lambda_lag27 240m_hasbrouck_lambda_lag28 240m_hasbrouck_lambda_lag5 240m_hasbrouck_lambda_lag7 240m_highpass_bp 240m_highpass_bp_ddt 240m_highpass_bp_ddt_lag1 240m_highpass_bp_dt 240m_highpass_bp_lag2 240m_highpass_bp_lag6 240m_homodyne_lag4 240m_hurst_coef_fast_ddt_lag25 240m_hurst_coef_fast_dt_lag23 240m_hurst_coef_fast_dt_lag5 240m_hurst_coef_fast_lag13 240m_hurst_coef_slow_ddt_lag1 240m_hurst_coef_slow_ddt_lag15 240m_hurst_coef_slow_ddt_lag8 240m_hurst_coef_slow_lag4 240m_iqr_ratio_dt 240m_iqr_ratio_lag1 240m_iqr_ratio_lag24 240m_iqr_ratio_lag3 240m_kyle_lambda_ddt 240m_kyle_lambda_dt_lag27 240m_ma_difference_ddt 240m_ma_difference_ddt_lag15 240m_ma_difference_dt 240m_ma_difference_lag1 240m_ma_difference_lag8 240m_mod_rsi_ddt 240m_mod_rsi_lag12 240m_mod_rsi_lag3 240m_mod_stochastic_ddt_lag13 240m_mod_stochastic_ddt_lag14 240m_natr 240m_natr_ddt 240m_natr_ddt_lag28 240m_natr_dt 240m_natr_dt_lag1 240m_natr_dt_lag17 240m_natr_dt_lag18 240m_natr_lag1 240m_natr_lag12 240m_natr_lag13 240m_natr_lag15 240m_natr_lag16 240m_natr_lag17 240m_natr_lag18 240m_natr_lag20 240m_natr_lag22 240m_natr_lag25 240m_natr_lag3 240m_natr_lag6 240m_natr_lag8 240m_natr_lag9 240m_norm_on_balance_volume 240m_norm_on_balance_volume_ddt_lag29 240m_norm_on_balance_volume_dt 240m_norm_on_balance_volume_dt_lag1 240m_norm_on_balance_volume_dt_lag2 240m_norm_on_balance_volume_lag1 240m_norm_on_balance_volume_lag3 240m_norm_on_balance_volume_lag4 240m_pfe_ddt_lag22 240m_phase_accumulation_ddt_lag15 240m_phase_accumulation_ddt_lag25 240m_phase_accumulation_dt_lag11 240m_phase_accumulation_dt_lag18 240m_phase_accumulation_lag12 240m_phase_accumulation_lag15 240m_phase_accumulation_lag20 240m_phase_accumulation_lag23 240m_phase_accumulation_lag24 240m_phase_accumulation_lag6 240m_phase_accumulation_lag7 240m_price_change_oscillator_ddt 240m_price_variance_ratio 240m_price_variance_ratio_ddt 240m_price_variance_ratio_ddt_lag19 240m_price_variance_ratio_dt 240m_price_variance_ratio_dt_lag1 240m_price_variance_ratio_lag25 240m_price_variance_ratio_lag7 240m_reactivity 240m_reactivity_ddt 240m_reactivity_dt 240m_reactivity_dt_lag1 240m_reactivity_dt_lag3 240m_reactivity_lag1 240m_reactivity_lag12 240m_reactivity_lag2 240m_reactivity_lag23 240m_reactivity_lag8 240m_roll_impact_dt_lag4 240m_roll_measure_lag21 240m_roofing_filter_ddt 240m_roofing_filter_ddt_lag1 240m_roofing_filter_ddt_lag5 240m_roofing_filter_dt 240m_roofing_filter_lag2 240m_stc 240m_stc_ddt 240m_stc_dt 240m_stc_dt_lag1 240m_stc_dt_lag2 240m_stc_lag1 240m_stc_lag2 240m_swamicharts_rsi_1 240m_swamicharts_rsi_22 240m_swamicharts_rsi_29 240m_swamicharts_rsi_32 240m_swamicharts_rsi_41 240m_swamicharts_stochastic_0 240m_swamicharts_stochastic_11 240m_swamicharts_stochastic_12 240m_swamicharts_stochastic_14 240m_swamicharts_stochastic_17 240m_swamicharts_stochastic_18 240m_swamicharts_stochastic_19 240m_swamicharts_stochastic_22 240m_swamicharts_stochastic_24 240m_swamicharts_stochastic_25 240m_swamicharts_stochastic_26 240m_swamicharts_stochastic_28 240m_swamicharts_stochastic_29 240m_swamicharts_stochastic_35 240m_swamicharts_stochastic_41 240m_swamicharts_stochastic_42 240m_swamicharts_stochastic_43 240m_swamicharts_stochastic_5 240m_swamicharts_stochastic_7 240m_swamicharts_stochastic_9 240m_trendflex 240m_trendflex_ddt 240m_trendflex_ddt_lag1 240m_trendflex_dt 240m_trendflex_dt_lag1 240m_trendflex_dt_lag2 240m_trendflex_dt_lag5 240m_trendflex_lag1 240m_trendflex_lag2 240m_trendflex_lag20 240m_trendflex_lag24 240m_trendflex_lag4 240m_trendflex_lag5 240m_voss 240m_voss_ddt 240m_voss_ddt_lag1 240m_voss_dt 240m_voss_dt_lag1 240m_voss_dt_lag3 240m_voss_filt_ddt 240m_voss_filt_ddt_lag3 240m_voss_filt_ddt_lag8 240m_voss_filt_dt 240m_voss_filt_dt_lag19 240m_voss_filt_lag1 240m_voss_filt_lag5 240m_voss_lag15 240m_voss_lag2 240m_voss_lag29 240m_voss_lag6 240m_vwap_ddt 240m_vwap_ddt_lag1 240m_vwap_dt 240m_vwap_dt_lag1 240m_vwap_dt_lag2 240m_vwap_dt_lag3 240m_vwap_lag13 240m_vwap_lag5 240m_williams_r 240m_williams_r_dt 240m_williams_r_dt_lag1 240m_williams_r_lag1 240m_williams_r_lag2 240m_williams_r_lag3 240m_williams_r_lag4 720m_ac_14 720m_ac_40 720m_ac_8 720m_acc_swing_index_ddt_lag13 720m_acc_swing_index_dt 720m_acc_swing_index_dt_lag4 720m_adaptive_bp_ddt_lag3 720m_adaptive_bp_dt_lag27 720m_adaptive_bp_lag27 720m_adaptive_bp_lead_dt_lag17 720m_adaptive_cci_ddt 720m_adaptive_cci_dt 720m_adaptive_cci_dt_lag11 720m_adaptive_cci_dt_lag24 720m_adaptive_cci_dt_lag8 720m_adaptive_rsi 720m_adaptive_rsi_ddt_lag27 720m_adaptive_stochastic_ddt_lag10 720m_adaptive_stochastic_ddt_lag3 720m_adaptive_stochastic_dt_lag13 720m_adaptive_stochastic_dt_lag29 720m_adaptive_stochastic_dt_lag4 720m_adaptive_stochastic_dt_lag9 720m_adaptive_stochastic_lag12 720m_adx_14_ddt_lag24 720m_adx_14_dt_lag17 720m_adx_14_dt_lag27 720m_adx_14_lag1 720m_adx_7 720m_adx_7_dt_lag23 720m_adx_7_lag19 720m_amihud_lambda_dt 720m_amihud_lambda_lag12 720m_amihud_lambda_lag2 720m_amihud_lambda_lag20 720m_amihud_lambda_lag6 720m_aroon_diff_ddt_lag29 720m_aroon_diff_dt_lag10 720m_aroon_diff_lag4 720m_bandpass 720m_bandpass_ddt 720m_bandpass_ddt_lag17 720m_bandpass_ddt_lag2 720m_bandpass_dt_lag24 720m_bandpass_dt_lag27 720m_bekker_parkinson_vol 720m_bekker_parkinson_vol_ddt_lag28 720m_bekker_parkinson_vol_lag28 720m_bekker_parkinson_vol_lag3 720m_chaiken_money_flow_ddt 720m_chaiken_money_flow_dt 720m_change_variance_ratio_ddt_lag1 720m_cmma 720m_cmma_ddt 720m_cmma_dt 720m_cmma_dt_lag11 720m_cmma_dt_lag3 720m_cmma_lag1 720m_comb_spectrum_dom_cycle_lag8 720m_comb_spectrum_pwr_10 720m_comb_spectrum_pwr_14 720m_comb_spectrum_pwr_15 720m_comb_spectrum_pwr_37 720m_comb_spectrum_pwr_9 720m_corwin_schultz_estimator_ddt_lag16 720m_corwin_schultz_estimator_ddt_lag22 720m_dft_dom_cycle_ddt_lag1 720m_dft_dom_cycle_ddt_lag8 720m_dft_spectrum_16 720m_dft_spectrum_26 720m_dual_diff_dt_lag24 720m_dual_diff_lag15 720m_dual_diff_lag5 720m_ehlers_early_onset_trend_ddt_lag12 720m_ehlers_early_onset_trend_dt 720m_ehlers_early_onset_trend_dt_lag2 720m_ehlers_early_onset_trend_lag13 720m_ehlers_early_onset_trend_lag15 720m_entropy_for_jesse_ddt_lag7 720m_evenbetter_sinewave_long 720m_evenbetter_sinewave_long_ddt_lag16 720m_evenbetter_sinewave_long_lag18 720m_evenbetter_sinewave_short_dt 720m_fisher_dt 720m_fisher_dt_lag6 720m_forecast_oscillator 720m_forecast_oscillator_lag10 720m_fti 720m_fti_best_period_ddt_lag2 720m_fti_best_period_lag13 720m_fti_best_period_lag5 720m_fti_ddt_lag1 720m_fti_dt_lag24 720m_fti_dt_lag28 720m_hasbrouck_lambda_dt_lag23 720m_hasbrouck_lambda_lag18 720m_hasbrouck_lambda_lag21 720m_hasbrouck_lambda_lag25 720m_hasbrouck_lambda_lag5 720m_highpass_bp 720m_highpass_bp_dt_lag13 720m_highpass_bp_dt_lag27 720m_highpass_bp_dt_lag29 720m_highpass_bp_lag12 720m_highpass_bp_lag5 720m_homodyne_dt_lag11 720m_homodyne_lag21 720m_hurst_coef_fast_ddt_lag5 720m_hurst_coef_fast_dt_lag22 720m_hurst_coef_fast_lag11 720m_hurst_coef_slow_ddt_lag11 720m_hurst_coef_slow_dt_lag10 720m_iqr_ratio_dt_lag13 720m_iqr_ratio_dt_lag27 720m_iqr_ratio_lag15 720m_iqr_ratio_lag18 720m_iqr_ratio_lag21 720m_kyle_lambda_dt_lag14 720m_kyle_lambda_lag11 720m_ma_difference_ddt_lag12 720m_ma_difference_ddt_lag9 720m_ma_difference_lag7 720m_mod_rsi_dt_lag23 720m_mod_rsi_dt_lag4 720m_mod_stochastic_ddt_lag6 720m_natr_ddt 720m_natr_ddt_lag18 720m_natr_dt 720m_natr_lag14 720m_natr_lag17 720m_natr_lag4 720m_natr_lag5 720m_natr_lag7 720m_norm_on_balance_volume_dt 720m_norm_on_balance_volume_dt_lag17 720m_norm_on_balance_volume_dt_lag19 720m_norm_on_balance_volume_dt_lag22 720m_norm_on_balance_volume_dt_lag3 720m_norm_on_balance_volume_lag2 720m_phase_accumulation_ddt_lag5 720m_phase_accumulation_lag22 720m_phase_accumulation_lag26 720m_price_variance_ratio_dt_lag29 720m_price_variance_ratio_lag2 720m_reactivity_ddt 720m_reactivity_ddt_lag12 720m_reactivity_dt 720m_reactivity_lag12 720m_roll_measure_lag19 720m_roofing_filter_ddt 720m_roofing_filter_dt_lag1 720m_roofing_filter_dt_lag21 720m_roofing_filter_lag9 720m_stc 720m_stc_ddt_lag19 720m_stc_ddt_lag22 720m_stc_ddt_lag25 720m_stc_dt 720m_stc_dt_lag2 720m_stc_lag20 720m_stc_lag25 720m_swamicharts_rsi_35 720m_swamicharts_rsi_8 720m_td_sequential_buy 720m_trendflex 720m_trendflex_ddt 720m_trendflex_dt 720m_trendflex_lag27 720m_trendflex_lag28 720m_voss 720m_voss_ddt 720m_voss_ddt_lag6 720m_voss_dt 720m_voss_filt_ddt 720m_voss_filt_dt_lag24 720m_voss_filt_dt_lag4 720m_voss_filt_lag17 720m_voss_filt_lag3 720m_voss_filt_lag8 720m_voss_filt_lag9 720m_voss_lag13 720m_voss_lag21 720m_vwap_ddt 720m_vwap_ddt_lag19 720m_vwap_dt 720m_vwap_dt_lag1 720m_vwap_lag15 720m_vwap_lag28 720m_williams_r 720m_williams_r_ddt 720m_williams_r_ddt_lag11 720m_williams_r_dt 720m_williams_r_dt_lag10 720m_williams_r_lag15
feature_infos=[8.453465205615629e-09:0.99999999864249056] [0.022798914288652328:0.97340762162785643] [-155.25052481795547:152.71340172619705] [-41142.301397855357:10538.373799518269] [-41134.859100811911:10530.969044308218] [-41142.516585492762:10537.764405249995] [-0.66366995974047704:0.6809695354963553] [-0.89557097103893768:0.75382844757279033] [-1.006044800427722:0.91702087864688764] [-168.12317461704447:140.46523755093423] [-0.15477419548757865:0.16261669244557692] [-0.27447042890889306:0.27630304204029538] [-0.274724688351911:0.27361569133200042] [-0.28114682904415444:0.28149000153791198] [-0.042039860769956042:1.0404412408357544] [6.5303470497552789:74.422413954939017] [-4.9329741356547245:2.6542296902689166] [-3.6050149254337711:4.0589498549454106] [-3.5032645330194256:3.986132877442234] [-4.032223383047139:4.0589484009718877] [-4.0322226314739424:3.7744633519052471] [6.7027427934133623:73.368900179727717] [7.7146939412410616:73.368915309821702] [7.6730964783560065:74.468408363880485] [6.5303409292326497:73.791985180578621] [7.6853039762114284:74.468399976621072] [9.0759108076324679:92.620410438042654] [-9.9997657081417017:8.1053076934567017] [-10.12470261759583:8.1053076934577675] [8.2320544671443692:91.615746419467996] [9.3936726284819567:90.702725284926188] [8.8126061525264827:92.135812819590583] [8.3356321987440651:90.702725284926075] [2.2761441794112314e-12:3.4844674477212634e-11] [-2.9194078531406097e-12:4.14433180309423e-12] [-4.2975346379642774e-12:4.2727712803750322e-12] [2.1705474799709015e-12:3.6189600802054686e-11] [2.4969644152818738e-12:3.6146082871364755e-11] [2.5824930468130229e-12:3.5911035204149796e-11] [-100:100] [-100:100] [-100:100] [-100:100] [-100:100] [-100:100] [-100:100] [-0.043472374515229645:0.076389054365578662] [-0.039107526440948948:0.054725991721602363] [-0.11247427269522911:0.11733697187593417] [-0.090278409431318291:0.093072020703237918] [-0.095071329624030337:0.10112250259349474] [-0.30799771190158404:0.30208111811719163] [-0.30046398169907762:0.2871445815998464] [-0.46443512446504248:0.19673758180897549] [-0.1523535622355634:0.34651243442988389] [-0.46285666228245148:0.51245172320561339] [-0.11282569439210272:0.10539006368256522] [-0.47015080625223299:0.47880457557562056] [-0.43489170058800419:0.4486111233195122] [-0.42400722942539143:0.44683454786850085] [-0.45900443323858847:0.45710816866391768] [-48.832489700175614:30.588126181202369] [-50.111104767483326:-49.85011502572511] [-0.08950970114163681:0.084751228575157711] [-0.064378263629421895:0.062652738426812959] [-50.104921953491981:-49.886102712656985] [-50.135948379169747:-49.876552611862657] [-50.108627865399079:-49.832364303114034] [-50.100187392874865:-49.851260253025806] [-50.106870968155256:-49.883645454636707] [-50.100780563231467:-49.851260251138633] [-50.094916822521284:-49.84950440970389] [-52:67.012538820061991] [0:48] [0:48] [-0.11274435727556506:0.15170858320522687] [-29.371301046706535:27.706169124965037] [-33.646054411208908:33.918460243221404] [-26.372169642686799:28.471176513282551] [10:42.63438109829535] [-3.1440197220724571:3.2410857702429645] [7.0690134822601935:48.852948729951294] [-1:1] [-0.96009691458443025:1.3227747603199151] [-0.96679584950093189:1.5221295845331952] [-1.1114062752236862:1.4355278186579703] [-1.435528683261877:0.74609219333224308] [-1:1] [-0.78131455927068749:1.1597725316073966] [0.51818621305021284:1.6094379124341005] [-0.99999687132846649:0.99999781850802305] [-2.0034209730199448:1.7298066455130805] [-2.1683468972322792:2.1191509671160653] [-1.1899868384558894:1.1959645086651312] [-1.1722561363035544:1.2077652023429972] [-0.99999504265131434:0.99999828101525845] [-0.99999994888082999:0.99999962694876998] [-0.99999139731868536:0.99999945882402475] [-0.99999992547995353:0.99999864356238544] [-0.99999438350983993:0.99999863195620264] [-0.99999540540486709:0.99999902077810499] [-0.99999413843185703:0.99999866648274671] [-0.99999596728492601:0.99999962694876998] [-0.99999655167776791:0.9999986654679055] [-0.99999484426149909:0.99999935600193413] [-1.724011397535115:1.9482243507268633] [-1.2847448360530698:1.3376073048651269] [-1.2716119349882418:1.2593623296974807] [-0.99999507289266987:0.99999346035717795] [-0.9999976266063294:0.99999526376122438] [-0.99998775821435604:0.99999935600193413] [-0.99999958701588665:0.99999892316075389] [-0.99998775821435604:0.99999935600193413] [-0.99999455598353548:0.99999791853252828] [-7.5064109680265707:7.5554927154746725] [-2.5874513979235063:2.477880291950175] [-2.5092534459827975:2.3342954057731085] [-2.8539998257378549:2.0725775301766376] [-2.5874513979235063:2.5058884279562985] [-7.5769044928819422:7.5121288686348731] [-7.423663589577302:7.5988977610941966] [-7.5534066512634848:7.554768420944078] [-7.5064109680265707:7.5554927154746725] [-7.5120329620388508:7.5121288686348731] [-7.423663589577302:7.554768420944078] [-7.5120329620388508:7.5121288686348731] [-7.2469248446542043:7.5554927154746725] [-4.9509845071867558:4.6368075958844042] [-2.8168275372604401:2.6474581572887232] [-120:102] [5:65] [5:65] [-30.340595623015044:49.889134657434369] [-31.651685615229137:49.895165220796784] [-31.498771236087595:49.888909797591324] [6.0305038745665631e-08:9.3617203418517825e-07] [-1.1520362980972412e-07:1.5876164091342428e-07] [-1.7234527886224243e-07:1.6561525339584148e-07] [5.4950067383066393e-08:1.0024395247128408e-06] [5.9409197749914895e-08:1.0028691183068647e-06] [5.7486260865578667e-08:9.5872862086690908e-07] [5.9409197749914895e-08:9.6610741055379601e-07] [6.210382287386412e-08:9.9335940417060493e-07] [5.7463064261274774e-08:1.0429332095611708e-06] [-0.040046440275188486:0.03621788156101953] [-0.062916203259827302:0.074707337318016223] [-0.20385805271346355:0.23724295767220818] [-0.20544315048367084:0.20834840186597361] [9.2882757243319318:49.315814801929704] [-2.9564502177440346:2.9817942349858306] [9.2881850496142135:49.106851963365457] [9.2353973428863974:48.845265635880381] [-0.11513496860598105:0.11534303162663606] [-0.071532114015120385:0.067893867517810125] [0.0035850021637601343:1.0427916240638437] [-102.66728929555507:184.77547075725988] [-326.40401940364541:142.68637826347023] [-489.04878027392664:-14.340589940104772] [-468.74897843225688:-14.319826962085026] [-477.6617548963178:-14.340589940104772] [-489.04878027392664:-14.340589940104772] [-422.62042581036076:863.92490239940525] [-422.63113678227819:863.92390472785337] [-736.09187763545924:662.51712574686098] [-395.49931657053821:559.69442514755792] [-1362.1851412005635:1613.8805468825376] [-1409.1598430314989:1617.1325391003629] [-1412.082083340043:1591.7778959987336] [-1412.1122842504483:1670.7602220735862] [-0.10490988661089151:0.12612436977494773] [-0.026220084743896296:1.0247331511932776] [-0.028200940110376865:1.0285887966300251] [0.0024109535816385238:0.9967941163675651] [0.002934429110381409:0.9960274720780119] [0.0029344300597143307:0.99640915979172062] [-0.20563934878637014:1.8292762449404445] [0.46351484581673291:5.8877900475466793] [0.46793207834625644:5.6704588835221674] [0.44643895398444489:5.8877900077642868] [0.45205688109851688:5.6704588409160817] [0.4679320736094037:5.6704588531900972] [0.46490264027286377:5.8877900656062554] [0.47531319746251233:5.6564583172878304] [0.46793210249598954:5.6704588384981447] [0.47857252357134483:5.6564583259175363] [0.47434764659451634:5.670458902863583] [0.4688625096510366:5.6564583617095039] [0.44922143411261417:5.8877900556315872] [-47.385046991845684:48.761575499534047] [-27.353285053617938:29.123993355170413] [-16.819196639873155:17.256843661034218] [-17.98403003748615:15.924908611065248] [-47.390485789248444:48.761575499534047] [-47.591930703566746:48.761575499534047] [-47.416042000217971:48.761575499534047] [-47.385046991845684:48.761575499534047] [-47.289792199563415:47.381104188445605] [-0.0078164364494384131:0.0061316211324715653] [-0.0094432924661340678:0.0060236312547061743] [-0.0080886727062612351:0.0064738417341274612] [-0.1350804698322996:0.11576777332538057] [-0.0028776111058164133:0.0031921552247098361] [-0.0042030346248509431:0.0024706538548286971] [-33.330758871483695:32.422814292536401] [-49.268436270236904:38.190949018710512] [-49.321073099433008:38.545744543994928] [-49.999999786668226:50] [-41.511105646778589:41.835793332445384] [-31.000735268684593:34.697202425924587] [-37.753270400525452:35.0566571708124] [-49.999533290197597:49.999999931854973] [-49.999601190755065:49.999999542212308] [-49.98983995260393:50] [-49.999959953981012:49.999999546524975] [-49.999988854149997:49.999999999982776] [-49.999845630219916:50] [-49.999841190972354:50] [-49.999599789623829:49.999999540030089] [-49.999999790434927:49.999999999983018] [-49.999960161253327:49.999999541120374] [-49.989790428601324:50] [-820.05971181270081:1072.4308834905235] [2.4499703203622776:1215.4498741255895] [-1638.8318269274496:1643.8548901691584] [-58.558638852276772:65.611019108971732] [-46.759209924176957:66.967792380915398] [-217.4399437839127:261.06599115251458] [-1657.0861006997645:1633.3182498435187] [-1639.0751103334956:1647.3402577442143] [-1688.656813118235:1621.7644454009712] [1.0300865587794289e-16:99.999999999999943] [-58.44843107184893:52.934666158160262] [-53.76740481242468:56.370325842312774] [-56.075614325390241:52.934838213466861] [-55.826805703642393:54.792283782145049] [-49.999999999999993:49.999999999997158] [-49.999999999999979:50] [-49.999999999999822:49.999999999997158] [-49.999999999999993:49.999999999997158] [-49.999999999997158:50] [2.0601731175588578e-16:99.999999999999986] [2.0978855542923398e-16:99.999999999999986] [5.1754057996157979e-17:99.999999999999972] [2.6852935094941949e-14:99.999999999999972] [5.3705870189883898e-14:99.999999999999957] [5.2286501621999565e-17:99.999999999999972] [8.3658402595199304e-16:99.999999999999943] [0:1] [0:1] [0:1] [0:1] [0:1] [0:1] [0:1] [0:1] [0:1] [0:1] [0:1] [0:1] [-2.943214566433888:2.9865043858774105] [-0.53151065071335002:0.62290436786731496] [-0.95889843956053111:0.79401920550080729] [-1.0377543199323487:0.92058873923159701] [-1.016215311616381:0.81056683854985412] [-2.8302779366422199:3.1352824175137441] [-2.9561365611420292:3.1353028910586409] [-2.9547415177587468:2.9330690484664563] [-2.9547451144434818:2.9330689308458462] [-1736.6090713037911:1563.0509517527585] [-831.65239484089489:925.64669621194071] [-622.67873610315473:770.45258473600143] [-1169.4437495054276:1019.844933225051] [-156.47223629450048:182.20010063525382] [-156.48108196252565:188.18929310438034] [-1119.7387079680802:1080.0826524026616] [-1177.5759133108591:1050.783551635717] [-1217.1954459844058:1087.472638701222] [-1097.376402606335:1013.0232231255347] [-1955.9230879088645:1475.6754789522597] [-7078.9921332972517:4031.360156107723] [-2033.2608624404456:4034.3563462171442] [-2338.5502860183842:3177.3085241782974] [-2256.0095639301799:3115.9529011949926] [-7582.3894234730105:4313.5566165399432] [-2033.2608624404456:4005.5913102447957] [-2298.3023558690111:3173.8083789190568] [9085.9262759358917:73282.293594388422] [-100:0] [-104.33802684600728:111.4553951961424] [-86.146198365589328:76.152163381193404] [-100:0] [-100:0] [-100:0] [-100:0] [-100:0] [-100:0] [-100:0] [-100:0] [-100:0] [-4.4481612837543594e-09:1.0000000044342328] [0.059469415738562681:0.96180418908127008] [-170.65330550335057:209.94065024347583] [-170.65330550335057:209.94065024347583] [-141.97267111856854:168.82302779073052] [-141.97267111856854:168.82302779073052] [-141.97267111856854:168.82302779073052] [-141.97267111856854:168.82302779073052] [355.34021671845375:33261.243103420296] [384.12723685271158:33442.180370941816] [384.12723685271158:33442.180370941816] [384.12723685271158:33395.423851697422] [9.0441950808812905e-05:1] [-0.6150948390060369:0.56086097820926883] [-0.6150948390060369:0.56086097820926883] [-0.60458924907719014:0.61987826270879776] [-0.76032028281007535:0.83778964102291642] [-154.06140100847739:134.51370225037917] [-33.997397093619142:29.257119112562897] [-42.522524412837839:46.378412720779821] [-42.522524412837839:46.378412720779821] [-42.522524412837839:46.378412720779821] [-42.522524412837839:46.378412720779821] [-0.26340940182335032:0.25662122947662225] [-0.040495403944646506:1.0377275203573233] [-0.15052775942353402:0.18640223354712915] [-0.15052775942353402:0.18640223354712915] [-0.26843008889195941:0.26694453610932528] [-0.26843008889195941:0.26694453610932528] [-0.040495403944646506:1.0377275203573233] [-0.040495403944646506:1.0377275203573233] [-3.9458323394670316:2.8824625134012791] [-3.9458323394670316:2.8824625134012791] [-4.1968621263957004:3.6631310823394685] [-4.1968621263957004:3.6631310823394685] [8.5683393374496397:70.808768361587695] [8.5683393374496397:70.808768361587695] [8.5683393374496397:70.808768361587695] [8.5683393374496397:70.808768361587695] [-10.904237412036821:8.3201356400185773] [-9.5682889732461831:7.649141180409714] [-9.5682889732461831:7.649141180409714] [-9.5682889732461831:7.649141180409714] [10.296790854778179:86.361475082160126] [10.296790854778179:86.361475082160126] [10.296790854778179:86.361475082160126] [1.4836635877085103e-12:1.6365796666907794e-11] [-1.8424830060458023e-12:1.8528278148720986e-12] [1.4836635877085103e-12:1.6365796666907794e-11] [1.4836635877085103e-12:1.6365796666907794e-11] [1.4836635877085103e-12:1.6365796666907794e-11] [1.4836635877085103e-12:1.6365796666907794e-11] [1.4836635877085103e-12:1.6365796666907794e-11] [1.4836635877085103e-12:1.6365796666907794e-11] [-100:100] [-107.14285714285714:107.14285714285715] [-100:100] [-1:1] [-0.58897496739602917:0.58210437083895328] [-0.58897496739602917:0.58210437083895328] [-0.58897496739602917:0.58210437083895328] [-0.76203671667024897:0.6420798655644866] [-1:1] [0:0.44467425678979472] [-0.3306731633804732:0.39312112606250404] [-0.3306731633804732:0.39312112606250404] [0:0.44467425678979472] [0:0.44467425678979472] [0:0.44467425678979472] [-0.48113665486907548:0.48397300460333842] [-0.17821115298483975:0.17671781304936063] [-0.17821115298483975:0.17671781304936063] [-0.094898461005968271:0.094934734439749063] [-0.094898461005968271:0.094934734439749063] [-0.094898461005968271:0.094934734439749063] [-0.48113665486907548:0.48397300460333842] [-0.48113665486907548:0.48397300460333842] [-0.48113665486907548:0.48397300460333842] [-0.48113665486907548:0.48397300460333842] [-61.84266485584866:58.493492030499716] [-49.173215527191253:29.368326258084949] [-50.090710550202154:-49.831328592030914] [-0.07908353823626868:0.083757108955119008] [-0.06595638994303954:0.052228670620046103] [-0.06595638994303954:0.052228670620046103] [-0.069088362311781282:0.052228670620046103] [-50.090710550202154:-49.831328592030914] [-50.090710550202154:-49.831328592030914] [-50.090710550202154:-49.831328592030914] [-50.090710550202154:-49.831328592030914] [-50.090710550202154:-49.831328592030914] [-60:66.99887528175762] [-48:48] [0.0049277382419906446:0.97992624652453941] [0.0086735834815511465:0.97472382135842883] [0.004879441912406671:0.80348043789618329] [0.047425873179232136:0.95256944693434487] [0.04742590137137398:0.95257060839530039] [0.047439480777899945:0.9523907845649171] [0.047488865745149766:0.95209475460678683] [0:0.18567041619892383] [-0.12006187508874167:0.1197455909113179] [0:0.18567041619892383] [-31.043484394429392:28.092404574280415] [-31.043484394429392:28.092404574280415] [10:43.136696622827557] [6.4818899882443967e-05:1] [-3.0451837401893442:2.9830153045438426] [8.3784854808906992:47.960707168905294] [-1:1] [-1.097934119205588:1.4292813408066802] [-1.097934119205588:1.4292813408066802] [-1.097934119205588:1.4292813408066802] [-1.097934119205588:1.4292813408066802] [-1.4292813408066802:0.74584598334278307] [-1:1] [-1:1] [-1:1] [-0.87684470065592202:0.86285029914911571] [0.58750093110620738:1.6094379124341005] [-0.99999738916124636:0.9999974779602091] [-1.9424382885758686:2.0394883196846791] [-1.1759523494468669:1.2514050216517147] [-1.1759523494468669:1.2514050216517147] [-0.99999738916124636:0.9999974779602091] [-0.99999738916124636:0.9999974779602091] [-0.99999738916124636:0.9999974779602091] [-0.99999738916124636:0.9999974779602091] [-0.99999075692396877:0.9999931198909513] [-2.1627170606948454:2.2054183138678627] [-2.1627170606948454:2.2054183138678627] [-1.4004855260230729:1.2904285310734589] [-1.4004855260230729:1.2904285310734589] [-0.99999075692396877:0.9999931198909513] [-0.99999075692396877:0.9999931198909513] [-7.251538045435403:7.5789233191917811] [-3.5894249852432472:3.3772060173471035] [-3.5894249852432472:3.3772060173471035] [-2.6079752511889156:2.3881486551450593] [-2.6079752511889156:2.3881486551450593] [-2.6079752511889156:2.3881486551450593] [-2.6079752511889156:2.3881486551450593] [-7.251538045435403:7.5789233191917811] [-7.251538045435403:7.5789233191917811] [-7.251538045435403:7.5789233191917811] [-7.251538045435403:7.5789233191917811] [-7.251538045435403:7.5789233191917811] [-3.5437679278720546:4.9006266380001868] [-3.5437679278720546:4.9006266380001868] [5:65] [-30.875076165711853:32.217949238540136] [-26.91086907654492:27.774807959563326] [-28.232224722680826:48.274293215222841] [-28.232224722680826:48.274293215222841] [6.8810874451110014e-08:7.6160344024453378e-07] [-1.0725286741791137e-07:1.0095680318074431e-07] [-1.0725286741791137e-07:1.0095680318074431e-07] [6.8810874451110014e-08:7.6160344024453378e-07] [6.8810874451110014e-08:7.6160344024453378e-07] [6.8810874451110014e-08:7.6160344024453378e-07] [6.8810874451110014e-08:7.6160344024453378e-07] [6.8810874451110014e-08:7.6160344024453378e-07] [6.8810874451110014e-08:7.6160344024453378e-07] [6.8810874451110014e-08:7.6160344024453378e-07] [6.8810874451110014e-08:7.6160344024453378e-07] [-1.2909577097707197:1.2990243892158424] [-0.60860628505062297:0.60223923691163206] [-0.60860628505062297:0.60223923691163206] [-0.71761990222328975:0.57843554035151001] [-1.2909577097707197:1.2990243892158424] [-1.2909577097707197:1.2990243892158424] [10.107582000629801:48.952028127550889] [-0.03467240512863079:0.050104512747143337] [-0.11338933320749345:0.11750899914849466] [-0.11338933320749345:0.11750899914849466] [0.045889979912781972:1.1041727171458682] [-0.025781037722545697:0.060580286498407548] [-0.025781037722545697:0.060580286498407548] [-0.025781037722545697:0.060580286498407548] [0:1.0459732757509279] [-92.431648870656019:73.076110204023252] [-246.14873770395604:-10.100232975223017] [-246.14873770395604:-10.100232975223017] [-246.14873770395604:-10.100232975223017] [-0.0045199451660785928:0.0053602841110441876] [-0.0047752765724030852:0.0045872721589062561] [-653.53915616842278:660.16692513810267] [-653.53915616842278:660.16692513810267] [-767.43142598264239:598.70578160520381] [-2783.5138638008721:1868.8532352069451] [-2783.5138638008721:1868.8532352069451] [-0.1065965618638326:0.11837316357298416] [-0.023965960823080522:1.027993592409457] [-0.023965960823080522:1.027993592409457] [-0.08883546448153945:0.11435182244575343] [-0.08883546448153945:0.11435182244575343] [0.88794628779648299:6.6823295161882488] [-1.6415093026897523:1.8400358123358396] [-1.6415093026897523:1.8400358123358396] [-0.33064573056932112:1.8926162144663718] [-0.33064573056932112:1.8926162144663718] [-0.33064573056932112:1.8926162144663718] [-0.33064573056932112:1.8926162144663718] [0.88794628779648299:6.6823295161882488] [0.88794628779648299:6.6823295161882488] [0.88794628779648299:6.6823295161882488] [0.88794628779648299:6.6823295161882488] [0.88794628779648299:6.6823295161882488] [0.88794628779648299:6.6823295161882488] [0.88794628779648299:6.6823295161882488] [0.88794628779648299:6.6823295161882488] [0.88794628779648299:6.6823295161882488] [0.88794628779648299:6.6823295161882488] [0.88794628779648299:6.6823295161882488] [0.88794628779648299:6.6823295161882488] [0.88794628779648299:6.6823295161882488] [0.88794628779648299:6.6823295161882488] [-47.356927850557256:47.37253643598558] [-26.326838841910138:27.289328862927874] [-14.164937731099371:13.912543638709217] [-14.164937731099371:13.912543638709217] [-14.164937731099371:13.912543638709217] [-47.356927850557256:47.37253643598558] [-47.356927850557256:47.37253643598558] [-47.356927850557256:47.37253643598558] [-3972.8203083809221:3749.6411930914519] [-0.0084344152430944064:0.0067584645470830651] [-0.0084344152430944064:0.0067584645470830651] [-0.14961283757989818:0.14176300179941137] [-0.14961283757989818:0.14176300179941137] [17.505872976514869:28.649078883555802] [17.505872976514869:28.649078883555802] [17.505872976514869:28.649078883555802] [17.505872976514869:28.649078883555802] [17.505872976514869:28.649078883555802] [17.505872976514869:28.649078883555802] [17.505872976514869:28.649078883555802] [-0.0030416662916650239:0.0025363351323761663] [-48.90625103234224:38.368016935868482] [-35.719645881084958:39.981859003076877] [-35.719645881084958:39.981859003076877] [-36.02385948202766:31.822838674025007] [-36.02385948202766:31.822838674025007] [-48.90625103234224:38.368016935868482] [-48.90625103234224:38.368016935868482] [-49.999968047548997:49.999999999999972] [-40.586798101299301:46.107014173891528] [-38.523884710292378:34.206909404424763] [-38.523884710292378:34.206909404424763] [-38.523884710292378:34.206909404424763] [-49.999968047548997:49.999999999999972] [-49.999968047548997:49.999999999999972] [-49.999968047548997:49.999999999999972] [-49.999968047548997:49.999999999999972] [-49.999968047548997:49.999999999999972] [-4.1842194222993987e-07:4.2102799791662273e-07] [3.3691282152664046:1751.4976407511326] [-82.015022191532807:85.994818434466424] [-82.015022191532807:85.994818434466424] [-82.015022191532807:85.994818434466424] [-326.89359337782173:333.49316265748666] [-3055.1355955180325:2065.8262047650023] [4.2089088747779529e-14:99.999999999999915] [-53.678824100759876:54.487658434630937] [-49.999999999999957:49.999999999999979] [-49.999999999999957:49.999999999999979] [-49.999999999999957:49.999999999999979] [4.2089088747779529e-14:99.999999999999915] [4.2089088747779529e-14:99.999999999999915] [0:1] [0.21988418363548101:0.79437349890634679] [0.26024092070271071:0.73057305641974235] [0.26624462616132688:0.73839931506537437] [0.33156236121177307:0.68884706417948383] [0:1] [0:1] [0:1] [0:1] [0:1] [0:1] [0:1] [0:1] [0:1] [0:1] [0:1] [0:1] [0:1] [0:1] [0:1] [0:1] [0:1] [0:1] [0:1] [0:1] [-2.9619520684294249:2.8387551227730756] [-0.56099164013263758:0.50904056821184462] [-0.56099164013263758:0.50904056821184462] [-1.0107388860422544:0.80818973874182376] [-1.0107388860422544:0.80818973874182376] [-1.0107388860422544:0.80818973874182376] [-1.0107388860422544:0.80818973874182376] [-2.9619520684294249:2.8387551227730756] [-2.9619520684294249:2.8387551227730756] [-2.9619520684294249:2.8387551227730756] [-2.9619520684294249:2.8387551227730756] [-2.9619520684294249:2.8387551227730756] [-2.9619520684294249:2.8387551227730756] [-2500.1978478594528:1950.1738241775356] [-1032.6050039017055:1324.1497412406231] [-1032.6050039017055:1324.1497412406231] [-1097.1977052894908:1235.2326463552617] [-1097.1977052894908:1235.2326463552617] [-1097.1977052894908:1235.2326463552617] [-215.54306779631554:253.94782717569365] [-215.54306779631554:253.94782717569365] [-215.54306779631554:253.94782717569365] [-475.84167128310548:442.61247261747235] [-475.84167128310548:442.61247261747235] [-1465.3966529839836:1325.8297982221907] [-1465.3966529839836:1325.8297982221907] [-2500.1978478594528:1950.1738241775356] [-2500.1978478594528:1950.1738241775356] [-2500.1978478594528:1950.1738241775356] [-2500.1978478594528:1950.1738241775356] [-5771.9557435357783:7105.5966532603998] [-5771.9557435357783:7105.5966532603998] [-6327.7421067057658:3368.1239887307529] [-6327.7421067057658:3368.1239887307529] [-6327.7421067057658:3368.1239887307529] [-6327.7421067057658:3368.1239887307529] [9013.1733333333323:73332.527696989986] [9013.1733333333323:73332.527696989986] [-100:0] [-84.403367944280689:63.108231014097264] [-84.403367944280689:63.108231014097264] [-100:0] [-100:0] [-100:0] [-100:0] [0.0016037042080920272:0.99751354575494888] [0.043480357675455161:0.9151464355101625] [0.00025726188594427102:0.99838597384017691] [-172.75638767033706:175.72390040334051] [-135.971539897154:133.49813732787237] [-138.35898134133527:130.55939452856023] [-0.8091474577483726:0.89740989964281137] [-0.92517773932993741:0.9112696727713383] [-1:1] [-0.90587363814180011:0.77781980339432333] [-31.370185567287116:30.450188110597306] [-43.826109731945699:44.828997913052532] [-43.816824120592749:44.000414166444003] [-43.779140138874268:44.276314243336884] [-43.816825194498591:44.000410841419651] [-0.039701954086712316:1.0392005567783507] [-0.16228856826546367:0.15520565148823279] [-0.22297936933263629:0.26902471877804701] [-0.22912834784374159:0.24834098976243857] [-0.27538452146786752:0.28425998025993637] [-0.27838561884265078:0.27716183187401511] [-0.28060293736731473:0.27785779794730558] [-0.26842323853800026:0.28425998441526706] [-0.040238186907931128:1.0422280136019093] [-4.490970923407744:3.1244106175610291] [-3.7947714656088181:4.0800117884289193] [-3.826203337333645:4.1064167643418727] [7.7300821725877755:66.52431701590227] [10.596522453601898:87.906028294559093] [-9.3683769937758967:8.6372234198262561] [10.506784207230286:88.079529777049871] [-1.7149239923538013e-12:1.1525152293272686e-12] [9.1376003326509351e-13:8.2914362788830353e-12] [9.1479436088396381e-13:8.5281953447375275e-12] [9.1376003326509351e-13:8.8144984388203523e-12] [9.2691952604976771e-13:8.5302751033987162e-12] [-178.57142857142858:171.42857142857144] [-107.14285714285714:107.14285714285715] [-100:100] [-1:0.99656408030365329] [-0.17825812121243989:0.50322449712389017] [-0.20230570483091165:0.38715649844256284] [-0.17806400008281587:0.46059973168087309] [-0.59154211310129412:0.3761275574893308] [-0.58436252663128807:0.37828765580863133] [0:0.48720620645374141] [-0.59385527569198526:0.4553539288199312] [0:0.4849267788057347] [0:0.48720620645374141] [-0.17483186250384886:0.17581361953029126] [-0.096593890119288567:0.097081734916975082] [-53.940667438624047:56.109190434088866] [-50.084434249911226:-49.89092843842657] [-0.084831344572016576:0.069319927237671664] [-0.050295377106046146:0.059639047898912168] [-0.053182207494458567:0.058286812353905759] [-0.04950677298928241:0.059639047898912168] [-50.083763830113263:-49.895754732841311] [0:48] [0.0024944413039123506:1] [0.0057792039519418761:1] [0.007966028957511544:1] [0.0091465993260431179:0.97574090062387675] [0.006186854463092176:1] [-0.29727425224288617:0.22695989349915244] [-0.393003722561448:0.36649790663964193] [-54.896754025154515:28.6907272095211] [-56.62630338899244:28.690485150323752] [1.8907767820703232e-06:1] [1.314345343610325e-05:1] [-5.5512280085120551:5.1511842007727182] [8.3700111375136697:47.734445358167847] [8.2991582597197269:47.580830550734191] [-1.2835501431382577:1.504544778744521] [-1.5651101743899276:0.71648082969259419] [-1.5651101743899276:0.64793636870799221] [-1:1] [-1:1] [-0.65570629974876837:0.96483900921756405] [-0.99999172635069378:0.9999991169232707] [-1.7178572104675902:1.8813321072331963] [-0.99999914218045405:0.99999843401899069] [-1.361314293848384:1.2110075752725999] [-3.072961172914793:2.5980556453166681] [-3.0883922245691711:2.4430615238080016] [-6.7420900043360268:6.1136278106047648] [-8.6957261484547512:6.3346813662705239] [-30.436237388119416:49.086541271675472] [-102:80] [0:65] [0:65] [-34.305814298831024:34.109081579578486] [-22.524089001580471:35.142268772435614] [-23.230018194688434:35.142268772435614] [-3.8688030032239308e-07:1.1532253171148705e-07] [7.3422909579376276e-08:6.5451105173728882e-07] [7.5635515220037578e-08:8.1048884679361989e-07] [7.5635515220037578e-08:1.197369147116013e-06] [7.4233513897456152e-08:6.7259378147185116e-07] [-1.2002306857389535:0.97090736849610626] [-0.44752541564377846:0.32605798121195784] [-0.48152763668666776:0.31963454208790953] [-0.48152763668666776:0.31963454208790953] [-1.159353989289384:0.98479869432436073] [-1.1639551056209732:0.97004474913789984] [-5.2239721076131929:5.0659099634651028] [11.231581657017561:49.464503437935605] [-0.04027363341322987:0.041795162171770484] [-0.10441853094749753:0.10847093906265193] [0.05911711825358687:1.1136622584761553] [-0.027526813745863743:0.083328283358348798] [-0.046422462367513129:0.17034169902129948] [-57.291639140707119:37.593162481594547] [-48.519739702740281:35.63956339558851] [-128.37495766360379:-4.8991136530176114] [-129.93006591636211:-4.8991136530176114] [-127.441496288038:-5.0250191094605832] [-0.0028963612102806714:0.0027457290566829957] [0.00025731044801266068:0.015430945439433765] [-1548.67011822309:1494.3626692999969] [-1548.6703553699626:1494.3626531205373] [-3612.6805471701009:3409.6996687812498] [-0.2120966549220149:0.20823508111512845] [-0.2132782942271757:0.19990547455941254] [-0.090157485300285556:0.092225559194762136] [-2.2072771720127515:2.0796773914364395] [-2.8529434258876734:2.8556203731215444] [-0.75747728364085987:2.0689514674384055] [1.7473125183348432:10.43317034501854] [1.7520670054998588:10.334066475425926] [1.7091960991310446:10.368773674654076] [1.7091960941907969:10.088506522826556] [1.7091960993837061:9.9461941860739511] [-14.045027695052468:13.870432567668473] [-14.028308374333712:13.882873679073569] [-14.028308374333712:13.882873679073569] [-14.056246014755743:13.881858363441111] [-14.063249614568697:13.549416901739875] [-47.438628987898568:47.421375701298032] [-0.0077902632057877952:0.0057060319469215415] [0.039349236633332313:29.709838893800175] [0:29.832242846907874] [-38.000532703899864:33.46474402447646] [-48.197292611635639:38.171174539667419] [-64.608645627474701:60.255513804876216] [-54.744235560749253:60.781197364892861] [-39.357390113609618:31.750135049935487] [-49.429857831385583:49.999999960285933] [7.0109126653579361:3019.3373799316673] [-135.83466081619326:131.78734730787164] [-521.69830668200598:439.05279000202256] [-514.77271485147457:435.22841302241739] [-3641.5588299736592:3329.7820462412083] [4.9158676555791662e-11:99.999999999999289] [-52.402769787703733:52.853542407377503] [-52.403218288143385:53.070029753968498] [-51.78537395777515:53.070062500050867] [-49.999999999999659:49.999999999975422] [-49.999999999999645:49.999999999975408] [4.5457362151744015e-11:99.999999999999361] [2.0481586460771442e-11:99.999999999999361] [0.28985590135996342:0.71742466587933462] [0:1] [0:14] [-2.8121015620875682:2.7658941684214704] [-0.61365456136818208:0.6870896714795327] [-1.1605124568029668:0.81404294308739622] [-2.7475888447940582:2.7009623304659014] [-2.7369430346953392:2.7010007228429571] [-3947.2533921762461:3807.5181170138799] [-1992.0543647636382:1868.3366298262913] [-2232.1730867377364:2019.0658744256625] [-1641.1693447994392:2102.5793033798836] [-359.32894995202037:441.64637953808096] [-700.12202112437012:869.58752477568419] [-665.54821347166819:879.79786704875391] [-2472.0596782289172:2218.6800610438759] [-2572.0414372838786:2191.1077577266797] [-2474.2966405636635:2273.3873950089492] [-2472.8833863150066:2273.3873950089492] [-4239.9446741538541:3948.3892668545022] [-4545.0510744439289:3964.6860957749141] [-7247.4527658910738:7856.5755413559455] [-7289.5336885600555:8827.3338793792645] [-7243.8039553958806:6091.7088427461495] [-7209.5400101317427:6091.7088427461495] [8522.2899999999991:73182.199999999997] [6758.6500000000005:73110.099999999991] [-99.945897204688933:0] [-100.99497249736723:111.72475383613555] [-96.691043230125175:111.59016990386046] [-72.810586186004869:77.941975021332581] [-72.810586186004869:66.821463634075116] [-100:0]
tree_sizes=1337 1597 1513 1325 1550 1381 1530 1667 1381 1541 1621 1315 1216 1528 1614 1540 1412 1518 1448 1315 1287 1395 1201 1411 1522 1393 1499 1295 1682 1540 1605 1390 1306 1301 1370 1398 1380 1375 1370 1570 1388 1293 1453 1797 1364 1491 1171 1394 1486 1159 1354 1255 1307 1390 1187 1213 1271 1274 1288 1553 1473 1663 1573 1565 1344 1392 1370 1248 1166 1245 1131 1345 1395 1365 1464 1285 1278 1078 1734 1034 1260 1511 1267 1181 1388 1237 1327 1284 1493 1293 1424 1351 1538 1262 1417 1250 1354 1042 1159 1246 1190 1378 1419 1291 1061 1386 1202 1364 1069 1603 1160 1457 1249 1148 1242 1374 1572 1185 1532 1283 1152 1184 1281 1371 1055 1457 1173 1284 1250 1431 1461 1473 1289 1166 1145 1093 1295 1274 1324 1219 1266 1480 1250 1350 1259 1263 1128 1455 1350 1125 1290 1381 1265 1164 1106 1278 1452 1319 1149 1313 1144 1166 1250 1347 1371 1129 1261 1160 1126 1395 1162 1499 1262 1520 1284 1007 1602 1274 1371 1104 1176 1309 1140 1499 1074 1425 1344 1326 1058 1223 1321 1141 1282 888 1123 1175 1447 1007 1276 1411 1372 1312 1246 1277 1463 1225 1423 1039 1355 1315 1041 1187 1127 1328 1237 1472 1360 1448 1297 1162 1280 1134 1266 1133 1357 1051 1459 1216 1370 1225 1313 1416 994 1162 1150 1046 1375 1228 1259 1337 1054 1242 875 1432 1267 1324 1153 1070 1068 1178 1352 1147 952 1127 1096 1244 1235 1239 1414 1062 1406 1455 954 1223 1153 1145 1309 1045 1178 1164 1270 1026 1031 1252 1342 1157 1558 1468 1034 1264 1076 1257 1160 934 1209 1027 1363 1468 1142 1422 1341 1356 1397 1460 1179 1471 1326 1193 1344 1270 1432 1153 1055 1251 1188 1633 1268 1035 986 1222 1316 1149 1280 1284 1354 1042 1072 858 1347 1058 1285 1143 1063 1418 1550 1060 1361 1248 1067 1247 1070 1072 1069 1256 1064 1151 1367 1127 1360 940 1160 1122 1145 1089 1142 1149 1092 1003 857 1294 1031 1312 1342

Tree=0
num_leaves=11
num_cat=0
split_feature=625 380 382 382 287 380 435 382 362 287
split_gain=2235.24 233.554 332.154 219.156 76.6778 39.6248 31.7266 28.7907 13.2255 10.4587
threshold=-19.575063188673081 -50.001504461047524 -0.00026946387338355743 0.0014392451058427016 -45.096044993854235 -49.993814390986856 -0.014368751729547572 0.0031546864433273929 0.0037221617642418073 -72.484914540027958
decision_type=2 2 2 2 2 2 2 2 2 2
left_child=3 7 6 4 -1 -4 -3 -2 -6 -5
right_child=1 2 5 9 8 -7 -8 -9 -10 -11
leaf_value=-0.016666189050132778 0.014514309269795305 0.023965885494324143 0.048146746205403448 0.014630547229348333 0.022055885742685449 0.067450915562838096 0.037334148957114476 0.03153584774827127 0.0010275974121621318 0.025334132620310316
leaf_weight=613.12638999521732 131.96815860271454 186.37345145642757 249.12990245223045 183.09710009396076 76.776062458753586 437.16303071379662 201.14503844082355 96.16381824016571 114.30056148767471 74.586991026997566
leaf_count=2254 499 712 977 693 292 1744 781 372 426 286
internal_value=0.0229435 0.0454598 0.0505063 -0.00490468 -0.0116274 0.0612953 0.0301972 0.0230268 0.0073241 0.0178339
internal_weight=2363.83 1301.94 1073.81 1061.89 804.203 686.293 387.518 228.132 191.077 257.684
internal_count=9036 5085 4214 3951 2972 2721 1493 871 718 979
is_linear=0
shrinkage=0.258752


Tree=1
num_leaves=14
num_cat=0
split_feature=303 380 498 631 287 437 556 498 556 380 594 829 642
split_gain=1262.28 930.93 144.039 134.727 114.728 69.8602 20.7753 16.737 15.7801 15.4529 11.3881 0.510515 0.471455
threshold=15.281426177392861 -50.002316402735275 -0.0065295443167412417 -41.561123640568795 -56.545542147439171 0.35639843578280156 4.8584454948837683 -0.0065295443167412417 6.4295884762437021 -49.993461338575621 -0.01123269136386512 -12.999201616452385 22.44915240361377
decision_type=2 2 2 2 2 2 2 2 2 2 2 2 2
left_child=1 5 4 6 -3 7 11 -1 12 10 -6 -2 -4
right_child=3 2 8 -5 9 -7 -8 -9 -10 -11 -12 -13 -14
leaf_value=-0.024018495504567923 0 -0.0081111673595139679 -0.012642193311607307 0.034550669571652683 0 -0.00336257630119274 0.016947284439379297 -0.038310957847947399 0 0.023378274255557576 0.013660848871962047 0.0020168111417476894 -0.0011947138314198896
leaf_weight=319.94927196204662 65.457460805773735 104.5577939748764 172.69287267327309 419.44988639652729 77.50220163166523 75.623570784926414 102.02454106509686 452.17031130194664 78.47177617251873 230.09404782950878 125.07479780912399 64.122166320681572 69.789637491106987
leaf_count=1190 250 396 651 1691 298 287 401 1655 302 911 490 248 266
internal_value=-0.00201861 -0.0130422 0.00436787 0.0261911 0.0121562 -0.0308829 0.00906725 -0.0331201 -0.00772399 0.0178068 0.0093219 0 -0.0107152
internal_weight=2356.98 1705.93 858.183 651.054 537.229 847.743 231.604 772.12 320.954 432.671 202.577 129.58 242.483
internal_count=9036 6446 3314 2590 2095 3132 899 2845 1219 1699 788 498 917
is_linear=0
shrinkage=0.0241271


Tree=2
num_leaves=13
num_cat=0
split_feature=631 303 303 437 437 642 556 498 380 612 399 228
split_gain=1318.19 510.24 347.547 139.744 61.0672 39.1345 37.4128 20.1229 17.4374 7.35531 2.55872 0.783519
threshold=-52.946305350762039 2.2165049775931043 4.150786186643928 -1.0000000180025095e-35 -0.14773435080190103 2.0558147215700733 4.0980850990372923 0.036742385153152986 -49.994202344957465 -13.603995604131333 0.01161924687729402 -135.21924637113389
decision_type=2 2 2 2 2 2 2 2 2 2 2 2
left_child=2 5 4 8 -1 -2 11 9 -3 -7 -6 -4
right_child=1 3 6 -5 10 7 -8 -9 -10 -11 -12 -13
leaf_value=-0.048187076121152597 -0.021293785954046542 0 -0.002399877919026011 0.043626595302305712 -0.029197679344787758 0 0.0099562355725599377 -0.013266463169121332 0.02026223770893406 0.0089107336072091065 -0.0099034904267570698 -0.014594046763275354
leaf_weight=480.91223067045212 108.61071561276913 123.21439960598946 117.4217040091753 560.03482459485531 130.25062349438667 163.21145661175251 136.46104431152344 83.605811879038811 93.082947313785553 131.59145782887936 109.22805175185204 102.00035543739796
leaf_count=1772 407 477 447 2292 485 627 531 315 374 512 413 384
internal_value=-0.00238191 0.0192685 -0.0281117 0.0351062 -0.0406326 -0.00535296 -0.00130109 0 0.0104229 0.00354242 -0.0226722 -0.0101602
internal_weight=2339.63 1263.35 1076.27 776.332 720.391 487.019 355.883 378.409 216.297 294.803 239.479 219.422
internal_count=9036 5004 4032 3143 2670 1861 1362 1454 851 1139 898 831
is_linear=0
shrinkage=0.0316043


Tree=3
num_leaves=11
num_cat=0
split_feature=625 380 382 382 596 632 498 338 94 546
split_gain=1283.42 274.195 174.272 159.419 62.1912 30.2612 23.6556 4.99749 4.85549 0.92944
threshold=43.250174713537497 -49.998354636478162 0.0041304529767067786 -0.0017386058411901215 -0.050755414195070785 -1.0000000180025095e-35 -0.021143871563513491 -1.0366643353176916 0.00098132717660576207 -1.1085140428888669
decision_type=2 2 2 2 2 2 2 2 2 2
left_child=1 2 4 9 -1 8 -6 -4 -3 -2
right_child=3 5 7 -5 6 -7 -8 -9 -10 -11
leaf_value=-0.035457681581841496 -0.00020804174273732532 -0.0068508035688792813 0.0070367367166617205 0.03222161245556255 -0.0021601088389057179 0.012420626014298962 -0.022176311429357859 -0.0014051162088259165 0 0.003099399764115311
leaf_weight=606.28512327373028 99.500466734170914 114.15693557262421 67.942865803837776 657.47544078528881 112.80499285459518 156.97544415295124 247.7751370370388 97.268042638897896 84.208033829927444 68.196875140070915
leaf_count=2275 382 434 265 2726 431 629 933 371 324 266
internal_value=-0.00198558 -0.0178137 -0.02462 0.0260031 -0.0291899 0.00296359 -0.0170832 0.0002019 -0.00301289 0
internal_weight=2312.59 1487.42 1132.08 825.173 966.865 355.34 360.58 165.211 198.365 167.697
internal_count=9036 5662 4275 3374 3639 1387 1364 636 758 648
is_linear=0
shrinkage=0.0283248


Tree=4
num_leaves=13
num_cat=0
split_feature=625 303 631 303 62 382 634 62 609 294 626 371
split_gain=1085.72 278.203 139.52 66.1683 77.4928 58.6111 36.3371 37.7722 4.0838 3.3834 2.77306 5.86142
threshold=-33.664876266375352 10.464794393601553 -76.132308148577565 -17.306839385411873 -49.999537357709009 0.0030255086856634254 -70.930840724813791 -50.003750854259543 5.1127165922519007 -71.580818381354618 17.23469474139711 -0.032607637934891721
decision_type=2 2 2 2 2 2 2 2 2 2 2 2
left_child=2 3 -1 -2 9 8 -3 -8 -4 -5 -6 -12
right_child=1 6 5 4 10 -7 7 -9 -10 -11 11 -13
leaf_value=-0.03276512810250163 -0.013911612037737263 0.0075349879060536331 -0.018022836520904355 -0.013282344431947648 0.0012030490543346872 0.0037749361166787283 0.0062929128649780028 0.031455445923287931 -0.0039580795477356795 -0.00074653436247108925 0.001647186879726398 0.014791661706202648
leaf_weight=449.9580599963665 123.31883352994919 119.76995478570461 308.85916590690613 64.92441226541996 84.282926023006439 88.880862697958946 82.852634221315384 418.78968235850334 85.132051050662994 98.979412481188774 88.765000700950623 266.62526848912239
leaf_count=1716 465 475 1177 246 329 344 338 1818 327 382 348 1071
internal_value=-0.00160978 0.0125843 -0.0223853 0.00153877 0.0053672 -0.0116522 0.0247996 0.0281 -0.0159215 -0.00796641 0.0111003 0.012495
internal_weight=2281.14 1348.31 932.83 726.896 603.577 482.872 621.412 501.642 393.991 163.904 439.673 355.39
internal_count=9036 5472 3564 2841 2376 1848 2631 2156 1504 628 1748 1419
is_linear=0
shrinkage=0.0250433


Tree=5
num_leaves=12
num_cat=0
split_feature=625 380 303 632 382 62 421 606 22 556 633
split_gain=746.719 354.034 126.773 89.8148 71.543 44.7247 40.7018 10.1035 3.05919 1.37094 1.11135
threshold=74.949893524197265 -50.006535204069849 1.4661285166694145 -10.982807895838212 0.0061485857716974133 -50.001026832962076 -0.012411068491113895 108.83202218399477 25.630665184660383 -6.1469880650555231 -6.7617183003672201
decision_type=2 2 2 2 2 2 2 2 2 2 2
left_child=1 4 5 -2 -1 -3 9 8 -7 -4 -8
right_child=3 2 6 -5 -6 7 10 -9 -10 -11 -12
leaf_value=-0.035073028997708158 -0.0024938500281778317 -0.02605842935627593 -0.0038435218764068888 0.031667966110561961 0 -0.012789086223918533 0.0075882590496052418 0 0 0.00016132141576643473 0.02239097454894045
leaf_weight=576.50865231454372 64.305488139390945 158.72546862065792 84.86768539249897 553.70949356257915 67.089534506201744 110.73068171739578 130.15056262910366 166.50686414539814 83.973839998245239 81.429961889982224 167.70831705629826
leaf_count=2248 249 612 327 2411 258 422 528 642 323 321 695
internal_value=-0.00183991 -0.01331 -0.000829914 0.0274895 -0.0315061 -0.0118934 0.0107069 -0.00410767 -0.00899471 0 0.0176382
internal_weight=2245.71 1627.69 984.093 618.015 643.598 519.937 464.157 361.211 194.705 166.298 297.859
internal_count=9036 6376 3870 2660 2506 1999 1871 1387 745 648 1223
is_linear=0
shrinkage=0.0318204


Tree=6
num_leaves=13
num_cat=0
split_feature=625 631 303 556 632 303 303 430 446 303 303 303
split_gain=609.175 388.255 113.99 90.565 75.6172 42.3094 26.5488 19.1337 14.4999 4.23329 2.65924 1.93379
threshold=82.485696914664018 -74.789759960388679 -15.367230501227821 -0.10089932450416937 -4.028056002898535 5.5505152289115367 -5.7389549984391115 -0.072299939628929707 -0.21318862380877887 -4.3986084056959944 17.217953600493733 7.6968804449634272
decision_type=2 2 2 2 2 2 2 2 2 2 2 2
left_child=1 5 -3 7 6 -1 -2 11 -9 -5 -10 -4
right_child=4 2 3 9 -6 -7 -8 8 10 -11 -12 -13
leaf_value=-0.034251806152103853 -0.00753350359300726 -0.018144786462363508 -0.014410472542151666 0.00087808955568262283 0.028611093780340064 -0.0080283746725784109 0.014210304522030844 -0.0077393920388352756 0 0.015490277582289255 0.01051103133204568 -0.0015795198650118969
leaf_weight=422.40093618631363 64.951249450445175 226.39615367352962 104.19140526652336 73.716177970170975 435.52206555008888 103.97356206178665 76.216410160064697 92.429978594183922 136.80887396633625 320.4008806347847 57.696634277701378 93.741314053535461
leaf_count=1706 248 872 408 286 1981 399 326 356 538 1312 241 363
internal_value=-0.00148801 -0.0103747 -0.000571205 0.00369551 0.0228301 -0.0299506 0.00200634 -0.0038331 0 0.0137113 0.00509447 -0.0103674
internal_weight=2208.45 1631.76 1105.38 878.985 576.69 526.374 141.168 484.868 286.935 394.117 194.506 197.933
internal_count=9036 6481 4376 3504 2555 2105 574 1906 1135 1598 779 771
is_linear=0
shrinkage=0.0279803


Tree=7
num_leaves=14
num_cat=0
split_feature=303 380 631 596 303 437 303 304 633 457 362 419 180
split_gain=800.772 490.773 119.564 83.3967 45.0519 43.3624 34.9098 29.6634 20.8323 10.6908 6.53513 5.22831 1.75501
threshold=-4.699833632422723 -49.997171814233248 -78.842806923881454 -0.10240844956493973 4.3094431592653573 0.032511664968937239 10.300160287036308 14.571938797667828 -10.807307135984647 2.2416043037598619e-07 0.0051309622727700394 0.99143441559458079 0.84441659264444791
decision_type=2 2 2 2 2 2 2 2 2 2 2 2 2
left_child=2 3 -1 6 -3 11 -2 9 -6 12 -7 -4 -5
right_child=1 4 5 7 8 10 -8 -9 -10 -11 -12 -13 -14
leaf_value=-0.019617935802509302 -0.012666494784269761 0.0049148034606218589 -0.013342838675357977 -0.0051560680971554545 0.0054995260718143316 0 -0.00085376557161548979 0.007353392880300018 0.017250489884053751 0.0020270499400852075 -0.0041747404183443146 -0.0041658134224216957 -0.00036955396023275388
leaf_weight=294.43996265530586 168.48424409329891 164.23739588260651 186.61328557133675 73.508060649037361 95.127561613917351 128.41481617093086 120.61688321828842 103.74678467214108 462.194260597229 104.52722078561783 104.28610326349735 97.494323834776878 153.66021159291267
leaf_count=1153 648 653 714 283 396 493 462 419 2038 413 396 370 598
internal_value=-0.000880477 0.00533745 -0.0121188 -0.00267567 0.0135617 -0.00724675 -0.00850888 0.000889748 0.0156777 -0.000749162 -0.00166059 -0.0110244 -0.00280905
internal_weight=2257.35 1446.1 811.248 724.543 721.559 516.809 289.101 435.442 557.322 331.695 232.701 284.108 227.168
internal_count=9036 5910 3126 2823 3087 1973 1110 1713 2434 1294 889 1084 881
is_linear=0
shrinkage=0.014142


Tree=8
num_leaves=12
num_cat=0
split_feature=631 609 303 303 437 632 556 290 290 496 290
split_gain=639.814 227.836 94.0258 83.6716 54.8163 36.7083 27.7225 27.3501 1.13099 1.00228 0.690343
threshold=-62.498601296069502 -22.995031152794635 2.2165049775931043 12.501976004583414 0.24226156724449624 -0.85676320490536495 2.5604151062193528 -61.329215019344453 -51.599556190207416 0.008144162511576793 -31.360847528484353
decision_type=2 2 2 2 2 2 2 2 2 2 2
left_child=3 4 10 6 5 -2 -1 -4 -7 -6 -3
right_child=1 2 7 -5 9 8 -8 -9 -10 -11 -12
leaf_value=-0.031565929764744212 -0.015136822881725057 0 0.010930913856773288 0 0.013342529273477371 0 -0.012197768350147239 0.031733106089747706 0.0038187741342750538 0.0016029053423287562 0.0023802551801542808
leaf_weight=485.98617874085903 277.15033532679081 73.520638018846512 151.20682491362095 131.72489121556282 100.30454671382904 79.939668551087379 179.03664779663086 429.96839013695717 70.755634024739265 106.99767816066742 99.567469552159309
leaf_count=1991 1068 286 629 511 428 318 702 1983 294 434 392
internal_value=-0.00156059 0.0104666 0.0215071 -0.0228839 -0.00217774 -0.00869415 -0.02714 0.0272051 0.00098548 0.00933735 0
internal_weight=2186.16 1389.41 754.263 796.748 635.148 427.846 665.023 581.175 150.695 207.302 173.088
internal_count=9036 5832 3290 3204 2542 1680 2693 2612 612 862 678
is_linear=0
shrinkage=0.0298414


Tree=9
num_leaves=13
num_cat=0
split_feature=631 382 303 437 631 556 345 437 139 183 625 339
split_gain=573.543 186.736 107.296 79.2736 54.3115 26.4375 25.7556 17.7638 16.708 7.81927 2.86736 1.9819
threshold=-30.873992854831098 -0.0012508735221423704 -1.0000000180025095e-35 0.168268296140243 -79.289635553541856 -1.3178875936814831 5.5085844100361299e-12 -0.20611741510658954 1.5958077599287289e-07 1.0359399476345499 47.757861392465209 -0.42511518228442385
decision_type=2 2 2 2 2 2 2 2 2 2 2 2
left_child=1 4 11 6 -1 -6 9 -4 -5 -3 -9 -2
right_child=2 3 7 8 5 -7 -8 10 -10 -11 -12 -13
leaf_value=-0.036837265679473125 -0.0015580987453246561 -0.016266702758518943 0.0058743032554962431 0 -0.021836565214696232 -0.002722511400983855 0.0014607762633771337 0.0098355771291222961 0.015738089479159535 -0.0032171567694847946 0.032884116083165126 0.0035277039851165076
leaf_weight=248.54710558056831 80.853251799941063 263.77100850641727 76.792133137583733 65.889559417963028 247.06195262074471 162.77859789133072 104.37031687796116 66.2180265635252 184.8036804497242 156.64466728270054 370.0405612885952 120.06017719209194
leaf_count=1080 310 1043 318 273 985 631 422 284 785 626 1810 469
internal_value=-0.00140662 -0.0126142 0.0204511 -0.00192676 -0.0244356 -0.015377 -0.00899955 0.0277189 0.0112083 -0.0124621 0.0305112 0
internal_weight=2147.83 1433.87 713.964 775.479 658.388 409.841 524.786 513.051 250.693 420.416 436.259 200.913
internal_count=9036 5845 3191 3149 2696 1616 2091 2412 1058 1669 2094 779
is_linear=0
shrinkage=0.0303315


Tree=10
num_leaves=14
num_cat=0
split_feature=625 632 62 382 631 563 362 104 238 546 304 206 193
split_gain=506.393 117.583 81.6614 62.2338 61.6924 24.674 21.4463 17.9601 8.54557 7.56033 3.30598 1.01131 0.992552
threshold=-49.803463074158564 -2.3712284194241131 -49.994649591635046 0.0011690316617887222 -18.146676336375716 -1.0000000180025095e-35 0.013495430969193414 -0.92426413995121426 4.0639508004720506 3.3953152328633327 12.795116510513255 -3.7057480227643533 -11.132484789111986
decision_type=2 2 2 2 2 2 2 2 2 2 2 2 2
left_child=3 4 6 5 8 -1 7 11 10 -5 -2 -3 -9
right_child=1 2 -4 9 -6 -7 -8 12 -10 -11 -12 -13 -14
leaf_value=-0.029326469009295669 -0.013715551506647381 -0.0044703740250353003 0.027612142479288167 -0.0079825692727056429 0.015837633669964501 -0.0089433838730355875 0.018088845426366958 0 0 0.0005172796042916645 -0.0025223155816544952 0 0.0099136837548679073
leaf_weight=425.47065196931362 157.1640430688858 102.61117114126682 315.94126825034618 128.2837006598711 112.29108513891697 132.44913160800934 131.57704885303974 71.230572640895844 86.722801133990288 61.788777500391006 146.52818493545055 57.854207769036293 179.2117522507906
leaf_count=1865 618 405 1556 502 497 523 590 293 343 242 575 242 785
internal_value=-0.00122438 0.00910149 0.0156031 -0.0203818 -0.00136667 -0.0253481 0.00761356 0.00307707 -0.00747175 -0.00348813 -0.00970779 -0.00285515 0.00825116
internal_weight=2109.12 1361.13 858.426 747.992 502.706 557.92 542.485 410.908 390.415 190.072 303.692 160.465 250.442
internal_count=9036 5904 3871 3132 2033 2388 2315 1725 1536 744 1193 647 1078
is_linear=0
shrinkage=0.028962


Tree=11
num_leaves=11
num_cat=0
split_feature=631 303 235 62 62 303 609 380 556 463
split_gain=568.735 275.216 81.8753 70.6796 56.4992 47.1816 26.0548 23.567 3.86354 3.51499
threshold=-21.334818246363884 -4.9472294780380244 -0.00038146972602254813 -49.999128241890908 -49.998966924271109 2.9683962394046834 87.858065467752212 -49.996916774204301 -1.1724059864151568 2.0180127373770204e-07
decision_type=2 2 2 2 2 2 2 2 2 2
left_child=1 3 6 -1 9 -2 7 -3 -8 -4
right_child=5 2 4 -5 -6 -7 8 -9 -10 -11
leaf_value=-0.021016345005375647 0.0040112345824147655 -0.0098120430927491863 -0.00331830205221998 -0.0070865842951679621 0.012366586612945268 0.020346484771924817 0 0 0.004169696961850238 0.00074035649977487205
leaf_weight=389.63400310277939 131.08514377474785 295.74335458874702 104.64438872039318 315.32307612895966 241.8646227568388 363.44348056614399 76.418289050459862 87.667667359113693 75.921117663383484 76.021806493401527
leaf_count=1642 521 1163 413 1222 1041 1760 303 354 310 307
internal_value=-0.000929707 -0.00635753 4.50115e-05 -0.0152873 0.00646067 0.0166395 -0.00459887 -0.00728708 0.000713301 -0.00039511
internal_weight=2157.77 1663.24 958.281 704.957 422.531 494.529 535.75 383.411 152.339 180.666
internal_count=9036 6755 3891 2864 1761 2281 2130 1517 613 720
is_linear=0
shrinkage=0.0189906


Tree=12
num_leaves=10
num_cat=0
split_feature=625 303 631 382 362 437 609 362 362
split_gain=552.243 122.558 122.384 39.3685 22.8809 18.2733 4.155 2.39791 0.984062
threshold=6.6964840654072768 6.5761602280508678 -84.801221103259266 0.0022773334976378128 0.015730788065039032 0.044034004714150241 -175.22668728260356 0.016307764971892149 0.010762226012671641
decision_type=2 2 2 2 2 2 2 2 2
left_child=2 6 -1 4 -4 -3 -2 -5 -8
right_child=1 5 3 7 -6 -7 8 -9 -10
leaf_value=-0.02371656634437086 -0.0010544096123144434 0.0063766553151617979 -0.0059644223808042922 -0.0002937620085876487 -0.017748586367198976 0.020403200391078753 0.0034402094695073567 0.0038135704864477424 0
leaf_weight=273.89942012727261 82.271313190460205 129.27989566326141 481.36966848373413 173.5143675506115 143.77939587831497 412.34231823682785 246.26893138885498 66.027784824371338 78.785031095147133
leaf_count=1244 321 563 1940 678 603 2100 1007 261 319
internal_value=-0.000860525 0.0110419 -0.0110249 -0.00649364 -0.00931311 0.0177042 0.00134359 0 0.00277206
internal_weight=2087.54 948.947 1138.59 864.691 625.149 541.622 407.325 239.542 325.054
internal_count=9036 4310 4726 3482 2543 2663 1647 939 1326
is_linear=0
shrinkage=0.0214765


Tree=13
num_leaves=13
num_cat=0
split_feature=380 303 382 62 502 399 382 261 452 430 252 371
split_gain=448.626 136.737 123.002 68.6505 23.4529 23.3065 22.8908 13.3424 11.2306 5.36719 3.8422 3.37751
threshold=-49.996667250806745 2.2165049775931043 0.00048247312720661745 -50.002835948139634 1.7333641989112849 0.0066646786939571203 0.0044815618440097191 -0.17296627460367106 8.7213645982367485 0.018653461674574271 0.24074442320168021 -0.0071295719616972291
decision_type=2 2 2 2 2 2 2 2 2 2 2 2
left_child=2 11 3 -1 8 -5 10 -3 -4 -7 -6 -2
right_child=1 7 4 5 6 9 -8 -9 -10 -11 -12 -13
leaf_value=-0.027903039285220414 -0.0021919788173550702 0.0051665424768824342 -0.013455286108235001 -0.017138523952137438 -0.0070223968242706346 -0.0058694338368357728 0.011162662128104692 0.026256575512155877 0 0.0012869276594374892 0 0.0036157940756450469
leaf_weight=358.42983607947826 178.78300300240517 75.653333336114883 123.94358879327774 144.59370429813862 66.525397822260857 110.68108113110065 149.1627701818943 417.62847220897675 61.454071089625359 106.53622952103615 134.68903310596943 120.74172559380531
leaf_count=1667 695 340 496 609 266 452 611 2197 249 420 556 478
internal_value=-0.00102469 0.015022 -0.0114641 -0.0189043 -0.000675055 -0.00859021 0.00282287 0.0238668 -0.00890797 -0.000903627 -0.00191005 0
internal_weight=2048.82 792.807 1256.02 720.241 535.775 361.811 350.377 493.282 185.398 217.217 201.214 299.525
internal_count=9036 3710 5326 3148 2178 1481 1433 2537 745 872 822 1173
is_linear=0
shrinkage=0.0277314


Tree=14
num_leaves=14
num_cat=0
split_feature=380 303 303 609 625 380 632 437 237 236 632 409 235
split_gain=386.87 108.979 96.6266 53.154 24.8882 14.215 11.1509 11.1158 4.05767 7.73065 3.90697 2.87116 1.4321
threshold=-50.002452012726344 18.977597644475285 6.7945837723546001 -73.867317575007164 -38.959737955110533 -49.991137088868975 -3.3692136792917569 -0.25166902618002157 -3.1532907859071666 -1.8618816980108353e-07 -16.962717106607233 -0.0083612951844815857 1.1255290388589857e-07
decision_type=2 2 2 2 2 2 2 2 2 2 2 2 2
left_child=2 3 4 6 -1 8 10 -3 -5 -10 -2 -4 -8
right_child=1 7 11 5 -6 -7 12 -9 9 -11 -12 -13 -14
leaf_value=-0.015769475406424479 -0.0087757525885536584 0.0014093151654938033 -0.0025134778068137014 0 -0.0045443099701115135 0.010705448058199497 0 0.015297292710845288 0 0.0055458589656666698 -0.001410989020449986 0.0010905134203028606 0.0024641109663726775
leaf_weight=433.09653308987617 73.786406069993973 57.828663170337677 96.105461031198502 58.845654249191284 146.28678520023823 147.92149537801743 72.951295584440231 282.46438732743263 82.463170200586319 182.48310305178165 175.055574208498 139.18115976452827 60.979490786790848
leaf_count=2074 289 242 376 241 596 712 294 1565 336 788 692 554 277
internal_value=-0.000581197 0.00548757 -0.00970592 0.00187981 -0.0134134 0.00581612 -0.00244349 0.0136502 0.00270776 0.00363875 -0.00465863 0 0.000199133
internal_weight=2009.45 1194.78 814.67 854.486 579.383 471.713 382.773 340.293 323.792 264.946 248.842 235.287 133.931
internal_count=9036 5436 3600 3629 2670 2077 1552 1807 1365 1124 981 930 571
is_linear=0
shrinkage=0.0171022


Tree=15
num_leaves=13
num_cat=0
split_feature=380 303 380 446 556 609 458 183 436 235 556 556
split_gain=331.067 147.864 64.1953 48.108 34.1345 31.1139 13.786 10.4955 9.24486 7.2858 2.62642 2.24898
threshold=-49.994202344957465 3.4319891368343183 -50.009378661718507 -0.34091825160496442 -5.3788197298973861 135.29546912004341 1.5123409977805035e-07 1.1370182001725937 0.15971763039504958 -5.5796702739781585 -2.5712032771198348 -1.8204783244333667
decision_type=2 2 2 2 2 2 2 2 2 2 2 2
left_child=1 2 -1 10 -4 6 -3 -7 -6 -5 -2 -8
right_child=3 5 4 9 8 7 11 -9 -10 -11 -12 -13
leaf_value=-0.019120979108712879 0 -0.0077746812429980734 -0.012407191697199386 0.0025614459603345674 -0.0042282705625185605 0.0010041593906777251 -0.00094062108573776118 0.012437276639544085 0.0015654059811982778 0.016267661993031871 0.0030960584900335472 0.0023312016405330417
leaf_weight=277.40981571376324 58.116874560713768 94.461395442485809 211.80606123805046 65.062817335128784 201.14867334067822 126.16926582157612 134.94113171100616 88.831643164157867 115.89026872813702 350.67189159989357 125.57803754508495 121.65160611271858
leaf_count=1409 227 380 941 305 820 548 541 397 471 1940 538 519
internal_value=-0.000594129 -0.00592952 -0.0112242 0.0111289 -0.00638124 0.00124673 -0.00176339 0.00712044 -0.00138052 0.0147936 0.00127256 0
internal_weight=1971.74 1372.31 806.255 599.43 528.845 566.055 351.054 215.001 317.039 415.735 183.695 256.593
internal_count=9036 6026 3641 3010 2232 2385 1440 945 1291 2245 765 1060
is_linear=0
shrinkage=0.0192916


Tree=16
num_leaves=12
num_cat=0
split_feature=631 382 62 382 303 407 90 184 437 708 723
split_gain=280.639 120.343 57.2569 25.8115 22.2037 19.3251 15.259 12.3395 2.88261 1.99536 1.13209
threshold=-68.205051733589499 -0.00026946387338355743 -50.000227433655652 0.0017279936567717871 -3.7482146011352593 28.053230543714022 0.98811772191296476 1.0586564101395668 0.28165912899104334 -0.53273312234386505 -0.039182235560004504
decision_type=2 2 2 2 2 2 2 2 2 2 2
left_child=3 4 7 10 5 8 -6 -3 -2 -7 -1
right_child=1 2 -4 -5 6 9 -8 -9 -10 -11 -12
leaf_value=-0.026120348403253973 -0.013200642620553312 0 0.021475625011475635 -0.005628573779960685 0 -0.0013986034838611501 0.013475387968195819 0.0092074182003148899 -0.00030572858883777141 0.0037950549691841808 -0.011685202823518433
leaf_weight=236.57375660538673 192.65415331721306 163.50647899508476 385.66610473394394 190.60438059270382 146.44997461140156 61.374755024909973 76.862831577658653 163.40844893455505 80.214257135987282 91.263724938035011 147.58669899404049
leaf_count=1278 791 688 2209 754 620 248 345 717 310 372 704
internal_value=-0.000759074 0.00601525 0.0140026 -0.0172584 -0.00228938 -0.00635484 0.00387777 0.00379452 -0.0107973 0 -0.0218679
internal_weight=1936.17 1361.4 712.581 574.765 648.82 425.507 223.313 326.915 272.868 152.638 384.16
internal_count=9036 6300 3614 2736 2686 1721 965 1405 1101 620 1982
is_linear=0
shrinkage=0.0281459


Tree=17
num_leaves=13
num_cat=0
split_feature=380 382 631 609 303 631 51 498 470 303 446 294
split_gain=215.729 116.476 92.0832 46.5121 41.7805 20.361 9.90908 8.00082 4.1283 3.2622 1.73175 1.56912
threshold=-50.008682452869742 0.0032222217598132379 -20.867917558913195 -140.5488740630033 5.3270816888689305 -55.098555375374836 -0.011540882407452045 -0.033239898339442624 28.341739510537344 1.0527132713305039 0.54330818477611242 -47.928608402187969
decision_type=2 2 2 2 2 2 2 2 2 2 2 2
left_child=4 2 3 -2 -1 -3 8 -8 -5 -4 -6 -9
right_child=1 5 9 6 10 -7 7 11 -10 -11 -12 -13
leaf_value=-0.028025848801263083 -0.017657521496634999 0.0024328317808712681 0.0040449108984920721 -0.010956989137913695 -0.0055534052899237473 0.024203069883647368 0.0094212784037062142 -0.0042143339693172018 0 0.019967120926995489 0 0.0005415974063167359
leaf_weight=292.11712673306465 246.05179573595524 107.38940943777561 103.94610810279846 99.654191717505455 62.950214967131615 289.59625050425529 103.73785364627838 79.968101054430008 109.84040415287018 158.45403149724007 62.399452179670334 186.38459058105946
leaf_count=1592 1049 440 417 422 249 1683 451 341 471 908 247 766
internal_value=-0.000859398 0.00470538 -0.000436496 -0.00610001 -0.0212917 0.0194988 -0.000308998 0.0020913 -0.00632265 0.0154992 -0.00174978 0
internal_weight=1902.49 1485.02 1088.04 825.637 417.467 396.986 579.585 370.091 209.495 262.4 125.35 266.353
internal_count=9036 6948 4825 3500 2088 2123 2451 1558 893 1325 496 1107
is_linear=0
shrinkage=0.032293


Tree=18
num_leaves=12
num_cat=0
split_feature=380 631 609 182 382 312 371 371 556 601 446
split_gain=215.155 114.981 58.0036 33.2565 30.3519 17.1889 12.8511 12.5554 5.49774 5.23389 3.12525
threshold=-49.994435423327566 -74.789759960388679 33.38115844656982 1.0210848970975199 0.0012272077207526879 -0.012940515194504077 -0.013525890987809508 -0.017775193414405383 2.6978996494465552 -0.12965936817480997 0.42639107319616798
decision_type=2 2 2 2 2 2 2 2 2 2 2
left_child=1 10 5 8 7 9 -7 -2 -4 -3 -1
right_child=4 2 3 -5 -6 6 -8 -9 -10 -11 -12
leaf_value=-0.020067256320286601 0 -0.0001890379065827007 -0.0060313959543470243 0.012834929526979948 0.019859408550042021 -0.0072657808833731458 0.0039894897365190017 0.0096253276103146785 0.0014150506348930322 -0.014168630196450599 -0.0050528379014730786
leaf_weight=319.91107627749443 138.74338127672672 74.921154707670212 88.55056756734848 211.49139299988747 237.07964618504047 116.22479385137558 116.85858626663685 198.48191259801388 91.652604982256889 192.17874664068222 82.279027849435806
leaf_count=1770 588 312 361 947 1576 482 488 916 411 831 354
internal_value=-0.000600435 -0.00660021 -0.000987336 0.00594946 0.0122549 -0.00706766 -0.000339649 0.00559402 -0.000636105 -0.0115591 -0.0179636
internal_weight=1868.37 1294.07 891.878 391.695 574.305 500.183 233.083 337.225 180.203 267.1 402.19
internal_count=9036 5956 3832 1719 3080 2113 970 1504 772 1143 2124
is_linear=0
shrinkage=0.0258417


Tree=19
num_leaves=11
num_cat=0
split_feature=631 631 594 631 518 430 612 823 178 116
split_gain=173.612 97.9144 39.0932 27.0696 21.3517 12.9129 11.0899 4.4919 6.61869 2.57831
threshold=-11.314835026836972 -59.319684641173843 0.020491288156643864 -70.52973644417547 0.084654075476482418 -0.10035803232811678 -24.757268953172765 280.19217002825832 0.85590685368695019 -0.21185404982807274
decision_type=2 2 2 2 2 2 2 2 2 2
left_child=1 3 6 4 -1 -4 -3 8 -8 -5
right_child=-2 2 5 9 -6 -7 7 -9 -10 -11
leaf_value=-0.018887536379127781 0.023350626361959413 -0.00585059387352927 0 -0.0049015747071826559 -0.0036591768422313702 0.011820796859549723 -0.00016813534687183711 -0.0022583646886000187 0.0063019200309909424 0
leaf_weight=318.09786312282085 178.55305679887533 271.02675254642963 76.879602164030075 84.437809780240059 162.90319189429283 259.01850132644176 64.494621559977531 112.39870914816856 174.11900650709867 135.0363294929266
leaf_count=1852 1231 1133 339 368 668 1350 275 478 774 568
internal_value=-0.00056965 -0.0034562 0.00175054 -0.0109786 -0.0145709 0.00907536 -0.00174942 0.000558408 0.00326455 -0.00138525
internal_weight=1836.97 1658.41 957.937 700.475 481.001 335.898 622.039 351.012 238.614 219.474
internal_count=9036 7805 4349 3456 2520 1689 2660 1527 1049 936
is_linear=0
shrinkage=0.0264597


Tree=20
num_leaves=11
num_cat=0
split_feature=625 303 303 631 62 399 498 769 556 362
split_gain=244.333 75.1051 43.3943 35.2131 33.0066 18.0824 4.97518 4.01667 3.11155 1.667
threshold=-3.6579523159198284 4.7281511380642778 24.569981169701354 -47.632388036572266 -49.994787076213299 0.02513210645168969 -0.033574833376549422 4.7732825528952878 -9.3719022206324123 0.00042217131993112401
decision_type=2 2 2 2 2 2 2 2 2 2
left_child=2 7 3 5 -3 6 -1 9 -5 -2
right_child=1 4 -4 8 -6 -7 -8 -9 -10 -11
leaf_value=-0.0021375028509383128 0.0018577442025034428 0.0036541711560384772 0.0028441741806727147 -0.0025298066266219231 0.011774342936315277 0 -0.0091710378893058633 -0.0027157522241048034 0 0
leaf_weight=92.895706281065941 120.80178172886372 291.0222601890564 76.828245937824249 87.036838620901108 226.96354041993618 81.122823551297188 481.37814572453499 64.340646341443062 136.49678687751293 214.46456494927406
leaf_count=407 500 1456 308 356 1505 358 2465 260 547 874
internal_value=-0.000345823 0.00439689 -0.00506978 -0.00597019 0.00766659 -0.00753274 -0.00836813 0 -0.000561254 0.000677347
internal_weight=1873.35 917.593 955.759 878.93 517.986 655.397 574.274 399.607 223.534 335.266
internal_count=9036 4595 4441 4133 2961 3230 2872 1634 903 1374
is_linear=0
shrinkage=0.013186


Tree=21
num_leaves=12
num_cat=0
split_feature=631 556 609 303 631 609 382 303 446 679 594
split_gain=159.778 72.483 57.9802 34.0334 31.6249 20.8986 14.011 4.83568 3.96354 3.13436 2.04115
threshold=-41.561123640568795 -0.56376707479785171 -18.018671256094361 2.7701238983330545 -12.422299259169053 71.743054799073107 0.00065957027547369773 -16.408467494044086 0.3674476830859526 0.0010418379350925005 -0.028270486971965599
decision_type=2 2 2 2 2 2 2 2 2 2 2
left_child=1 3 4 -1 9 7 -4 -3 -7 -2 -5
right_child=2 5 6 10 -6 8 -8 -9 -10 -11 -12
leaf_value=-0.018931893653261148 0 -0.010754420448384861 0.004436016280310655 -0.0074953123541154874 0.016070652432356659 0 0.019939218970620391 -0.00036415155016298158 0.0092661746842402602 -0.0045215756880300339 0
leaf_weight=343.66011501848698 188.02728183567524 76.558595716953278 129.34286518394947 59.867319568991661 69.029262743890285 121.17466561496258 235.38665515184402 173.79428113996983 109.0175162255764 159.82015040516853 154.34217157959938
leaf_count=1954 784 370 607 249 408 544 1610 738 486 659 627
internal_value=-0.000559648 -0.00737629 0.00806401 -0.0136687 0.000553706 0 0.0155543 -0.00506406 0.00558286 -0.00193442 -0.00333917
internal_weight=1820.02 1038.41 781.606 557.87 416.877 480.545 364.73 250.353 230.192 347.847 214.209
internal_count=9036 4968 4068 2830 1851 2138 2217 1108 1030 1443 876
is_linear=0
shrinkage=0.0259773


Tree=22
num_leaves=10
num_cat=0
split_feature=631 631 609 187 452 358 318 699 498
split_gain=157.153 104.363 55.6308 28.0158 17.679 10.8818 8.39172 7.37308 3.55667
threshold=-22.979158638953709 -82.805642728737482 -85.549869113506233 0.97632078815903389 -3.7967029822631484 -0.057667821966117284 2.175128080928133 0.15336398187609018 -0.033930739059313757
decision_type=2 2 2 2 2 2 2 2 2
left_child=1 -1 8 4 -4 -2 -6 -5 -3
right_child=5 2 3 7 6 -7 -8 -9 -10
leaf_value=-0.021575036460705035 0.0014040541045683896 0 -0.011073179994934901 0 -0.0023076362430164907 0.016740011012816344 0.0078860440648666572 0.0081566506645410417 -0.012080374536910098
leaf_weight=231.1929265409708 98.712458878755569 63.338054969906807 126.92715239524841 89.206361413002014 117.6674714833498 308.76903876662254 81.044314749538898 393.79181572794914 280.2550868242979
leaf_count=1440 535 266 553 396 507 1921 365 1793 1260
internal_value=-0.000528699 -0.00510499 -0.0013639 0.00221043 -0.00324893 0.0139595 0.000356538 0.00658139 -0.0105929
internal_weight=1790.9 1383.42 1152.23 808.637 325.639 407.481 198.712 482.998 343.593
internal_count=9036 6580 5140 3614 1425 2456 872 2189 1526
is_linear=0
shrinkage=0.0272773


Tree=23
num_leaves=12
num_cat=0
split_feature=631 596 382 446 303 287 339 303 463 751 133
split_gain=132.327 61.5093 48.5084 22.4 19.8128 14.4181 9.80838 7.12949 7.06675 4.6694 1.61783
threshold=-25.620539088941758 -0.0034138252997338854 0.0025103552906386999 -0.38218810681225601 -3.2090538525394545 -49.404997826429373 -2.1406299242292106 10.752565366192359 1.6258777945053343e-07 -0.27507050980565134 14.136411467710376
decision_type=2 2 2 2 2 2 2 2 2 2 2
left_child=1 2 5 9 -2 -1 -5 -6 -8 -3 -4
right_child=4 3 10 6 7 -7 8 -9 -10 -11 -12
leaf_value=-0.01739032174373038 0 0 -0.00071008472897566286 0.011414138972030074 0.005650695975054641 -0.0019424358708560157 -0.0040558410950078767 0.01992718584637531 0.0051686602365526883 -0.0090954346289643332 0.0041580992418643967
leaf_weight=422.46531953662634 107.69279414415359 81.778781987726688 161.33718422055244 145.83050967752934 139.64602790772915 116.02133928239346 81.437439560890198 203.2221108302474 141.58651372045279 105.74745831638575 58.817678116261959
leaf_count=2374 423 353 662 701 725 516 364 1553 653 463 249
internal_value=-0.00049986 -0.00515874 -0.0103379 0.00133409 0.0121697 -0.0147892 0.00576512 0.0154015 0.000260739 -0.0054608 0
internal_weight=1765.58 1315.02 758.642 556.381 450.561 538.487 368.854 342.868 223.024 187.526 220.155
internal_count=9036 6335 3801 2534 2701 2890 1718 2278 1017 816 911
is_linear=0
shrinkage=0.0278781


Tree=24
num_leaves=13
num_cat=0
split_feature=303 380 634 503 304 104 308 346 437 33 646 594
split_gain=118.761 68.8307 49.4922 25.2252 31.7067 20.033 15.6342 4.36589 4.27954 2.35619 4.28867 2.24107
threshold=3.099877421658221 -49.988578959180245 -78.842806923881454 1.336853984684393 1.4661285166694145 0.95756584409855272 20690.363056579117 7.4352918553255679e-14 -0.14117548991600268 1.0846367048567921e-11 -0.39284045341778523 -0.0066199820843142595
decision_type=2 2 2 2 2 2 2 2 2 2 2 2
left_child=2 3 -1 -2 9 6 11 -7 -6 10 -5 -4
right_child=1 -3 5 4 8 7 -8 -9 -10 -11 -12 -13
leaf_value=-0.024671379996302506 -0.012984099189994054 0.02288796879567882 -0.015029392656371585 0.00053928746630538802 0 0.0035822660806274532 0 -0.0029446257699844471 0.014640634045840583 0.0034887378987092754 -0.0045694497753036318 -0.0035782315844515166
leaf_weight=120.74470539391041 59.751011855900288 172.706119351089 186.99592313915491 91.55750572681427 52.45241904258728 207.18279424309731 180.4755847081542 86.467070057988167 183.23452255874872 58.254620134830475 208.5818268507719 131.45323438942432
leaf_count=877 271 1339 950 407 227 867 874 366 1069 260 920 609
internal_value=-0.000430682 0.00712947 -0.00766403 0.00217344 0.00446237 -0.00437947 -0.00788298 0.000445292 0.0124177 0 -0.00188051 -0.0116243
internal_weight=1739.86 826.538 913.319 653.832 594.081 792.575 498.925 293.65 235.687 358.394 300.139 318.449
internal_count=9036 4493 4543 3154 2883 3666 2433 1233 1296 1587 1327 1559
is_linear=0
shrinkage=0.0284778


Tree=25
num_leaves=12
num_cat=0
split_feature=631 631 625 382 514 470 718 632 382 339 446
split_gain=86.5891 62.6564 42.8909 24.6788 23.0595 9.88769 12.8946 6.98007 4.73212 2.10405 1.13775
threshold=-40.434247715303748 -13.282505274158206 -23.522640594672335 0.0027798531602627467 1.4977700793094051 28.547270069691994 -0.011712126702362434 -6.3869242085966889 -0.003606661337475003 2.6399290883719151 -0.30374226821305311
decision_type=2 2 2 2 2 2 2 2 2 2 2
left_child=2 5 3 9 -4 8 -7 -6 -2 -1 -8
right_child=1 -3 4 -5 7 6 10 -9 -10 -11 -12
leaf_value=-0.01205406214080559 -0.0079170111321170515 0.02484977181893128 -0.011744760311221281 0 0 0.017065706931090475 -0.001398058720311432 0.0093205007579072584 0 -0.027032176362348729 0.0030798360439754091
leaf_weight=361.35713276267052 96.361402064561844 182.16685371100903 94.479332804679871 154.42489975690842 71.599007837474346 78.909347772598267 79.169157229363918 221.17098075151443 172.58056328445673 94.673896200954914 108.95342712104321
leaf_count=2005 380 1441 398 617 300 381 323 1006 900 714 571
internal_value=-0.000472871 0.00811842 -0.0070952 -0.0126515 0.000681291 0.00133929 0.00630177 0.00632579 -0.00210632 -0.0165354 0
internal_weight=1715.85 718.141 997.705 610.456 387.249 535.974 267.032 292.77 268.942 456.031 188.123
internal_count=9036 3996 5040 3336 1704 2555 1275 1306 1280 2719 894
is_linear=0
shrinkage=0.0336783


Tree=26
num_leaves=13
num_cat=0
split_feature=437 446 290 303 303 303 631 502 290 631 382 62
split_gain=90.2442 49.2199 32.8666 24.6239 12.0101 9.52708 6.44891 4.79042 4.29272 3.8723 1.329 1.01973
threshold=-0.31613419389965564 -0.38218810681225601 -48.139627668467945 18.283665540066071 -25.306061419435533 14.980386452079076 -10.950010219193315 1.7333641989112849 -64.601937926261613 -49.898957567930658 -0.0014474063923408662 -49.995268297619923
decision_type=2 2 2 2 2 2 2 2 2 2 2 2
left_child=3 4 5 8 -2 10 9 -7 -1 -4 -3 -6
right_child=1 2 6 -5 11 7 -8 -9 -10 -11 -12 -13
leaf_value=-0.016420008964757593 -0.011887841946120902 0 0.00034594048953258047 0 -0.0035860985117362274 0 0.021731906193058644 0.0093128422390104295 -0.0044794143300090298 0.010760657049175086 -0.0035108507905247115 9.8745252408131157e-05
leaf_weight=270.39258962124586 112.9286475777626 54.863870181143284 117.15091969072819 85.544616006314754 53.186834327876568 56.710132084786892 98.393248356878757 107.26705282926559 140.39979607611895 245.83585589379072 174.86640387028456 175.76141908019781
leaf_count=1638 563 279 519 362 260 286 935 566 700 1374 785 769
internal_value=-0.000367368 0.00358426 0.00732427 -0.0104901 -0.00471272 0.000378176 0.0123816 0.00604407 -0.0133618 0.00843706 -0.00226275 0
internal_weight=1693.3 1196.96 855.087 496.337 341.877 393.707 461.38 163.977 410.792 362.987 229.73 228.948
internal_count=9036 6336 4744 2700 1592 1916 2828 852 2338 1893 1064 1029
is_linear=0
shrinkage=0.0280224


Tree=27
num_leaves=11
num_cat=0
split_feature=631 303 304 632 518 186 114 420 305 303
split_gain=153.097 52.8862 45.7527 37.2159 14.2432 9.12453 6.15808 5.29626 4.9893 4.77428
threshold=-76.96450174912205 33.586310210396967 -1.123179212352994 -8.6754811484271066 0.073145002537273754 0.8997025360585823 0.97187932759872953 0.019220540474000906 1.2833758524579937 10.300160287036308
decision_type=2 2 2 2 2 2 2 2 2 2
left_child=4 2 7 8 -1 6 -5 9 -4 -2
right_child=1 -3 3 5 -6 -7 -8 -9 -10 -11
leaf_value=-0.0097349399294274584 -0.0043718863854913838 0.0074380819986172271 -0.0029798609035896107 -0.00033346931593181139 -0.0015931004659079473 0.0053287180958820363 0.003756997394809948 0 0 0
leaf_weight=218.96180460602045 222.43477922677994 182.76319058984518 100.81878083199263 92.66390486061573 99.796097151935101 365.37498636543751 56.369865782558918 118.13019531965256 174.94417737424374 109.65101674199104
leaf_count=1520 1006 1204 436 432 424 1919 336 543 719 497
internal_value=-0.000189857 0.00143805 0.000384478 0.00224463 -0.00776635 0.00421536 0.000369074 -0.00252678 -0.000910471 -0.0033008
internal_weight=1741.91 1423.15 1240.39 790.172 318.758 514.409 149.034 450.216 275.763 332.086
internal_count=9036 7092 5888 3842 1944 2687 768 2046 1155 1503
is_linear=0
shrinkage=0.012167


Tree=28
num_leaves=15
num_cat=0
split_feature=631 556 382 304 303 399 430 743 789 679 513 339 788 679
split_gain=71.1568 35.5355 34.1005 26.3316 24.021 16.3691 13.7616 8.51337 7.79725 5.7439 2.34627 1.64532 1.50209 0.788505
threshold=-44.453939389940764 3.6046142244169492 -0.002220670748460662 -1.3382995620704603 17.000266651444694 0.016374755413827029 -0.030209353933079438 -0.44351153409036209 -3.4796988830642159 0.0081459653537507091 2.3492459284240308 0.029473651862758746 12.252778143125598 0.0060694099437428864
decision_type=2 2 2 2 2 2 2 2 2 2 2 2 2 2
left_child=1 4 9 13 5 -1 -5 8 -3 10 12 -9 -2 -4
right_child=2 7 3 6 -6 -7 -8 11 -10 -11 -12 -13 -14 -15
leaf_value=-0.01704221206865475 0 0 0.0024013061785951154 0 0 -0.0017048056705945248 0.019285927866738536 0.0073894600216043325 -0.011168674518952119 -0.0076162557237225929 -0.0016446741962040526 0 0.0059410205659590079 -5.2334394028400522e-05
leaf_weight=349.83899404853582 68.802310280501842 63.645202487707138 115.34209923446178 51.867539711296558 95.359807342290878 151.23991417884827 249.79384161531925 136.44669572263956 60.415094062685966 84.089166402816772 57.927666053175926 52.10721243172884 85.869664080440998 60.762185379862785
leaf_count=2158 283 292 607 309 380 745 1874 621 269 340 236 251 355 316
internal_value=-0.000352433 -0.00625445 0.0060831 0.0110833 -0.0105945 -0.0132682 0.0164182 0.000909725 -0.0034278 -0.000815439 0.000359787 0.0057117 0.00347947 0
internal_weight=1683.51 909.053 774.454 477.766 596.439 501.079 301.661 312.614 124.06 296.689 212.6 188.554 154.672 176.104
internal_count=9036 4716 4320 3106 3283 2903 2183 1433 561 1214 874 872 638 923
is_linear=0
shrinkage=0.0301513


Tree=29
num_leaves=14
num_cat=0
split_feature=631 409 303 556 37 382 304 498 810 681 74 697 62
split_gain=70.509 34.2705 29.4045 22.1765 11.6941 9.85176 6.39441 5.75721 3.79725 1.90414 1.33923 1.22775 0.957495
threshold=-51.091426479439171 -0.002052285958245081 5.1876040253882829 0.58394830039426193 5.9346911394998366e-12 0.0018120269458989926 -5.1597131268426883 -0.038443162133095947 139.23488928389727 0.018083521516650814 18.437985302795799 0.39902456401326514 -49.995546726322225
decision_type=2 2 2 2 2 2 2 2 2 2 2 2 2
left_child=2 5 3 7 -4 9 -3 -1 -5 12 -7 -6 -2
right_child=1 6 4 8 11 10 -8 -9 -10 -11 -12 -13 -14
leaf_value=0 -0.0055039824904882769 0 -0.0067303184905559959 -0.0040431013220613042 0 0.007316102970550931 0.0097142368011852876 -0.014774129711411232 0.00086885646068701619 0 0 0.0054893723460750768 0
leaf_weight=38.306014820933342 119.54864432662725 67.364174082875252 89.075706705451012 124.51867111772299 151.97241894155741 60.511131353676319 381.19619322568178 240.0377889201045 60.849946834146976 102.8035654425621 52.424168027937412 75.937665775418282 98.451310224831104
leaf_count=214 517 354 366 610 646 389 2372 1736 279 460 319 325 449
internal_value=-0.000227956 0.00407436 -0.00545228 -0.00912978 0 0 0.00853831 -0.0133536 -0.000957115 -0.00266549 0.00495489 0.00282691 -0.00385577
internal_weight=1663 882.299 780.698 463.712 316.986 433.739 448.56 278.344 185.369 320.804 112.935 227.91 218
internal_count=9036 4860 4176 2839 1337 2134 2726 1950 889 1426 708 971 966
is_linear=0
shrinkage=0.0232705


Tree=30
num_leaves=14
num_cat=0
split_feature=631 303 357 382 625 606 303 177 303 692 606 563 191
split_gain=76.9808 24.7911 24.2351 23.2283 22.1306 17.0026 12.6729 9.74462 4.79826 3.28894 1.74167 1.2163 1.09967
threshold=-53.620855967555784 -19.96577573140166 -0.070440462881638286 -6.1150836074830281e-05 -75.757127056353042 -121.46192291703458 0.74216354140526175 0.88239616785190156 24.569981169701354 0.0026469403667128692 14.309299575657663 -0.0099671310067702863 0.85868298326713
decision_type=2 2 2 2 2 2 2 2 2 2 2 2 2
left_child=3 -2 9 4 -1 11 -7 -5 12 -3 -6 -4 -9
right_child=1 2 5 7 10 6 -8 8 -10 -11 -12 -13 -14
leaf_value=-0.0128295047316908 -0.0036695906279975606 -0.0036302503513700904 0 -0.0056442128054426033 -0.0030441893026239546 0.0013302515771016917 0.010337544089363809 -0.0015483623066168679 0.0047316664836859297 0 0 0.0017678710704039204 0
leaf_weight=190.57558976113796 116.83390283584595 93.312474697828293 73.006897956132889 111.50388126820326 78.868673034012318 148.61966386437416 319.68845146149397 164.62782485038042 65.231041610240936 54.67841199785471 72.015095941722393 131.08093719184399 57.698805570602417
leaf_count=1432 484 410 324 483 453 609 2327 730 279 285 332 637 251
internal_value=-0.000218465 0.00319 0.00448053 -0.00483384 -0.00849084 0.00605458 0.00805209 -0.0010087 0.000108648 -0.00110452 -0.00112286 0.00021743 -0.000357566
internal_weight=1677.74 937.221 820.387 740.521 341.459 672.396 468.308 399.062 287.558 147.991 150.884 204.088 222.327
internal_count=9036 5076 4592 3960 2217 3897 2936 1743 1260 695 785 961 981
is_linear=0
shrinkage=0.0187486


Tree=31
num_leaves=12
num_cat=0
split_feature=631 380 353 303 534 74 303 446 609 335 317
split_gain=84.9323 48.2331 20.3945 17.2275 14.2343 14.0018 12.6033 7.42626 6.6635 2.56528 1.83417
threshold=-16.481143123153704 -50.008360185073151 -21.428571428571416 0.59269535433850262 21.660935882633357 13.585492551528896 4.4970370971468592 -0.36333966725960709 -142.91195141824565 26.971894991537884 4.2001285811542912
decision_type=2 2 2 2 2 2 2 2 2 2 2
left_child=1 3 4 -1 10 8 -2 -6 -4 -10 -3
right_child=6 2 5 -5 7 -7 -8 -9 9 -11 -12
leaf_value=-0.013466925900494461 2.0014692124519232e-05 -0.002726346180158515 -0.0030590621297928396 -0.0018118955473685264 0 -0.0052789976235246422 0.014696045194227833 0.0076602920953579264 0.0047467712632951785 0 0
leaf_weight=182.35093687474728 74.283161357045174 99.348844535648823 93.202911220490932 165.1588541790843 59.273999564349651 344.03914978355169 151.69070369750261 232.6322812512517 124.52443790435791 64.438009984791279 59.686591625213623
leaf_count=1430 350 468 430 730 262 1576 1441 1176 574 298 301
internal_value=-0.000197607 -0.00224026 0 -0.00884344 0.00326622 -0.00245845 0.0111658 0.00604435 0.000141545 0.00310439 -0.000331265
internal_weight=1650.63 1424.66 1077.15 347.51 450.942 626.205 225.974 291.906 282.165 188.962 159.035
internal_count=9036 7245 5085 2160 2207 2878 1791 1438 1302 872 769
is_linear=0
shrinkage=0.0207072


Tree=32
num_leaves=11
num_cat=0
split_feature=303 692 642 383 308 457 385 794 609 609
split_gain=64.6101 52.2463 20.655 18.3541 9.99836 8.34955 10.4316 4.22643 0.626026 1.01202
